{"learner":{"attributes":{"scikit_learn":"{\"_estimator_type\": \"regressor\"}"},"feature_names":["description","host_location","host_about","host_response_time","host_response_rate","host_acceptance_rate","host_is_superhost","host_listings_count","host_total_listings_count","host_has_profile_pic","neighbourhood","accommodates","bathrooms","bedrooms","beds","off_peak_min","peak_min","peak_max","off_peak_max","availability_30","availability_60","availability_90","availability_365","number_of_reviews","number_of_reviews_ltm","number_of_reviews_l30d","availability_eoy","estimated_occupancy_l365d","review_scores_rating","review_scores_accuracy","review_scores_cleanliness","review_scores_checkin","review_scores_communication","review_scores_location","review_scores_value","license","instant_bookable","calculated_host_listings_count","calculated_host_listings_count_entire_homes","calculated_host_listings_count_private_rooms","calculated_host_listings_count_shared_rooms","host_verifications_email","host_verifications_phone","host_verifications_work_email","has_self_checkin","has_wifi","has_kitchen","has_dryer","has_air_conditioning","has_heating","has_dedicated_workspace","has_hair_dryer","has_iron","has_gym","has_bbq_grill","has_breakfast","has_fireplace","has_smoking_allowed","has_pets_allowed","has_wine_glasses","has_crib","has_city_skyline_view","has_river_view","has_luggage_dropoff_allowed","has_long_term_stays_allowed","has_private_entrance","has_exterior_security_cameras","has_elevator","has_lock_on_bedroom_door","has_tub","has_washer","has_pool","has_alarm","has_garden_courtyard_view","has_outdoor","has_free_parking","amenities_count","count_appliances_expensive","has_ott","host_experience_months","host_category","host_non_exposure","hosting_period","recent_last_review","room_type_Hotel room","room_type_Private room","room_type_Shared room","property_grouped_Hospitality","property_grouped_House","property_grouped_Other"],"feature_types":["int","float","int","float","float","float","int","float","float","int","int","float","float","float","float","float","float","float","float","float","float","float","float","float","float","float","float","float","float","float","float","float","float","float","float","int","int","float","float","float","float","float","float","float","float","float","float","float","float","float","float","float","float","float","float","float","float","float","float","float","float","float","float","float","float","float","float","float","float","float","float","float","float","float","float","float","float","float","float","float","int","int","float","float","i","i","i","i","i","i"],"gradient_booster":{"model":{"cats":{"enc":[],"feature_segments":[],"sorted_idx":[]},"gbtree_model_param":{"num_parallel_tree":"1","num_trees":"300"},"iteration_indptr":[0,1,2,3,4,5,6,7,8,9,10,11,12,13,14,15,16,17,18,19,20,21,22,23,24,25,26,27,28,29,30,31,32,33,34,35,36,37,38,39,40,41,42,43,44,45,46,47,48,49,50,51,52,53,54,55,56,57,58,59,60,61,62,63,64,65,66,67,68,69,70,71,72,73,74,75,76,77,78,79,80,81,82,83,84,85,86,87,88,89,90,91,92,93,94,95,96,97,98,99,100,101,102,103,104,105,106,107,108,109,110,111,112,113,114,115,116,117,118,119,120,121,122,123,124,125,126,127,128,129,130,131,132,133,134,135,136,137,138,139,140,141,142,143,144,145,146,147,148,149,150,151,152,153,154,155,156,157,158,159,160,161,162,163,164,165,166,167,168,169,170,171,172,173,174,175,176,177,178,179,180,181,182,183,184,185,186,187,188,189,190,191,192,193,194,195,196,197,198,199,200,201,202,203,204,205,206,207,208,209,210,211,212,213,214,215,216,217,218,219,220,221,222,223,224,225,226,227,228,229,230,231,232,233,234,235,236,237,238,239,240,241,242,243,244,245,246,247,248,249,250,251,252,253,254,255,256,257,258,259,260,261,262,263,264,265,266,267,268,269,270,271,272,273,274,275,276,277,278,279,280,281,282,283,284,285,286,287,288,289,290,291,292,293,294,295,296,297,298,299,300],"tree_info":[0,0,0,0,0,0,0,0,0,0,0,0,0,0,0,0,0,0,0,0,0,0,0,0,0,0,0,0,0,0,0,0,0,0,0,0,0,0,0,0,0,0,0,0,0,0,0,0,0,0,0,0,0,0,0,0,0,0,0,0,0,0,0,0,0,0,0,0,0,0,0,0,0,0,0,0,0,0,0,0,0,0,0,0,0,0,0,0,0,0,0,0,0,0,0,0,0,0,0,0,0,0,0,0,0,0,0,0,0,0,0,0,0,0,0,0,0,0,0,0,0,0,0,0,0,0,0,0,0,0,0,0,0,0,0,0,0,0,0,0,0,0,0,0,0,0,0,0,0,0,0,0,0,0,0,0,0,0,0,0,0,0,0,0,0,0,0,0,0,0,0,0,0,0,0,0,0,0,0,0,0,0,0,0,0,0,0,0,0,0,0,0,0,0,0,0,0,0,0,0,0,0,0,0,0,0,0,0,0,0,0,0,0,0,0,0,0,0,0,0,0,0,0,0,0,0,0,0,0,0,0,0,0,0,0,0,0,0,0,0,0,0,0,0,0,0,0,0,0,0,0,0,0,0,0,0,0,0,0,0,0,0,0,0,0,0,0,0,0,0,0,0,0,0,0,0,0,0,0,0,0,0,0,0,0,0,0,0,0,0,0,0,0,0,0,0,0,0,0,0],"trees":[{"base_weights":[1.5884009E-3,-1.7339581E-1,5.341923E-1,3.6659073E-2,-3.9014924E-1,3.952872E-1,7.5297445E-1,-3.0582896E-1,9.142979E-2,-3.8623415E-2,-5.093181E-1,1.876255E-1,4.8379123E-1,6.0162246E-1,9.018003E-1,1.8225628E-3,-3.70516E-1,-8.408055E-3,1.8297163E-1,-1.2516414E-1,5.862395E-1,-6.062422E-1,-3.2308504E-1,-1.4064531E-1,2.8149828E-1,3.0428657E-1,5.621019E-1,3.749905E-1,6.851476E-1,1.0104648E-1,7.491407E-1,-4.8093766E-1,-1.9831313E-1,-1.577889E-1,8.413986E-2,2.2799395E-1,1.0414584E-2,-3.584773E-1,-5.660255E-2,4.3021265E-2,7.224337E-2,-7.4928063E-1,-4.996542E-1,-4.1999996E-1,-1.0407957E-1,-3.260063E-2,3.2656025E-3,1.2412326E-1,4.0356085E-1,-8.30823E-3,3.7189943E-1,4.9569228E-1,7.542053E-1,5.4311644E-2,1.3690968E-2,7.502638E-1,4.8341867E-1,6.183473E-1,8.76715E-2,-1.7709592E-2,-5.5928666E-2,-3.433227E-2,6.7654857E-3,1.1856678E-3,-2.9752681E-2,-1.97342E-3,1.891878E-2,2.0553736E-2,6.408655E-2,1.904676E-2,-2.0308945E-2,-2.112409E-2,-4.375317E-2,-1.3761683E-2,6.3393326E-3,-2.9099096E-2,-7.774142E-2,-3.901513E-3,-5.3028494E-2,-1.4467168E-2,-5.0080974E-2,1.0062685E-2,-1.7223006E-2,-6.1190774E-4,2.3938624E-2,1.5555488E-2,4.8331928E-2,2.8625837E-2,6.822754E-2,5.2806634E-2,1.8838672E-2,5.94231E-2,9.015732E-2,5.3501964E-2,8.043427E-2,2.9761791E-2,6.1618146E-2,3.9373927E-2,7.278686E-2],"categories":[],"categories_nodes":[],"categories_segments":[],"categories_sizes":[],"default_left":[0,0,0,0,0,0,0,0,0,0,0,0,0,0,0,0,0,0,0,0,0,0,0,0,0,0,0,0,0,0,0,0,0,0,0,0,0,0,0,0,0,0,0,0,0,0,0,0,0,0,0,0,0,0,0,0,0,0,0,0,0,0,0,0,0,0,0,0,0,0,0,0,0,0,0,0,0,0,0,0,0,0,0,0,0,0,0,0,0,0,0,0,0,0,0,0,0,0,0],"id":0,"left_children":[1,3,5,7,9,11,13,15,17,19,21,23,25,27,29,-1,31,33,35,37,39,41,43,45,47,49,51,53,55,-1,57,59,61,63,65,67,69,71,73,-1,-1,75,77,79,81,-1,-1,83,85,-1,87,89,91,-1,-1,93,95,97,-1,-1,-1,-1,-1,-1,-1,-1,-1,-1,-1,-1,-1,-1,-1,-1,-1,-1,-1,-1,-1,-1,-1,-1,-1,-1,-1,-1,-1,-1,-1,-1,-1,-1,-1,-1,-1,-1,-1,-1,-1],"loss_changes":[1.9444502E2,7.153195E1,1.5268753E1,1.49756565E1,3.2307228E1,5.6865807E0,3.7896118E0,2.3478174E0,6.315999E0,1.0680259E1,1.0126312E1,3.0427995E0,2.8630028E0,1.5678673E0,6.92749E-1,0E0,1.586072E0,4.582854E0,2.7705965E0,2.7215617E0,8.393383E-2,5.263794E0,4.148859E0,7.466939E-1,1.35707E0,1.8931584E0,1.4530563E0,1.0584664E0,4.728546E-1,0E0,5.9244156E-2,1.1366272E0,1.5163741E0,3.042747E0,2.246677E0,2.4260693E0,2.9590151E0,2.9664564E-1,1.3382539E0,0E0,0E0,1.7169724E0,3.026516E0,2.9333878E0,9.033942E-1,0E0,0E0,5.502158E-1,6.917138E-1,0E0,1.3026953E0,9.9287796E-1,1.8695259E-1,0E0,0E0,5.2654266E-2,2.4324942E-1,2.4083328E-1,0E0,0E0,0E0,0E0,0E0,0E0,0E0,0E0,0E0,0E0,0E0,0E0,0E0,0E0,0E0,0E0,0E0,0E0,0E0,0E0,0E0,0E0,0E0,0E0,0E0,0E0,0E0,0E0,0E0,0E0,0E0,0E0,0E0,0E0,0E0,0E0,0E0,0E0,0E0,0E0,0E0],"parents":[2147483647,0,0,1,1,2,2,3,3,4,4,5,5,6,6,7,7,8,8,9,9,10,10,11,11,12,12,13,13,14,14,16,16,17,17,18,18,19,19,20,20,21,21,22,22,23,23,24,24,25,25,26,26,27,27,28,28,30,30,31,31,32,32,33,33,34,34,35,35,36,36,37,37,38,38,41,41,42,42,43,43,44,44,47,47,48,48,50,50,51,51,52,52,55,55,56,56,57,57],"right_children":[2,4,6,8,10,12,14,16,18,20,22,24,26,28,30,-1,32,34,36,38,40,42,44,46,48,50,52,54,56,-1,58,60,62,64,66,68,70,72,74,-1,-1,76,78,80,82,-1,-1,84,86,-1,88,90,92,-1,-1,94,96,98,-1,-1,-1,-1,-1,-1,-1,-1,-1,-1,-1,-1,-1,-1,-1,-1,-1,-1,-1,-1,-1,-1,-1,-1,-1,-1,-1,-1,-1,-1,-1,-1,-1,-1,-1,-1,-1,-1,-1,-1,-1],"split_conditions":[2E0,2E0,6E0,2E0,7E0,8.9E-1,1.5E0,3.1E1,4.86E0,1E0,8.9E1,3E0,1.3E1,4.62E0,1E0,1.8225628E-3,8.7E1,1E0,1E0,2E0,3.3E1,1E0,4.1E1,4.89E0,1.1E1,2.6E1,1.5E0,3.3E1,5.7E1,1.0104648E-1,4.89E0,1E0,1.8E1,5E0,3.8E1,3.5E1,6E0,1.8E1,7.7E1,4.3021265E-2,7.224337E-2,1E0,1E0,1E0,1.25E2,-3.260063E-2,3.2656025E-3,3.5E1,4.69E0,-8.30823E-3,2E0,7.1E1,4.94E0,5.4311644E-2,1.3690968E-2,9.1E1,4.84E0,1E0,8.76715E-2,-1.7709592E-2,-5.5928666E-2,-3.433227E-2,6.7654857E-3,1.1856678E-3,-2.9752681E-2,-1.97342E-3,1.891878E-2,2.0553736E-2,6.408655E-2,1.904676E-2,-2.0308945E-2,-2.112409E-2,-4.375317E-2,-1.3761683E-2,6.3393326E-3,-2.9099096E-2,-7.774142E-2,-3.901513E-3,-5.3028494E-2,-1.4467168E-2,-5.0080974E-2,1.0062685E-2,-1.7223006E-2,-6.1190774E-4,2.3938624E-2,1.5555488E-2,4.8331928E-2,2.8625837E-2,6.822754E-2,5.2806634E-2,1.8838672E-2,5.94231E-2,9.015732E-2,5.3501964E-2,8.043427E-2,2.9761791E-2,6.1618146E-2,3.9373927E-2,7.278686E-2],"split_indices":[13,39,11,11,15,5,12,17,28,87,21,11,19,33,6,0,21,38,68,11,82,51,76,29,23,76,12,82,82,0,29,39,83,15,76,83,16,24,79,0,0,85,85,3,17,0,0,76,33,0,12,82,29,0,0,22,30,48,0,0,0,0,0,0,0,0,0,0,0,0,0,0,0,0,0,0,0,0,0,0,0,0,0,0,0,0,0,0,0,0,0,0,0,0,0,0,0,0,0],"split_type":[0,0,0,0,0,0,0,0,0,0,0,0,0,0,0,0,0,0,0,0,0,0,0,0,0,0,0,0,0,0,0,0,0,0,0,0,0,0,0,0,0,0,0,0,0,0,0,0,0,0,0,0,0,0,0,0,0,0,0,0,0,0,0,0,0,0,0,0,0,0,0,0,0,0,0,0,0,0,0,0,0,0,0,0,0,0,0,0,0,0,0,0,0,0,0,0,0,0,0],"sum_hessian":[2.084E3,1.569E3,5.15E2,7.97E2,7.72E2,3.17E2,1.98E2,1.09E2,6.88E2,1.96E2,5.76E2,9.6E1,2.21E2,1.01E2,9.7E1,1.8E1,9.1E1,3.29E2,3.59E2,1.73E2,2.3E1,3.77E2,1.99E2,2.1E1,7.5E1,6.9E1,1.52E2,2.9E1,7.2E1,5.3E1,4.4E1,5.4E1,3.7E1,1.26E2,2.03E2,2.84E2,7.5E1,3.8E1,1.35E2,1.3E1,1E1,1.58E2,2.19E2,1.37E2,6.2E1,1E1,1.1E1,3.4E1,4.1E1,1E1,5.9E1,1.16E2,3.6E1,1.6E1,1.3E1,5.2E1,2E1,2.5E1,1.9E1,1.2E1,4.2E1,2.4E1,1.3E1,5.7E1,6.9E1,1.02E2,1.01E2,2.71E2,1.3E1,4.1E1,3.4E1,1.5E1,2.3E1,8.1E1,5.4E1,1E1,1.48E2,1.4E1,2.05E2,3.2E1,1.05E2,1.5E1,4.7E1,1.6E1,1.8E1,1.1E1,3E1,4.8E1,1.1E1,1.04E2,1.2E1,2E1,1.6E1,1.3E1,3.9E1,1E1,1E1,1E1,1.5E1],"tree_param":{"num_deleted":"0","num_feature":"90","num_nodes":"99","size_leaf_vector":"1"}},{"base_weights":[-1.8288226E-4,-1.6315243E-1,4.795684E-1,2.1013664E-2,-3.664481E-1,3.314779E-1,7.254485E-1,1.3326427E-1,-1.1610225E-1,-6.385124E-2,-4.6092E-1,1.1040638E-1,4.022635E-1,5.0187165E-1,8.099764E-1,1.1504585E-1,4.943329E-1,1.07439995E-1,-2.532944E-1,-1.1964013E-1,4.9875196E-2,-5.373992E-1,-3.0289E-1,2.476779E-1,-3.2251928E-2,8.7970726E-2,4.34808E-1,3.095121E-1,7.89284E-1,9.885015E-2,7.621175E-1,6.492986E-2,2.1105883E-1,6.645011E-2,2.7013449E-2,1.6842453E-1,-7.0638254E-2,-7.330757E-2,-4.5521122E-1,-3.4419802E-1,-6.3109644E-2,-1.8992716E-1,-5.623119E-1,-5.958232E-1,-2.327877E-1,1.3720113E-1,3.8619506E-1,-1.2213165E-2,3.3409264E-2,2.3668763E-1,4.9505106E-1,5.4885216E-2,1.46022E-1,5.5716645E-2,9.279513E-2,6.1038053E-1,8.1146514E-1,1.8801643E-3,1.5990613E-2,3.1522464E-2,1.1492425E-2,-1.0151463E-3,2.3801474E-2,-2.0168198E-2,-0E0,-1.286553E-2,3.2341663E-2,-5.125739E-2,-2.0573849E-2,-4.2326313E-2,-2.1970673E-2,-2.5514653E-2,-9.839039E-4,-3.2508027E-2,-3.4064967E-3,-6.7257635E-2,-4.836988E-2,-3.7137177E-2,-6.667489E-2,-3.9519046E-2,-1.4832372E-2,3.1362936E-2,5.653773E-3,6.081397E-2,1.6143003E-2,4.022535E-3,3.28474E-2,4.6319675E-2,8.4133126E-2,-6.1749453E-3,3.8738627E-2,4.0110968E-2,7.213511E-2,7.131812E-2,9.3208335E-2],"categories":[],"categories_nodes":[],"categories_segments":[],"categories_sizes":[],"default_left":[0,0,0,0,0,0,0,0,0,0,0,0,0,0,0,0,0,0,0,0,0,0,0,0,0,0,0,0,0,0,0,0,0,0,0,0,0,0,0,0,0,0,0,0,0,0,0,0,0,0,0,0,0,0,0,0,0,0,0,0,0,0,0,0,0,0,0,0,0,0,0,0,0,0,0,0,0,0,0,0,0,0,0,0,0,0,0,0,0,0,0,0,0,0,0],"id":1,"left_children":[1,3,5,7,9,11,13,15,17,19,21,23,25,27,29,31,33,35,37,39,-1,41,43,45,-1,47,49,51,53,-1,55,57,59,-1,-1,61,63,65,67,69,71,73,75,77,79,81,83,-1,-1,85,87,-1,89,-1,-1,91,93,-1,-1,-1,-1,-1,-1,-1,-1,-1,-1,-1,-1,-1,-1,-1,-1,-1,-1,-1,-1,-1,-1,-1,-1,-1,-1,-1,-1,-1,-1,-1,-1,-1,-1,-1,-1,-1,-1],"loss_changes":[1.6251471E2,5.814939E1,1.8843239E1,1.2561134E1,2.1015228E1,5.08403E0,3.1853027E0,2.8357592E0,1.1297045E1,5.57726E0,6.54554E0,4.945523E0,2.4665985E0,2.7971582E0,2.7629852E-1,2.0229535E0,5.282121E-1,1.5420787E0,8.199839E0,1.9940343E0,0E0,3.081459E0,3.5980034E0,8.587587E-1,0E0,1.3547692E0,2.5070457E0,1.2590382E0,4.258156E-2,0E0,2.3110199E-1,1.223351E0,1.3827925E0,0E0,0E0,1.3300519E0,3.4915155E-1,2.7009826E0,1.3539276E0,1.5768266E-1,1.3111107E0,5.217738E-1,2.6016006E0,2.0575428E-1,1.972045E0,4.718094E-1,1.1717763E0,0E0,0E0,9.417081E-1,1.3770981E0,0E0,1.2099024E0,0E0,0E0,3.6476898E-1,1.6653442E-1,0E0,0E0,0E0,0E0,0E0,0E0,0E0,0E0,0E0,0E0,0E0,0E0,0E0,0E0,0E0,0E0,0E0,0E0,0E0,0E0,0E0,0E0,0E0,0E0,0E0,0E0,0E0,0E0,0E0,0E0,0E0,0E0,0E0,0E0,0E0,0E0,0E0,0E0],"parents":[2147483647,0,0,1,1,2,2,3,3,4,4,5,5,6,6,7,7,8,8,9,9,10,10,11,11,12,12,13,13,14,14,15,15,16,16,17,17,18,18,19,19,21,21,22,22,23,23,25,25,26,26,27,27,28,28,30,30,31,31,32,32,35,35,36,36,37,37,38,38,39,39,40,40,41,41,42,42,43,43,44,44,45,45,46,46,49,49,50,50,52,52,55,55,56,56],"right_children":[2,4,6,8,10,12,14,16,18,20,22,24,26,28,30,32,34,36,38,40,-1,42,44,46,-1,48,50,52,54,-1,56,58,60,-1,-1,62,64,66,68,70,72,74,76,78,80,82,84,-1,-1,86,88,-1,90,-1,-1,92,94,-1,-1,-1,-1,-1,-1,-1,-1,-1,-1,-1,-1,-1,-1,-1,-1,-1,-1,-1,-1,-1,-1,-1,-1,-1,-1,-1,-1,-1,-1,-1,-1,-1,-1,-1,-1,-1,-1],"split_conditions":[2E0,2E0,6E0,1E0,7E0,2E0,3E0,1E1,6E0,1E0,8.9E1,1E0,2E0,4.92E0,2.9E1,4.94E0,8.6E1,3.7E1,1E0,2E0,4.9875196E-2,1E0,7.4E-1,1E0,-3.2251928E-2,1E0,8.8E-1,6.5E1,6.3E1,9.885015E-2,1E0,1E0,4.94E0,6.645011E-2,2.7013449E-2,4.88E0,4.78E0,4.2E1,3.51E2,4.81E0,9E0,2.5E2,1E0,9.2E1,2E0,1.49E2,2.2E1,-1.2213165E-2,3.3409264E-2,1.75E2,2.6E1,5.4885216E-2,4.66E0,5.5716645E-2,9.279513E-2,2E0,2.66E2,1.8801643E-3,1.5990613E-2,3.1522464E-2,1.1492425E-2,-1.0151463E-3,2.3801474E-2,-2.0168198E-2,-0E0,-1.286553E-2,3.2341663E-2,-5.125739E-2,-2.0573849E-2,-4.2326313E-2,-2.1970673E-2,-2.5514653E-2,-9.839039E-4,-3.2508027E-2,-3.4064967E-3,-6.7257635E-2,-4.836988E-2,-3.7137177E-2,-6.667489E-2,-3.9519046E-2,-1.4832372E-2,3.1362936E-2,5.653773E-3,6.081397E-2,1.6143003E-2,4.022535E-3,3.28474E-2,4.6319675E-2,8.4133126E-2,-6.1749453E-3,3.8738627E-2,4.0110968E-2,7.213511E-2,7.131812E-2,9.3208335E-2],"split_indices":[13,39,11,85,15,19,13,37,16,87,21,85,14,29,79,28,21,24,3,11,0,85,5,47,0,59,5,79,21,0,50,74,34,0,0,32,30,83,22,33,19,22,51,22,11,22,21,0,0,26,83,0,34,0,0,12,22,0,0,0,0,0,0,0,0,0,0,0,0,0,0,0,0,0,0,0,0,0,0,0,0,0,0,0,0,0,0,0,0,0,0,0,0,0,0],"split_type":[0,0,0,0,0,0,0,0,0,0,0,0,0,0,0,0,0,0,0,0,0,0,0,0,0,0,0,0,0,0,0,0,0,0,0,0,0,0,0,0,0,0,0,0,0,0,0,0,0,0,0,0,0,0,0,0,0,0,0,0,0,0,0,0,0,0,0,0,0,0,0,0,0,0,0,0,0,0,0,0,0,0,0,0,0,0,0,0,0,0,0,0,0,0,0],"sum_hessian":[2.077E3,1.551E3,5.26E2,8.14E2,7.37E2,3.3E2,1.96E2,4.48E2,3.66E2,1.76E2,5.61E2,8.1E1,2.49E2,5.6E1,1.4E2,4.28E2,2E1,1.39E2,2.27E2,1.61E2,1.5E1,3.76E2,1.85E2,6.2E1,1.9E1,2.4E1,2.25E2,3.5E1,2.1E1,2.5E1,1.15E2,2.83E2,1.45E2,1E1,1E1,1.04E2,3.5E1,1.21E2,1.06E2,3.1E1,1.3E2,2.6E1,3.5E2,3.4E1,1.51E2,3.6E1,2.6E1,1.3E1,1.1E1,5.4E1,1.71E2,1.3E1,2.2E1,1E1,1.1E1,3.2E1,8.3E1,1.92E2,9.1E1,6.8E1,7.7E1,2.9E1,7.5E1,1.2E1,2.3E1,1.07E2,1.4E1,8.5E1,2.1E1,1.7E1,1.4E1,2.7E1,1.03E2,1.3E1,1.3E1,1.42E2,2.08E2,1E1,2.4E1,5E1,1.01E2,1E1,2.6E1,1.2E1,1.4E1,1.8E1,3.6E1,1.59E2,1.2E1,1.2E1,1E1,1.3E1,1.9E1,5E1,3.3E1],"tree_param":{"num_deleted":"0","num_feature":"90","num_nodes":"95","size_leaf_vector":"1"}},{"base_weights":[2.7798905E-4,-1.4298685E-1,4.367684E-1,2.439875E-2,-3.259641E-1,3.0216292E-1,6.396894E-1,9.3830734E-2,-1.6797039E-1,-4.1446647E-1,-4.670543E-2,-5.024498E-2,3.3946535E-1,4.8606122E-1,7.8016996E-1,-1.661151E-1,1.20849535E-1,1.20946625E-2,-2.8748685E-1,-4.9293837E-1,-2.384401E-1,-1.16681665E-1,4.534287E-1,-2.5724981E-2,2.3254978E-2,6.470776E-2,3.9323318E-1,2.8311303E-1,6.062074E-1,6.485104E-1,8.694143E-2,1.7694233E-2,-2.467133E-1,3.2665174E-2,1.7289804E-1,-1.4290874E-1,9.9469855E-2,-4.7934815E-1,-1.9151343E-1,-1.6071829E-1,-5.263647E-1,-3.428723E-1,-4.0960927E-2,-3.5336283E-1,-5.766762E-2,2.7401164E-2,5.7177525E-2,2.0989348E-1,-3.6790837E-2,2.2143821E-1,4.4606888E-1,4.4216546E-1,-0E0,7.128186E-1,4.2017445E-2,7.5388245E-2,4.1852966E-2,-9.756691E-3,-3.640936E-2,-5.771056E-3,1.4243736E-2,1.462808E-2,3.5970386E-2,-2.936909E-2,-5.2360534E-3,2.4313373E-2,-2.100532E-3,-5.3116944E-2,-2.7592732E-2,-8.680834E-3,-3.307878E-2,-2.6265383E-2,9.5006935E-3,-6.2115252E-2,-4.4180382E-2,-9.484555E-3,-3.935711E-2,-1.5417322E-2,1.4054908E-2,-4.256549E-2,-1.9509582E-2,-1.0676503E-2,1.9281752E-2,6.615543E-3,4.514181E-2,-1.1055357E-2,2.9655462E-2,3.870253E-2,6.2285025E-2,1.6142638E-2,6.440729E-2,6.0361035E-2,9.069828E-2],"categories":[],"categories_nodes":[],"categories_segments":[],"categories_sizes":[],"default_left":[0,0,0,0,0,0,0,0,0,0,0,0,0,0,0,0,0,0,0,0,0,0,0,0,0,0,0,0,0,0,0,0,0,0,0,0,0,0,0,0,0,0,0,0,0,0,0,0,0,0,0,0,0,0,0,0,0,0,0,0,0,0,0,0,0,0,0,0,0,0,0,0,0,0,0,0,0,0,0,0,0,0,0,0,0,0,0,0,0,0,0,0,0],"id":2,"left_children":[1,3,5,7,9,11,13,15,17,19,21,23,25,27,29,31,33,35,37,39,41,43,45,-1,-1,47,49,51,53,55,-1,-1,57,59,61,63,65,67,69,71,73,75,77,79,81,-1,-1,83,-1,85,87,89,-1,91,-1,-1,-1,-1,-1,-1,-1,-1,-1,-1,-1,-1,-1,-1,-1,-1,-1,-1,-1,-1,-1,-1,-1,-1,-1,-1,-1,-1,-1,-1,-1,-1,-1,-1,-1,-1,-1,-1,-1],"loss_changes":[1.2828598E2,4.7327362E1,1.3560867E1,1.07871E1,1.8174248E1,4.0816975E0,3.8321E0,4.1874633E0,4.636455E0,7.54467E0,6.283785E0,1.8184897E0,4.0356903E0,2.1534061E0,4.9461746E-1,1.5990202E0,2.447732E0,1.1746082E0,2.216464E0,4.1331863E0,3.5566292E0,2.1453867E0,2.2588253E-1,0E0,0E0,3.013475E0,1.9403114E0,1.7617915E0,7.9701614E-1,6.8198013E-1,0E0,0E0,7.2362566E-1,2.0206826E0,1.5774059E0,3.732617E-1,9.965641E-1,2.1547031E-1,1.212806E0,1.0062156E0,2.4246368E0,1.3473406E0,1.2970793E0,2.0956612E-1,1.586147E0,0E0,0E0,1.1681647E0,0E0,1.4728527E0,1.4950066E0,1.2325616E0,0E0,8.603859E-2,0E0,0E0,0E0,0E0,0E0,0E0,0E0,0E0,0E0,0E0,0E0,0E0,0E0,0E0,0E0,0E0,0E0,0E0,0E0,0E0,0E0,0E0,0E0,0E0,0E0,0E0,0E0,0E0,0E0,0E0,0E0,0E0,0E0,0E0,0E0,0E0,0E0,0E0,0E0],"parents":[2147483647,0,0,1,1,2,2,3,3,4,4,5,5,6,6,7,7,8,8,9,9,10,10,11,11,12,12,13,13,14,14,15,15,16,16,17,17,18,18,19,19,20,20,21,21,22,22,25,25,26,26,27,27,28,28,29,29,32,32,33,33,34,34,35,35,36,36,37,37,38,38,39,39,40,40,41,41,42,42,43,43,44,44,47,47,49,49,50,50,51,51,53,53],"right_children":[2,4,6,8,10,12,14,16,18,20,22,24,26,28,30,32,34,36,38,40,42,44,46,-1,-1,48,50,52,54,56,-1,-1,58,60,62,64,66,68,70,72,74,76,78,80,82,-1,-1,84,-1,86,88,90,-1,92,-1,-1,-1,-1,-1,-1,-1,-1,-1,-1,-1,-1,-1,-1,-1,-1,-1,-1,-1,-1,-1,-1,-1,-1,-1,-1,-1,-1,-1,-1,-1,-1,-1,-1,-1,-1,-1,-1,-1],"split_conditions":[2E0,2E0,6E0,1E0,1E0,2E0,1.5E0,2E0,7E0,4E1,1E0,1E0,1.4E1,1E0,7E0,6.1E1,3.3E1,3E0,5.5E1,1E0,8.9E1,2E0,5E0,-2.5724981E-2,2.3254978E-2,1E0,8.8E-1,3.8E1,1E0,2E0,8.694143E-2,1.7694233E-2,1E0,4.8E0,7E0,1E0,1E0,1E0,1E0,1E0,2E0,1E0,1E0,4.81E0,3E0,2.7401164E-2,5.7177525E-2,1E0,-3.6790837E-2,9.4E-1,1.5E0,4.9E1,-0E0,8E0,4.2017445E-2,7.5388245E-2,4.1852966E-2,-9.756691E-3,-3.640936E-2,-5.771056E-3,1.4243736E-2,1.462808E-2,3.5970386E-2,-2.936909E-2,-5.2360534E-3,2.4313373E-2,-2.100532E-3,-5.3116944E-2,-2.7592732E-2,-8.680834E-3,-3.307878E-2,-2.6265383E-2,9.5006935E-3,-6.2115252E-2,-4.4180382E-2,-9.484555E-3,-3.935711E-2,-1.5417322E-2,1.4054908E-2,-4.256549E-2,-1.9509582E-2,-1.0676503E-2,1.9281752E-2,6.615543E-3,4.514181E-2,-1.1055357E-2,2.9655462E-2,3.870253E-2,6.2285025E-2,1.6142638E-2,6.440729E-2,6.0361035E-2,9.069828E-2],"split_indices":[13,39,11,68,35,14,12,11,15,76,87,59,21,59,11,17,76,77,21,3,21,11,7,0,0,39,5,82,63,37,0,0,2,33,7,6,63,59,3,47,11,68,38,33,83,0,0,47,0,4,12,20,0,11,0,0,0,0,0,0,0,0,0,0,0,0,0,0,0,0,0,0,0,0,0,0,0,0,0,0,0,0,0,0,0,0,0,0,0,0,0,0,0],"split_type":[0,0,0,0,0,0,0,0,0,0,0,0,0,0,0,0,0,0,0,0,0,0,0,0,0,0,0,0,0,0,0,0,0,0,0,0,0,0,0,0,0,0,0,0,0,0,0,0,0,0,0,0,0,0,0,0,0,0,0,0,0,0,0,0,0,0,0,0,0,0,0,0,0,0,0,0,0,0,0,0,0,0,0,0,0,0,0,0,0,0,0,0,0],"sum_hessian":[2.049E3,1.543E3,5.06E2,8.06E2,7.37E2,3.06E2,2E2,5.93E2,2.13E2,5.59E2,1.78E2,2.9E1,2.77E2,9.8E1,1.02E2,5.5E1,5.38E2,8.5E1,1.28E2,3.85E2,1.74E2,1.57E2,2.1E1,1.7E1,1.2E1,4.6E1,2.31E2,3.8E1,6E1,4.5E1,5.7E1,1E1,4.5E1,2.01E2,3.37E2,3E1,5.5E1,4.1E1,8.7E1,3.6E1,3.49E2,1.13E2,6.1E1,3E1,1.27E2,1E1,1.1E1,3.5E1,1.1E1,5.6E1,1.75E2,2.4E1,1.4E1,3.6E1,2.4E1,2.9E1,1.6E1,2.1E1,2.4E1,1.1E2,9.1E1,2.97E2,4E1,1E1,2E1,2.5E1,3E1,3.1E1,1E1,5.1E1,3.6E1,2.6E1,1E1,1.61E2,1.88E2,2E1,9.3E1,3.8E1,2.3E1,1.9E1,1.1E1,1.07E2,2E1,2.3E1,1.2E1,1E1,4.6E1,1.34E2,4.1E1,1.1E1,1.3E1,2.6E1,1E1],"tree_param":{"num_deleted":"0","num_feature":"90","num_nodes":"93","size_leaf_vector":"1"}},{"base_weights":[-3.0342168E-3,-1.5997276E-1,3.1204265E-1,2.3588846E-3,-3.130797E-1,2.2758552E-1,5.8165884E-1,7.16589E-2,-1.4560488E-1,-7.326367E-2,-3.9328718E-1,1.7656144E-1,4.0491766E-1,4.406449E-1,6.5567935E-1,-1.4249359E-1,1.1632392E-1,4.159887E-2,-2.700619E-1,1.1144792E-1,-1.5572692E-1,-1.1551393E-1,-4.2656517E-1,8.189349E-2,2.6947004E-1,4.591691E-1,6.9441902E-3,5.215614E-1,2.7993238E-1,7.415233E-1,5.326311E-1,-4.746369E-2,-3.1710505E-1,8.5874146E-4,1.8681349E-1,-1.8243742E-1,1.11645386E-1,-4.2229658E-1,-1.5453975E-1,6.732802E-3,3.7310965E-2,-4.8067104E-2,-1.20213635E-1,-1.9609147E-1,1.1208003E-2,-4.5496884E-1,-1.13084525E-1,-0E0,1.9769746E-1,2.1404763E-1,4.5113263E-1,3.8662073E-1,6.4266935E-2,6.002469E-2,3.489814E-2,1.50161525E-2,3.9875865E-2,4.397304E-2,7.9108727E-1,2.4720548E-2,6.081034E-2,1.6232094E-2,-1.136479E-2,-1.2480899E-2,-4.4727653E-2,-2.6028095E-2,6.426529E-3,1.5904589E-2,5.374546E-2,-2.4487091E-2,-9.432779E-3,-1.175463E-2,1.863495E-2,-5.5874646E-2,-3.281926E-2,-4.21486E-3,-3.3566482E-2,-1.0030224E-2,1.3448645E-2,-1.8157763E-2,-1.2005673E-3,-3.018847E-2,-5.604756E-3,-6.391154E-2,-4.1624658E-2,-2.2171251E-2,2.041137E-2,1.7447013E-2,-4.8089186E-3,1.3302674E-2,4.0269304E-2,1.330636E-2,3.0034972E-2,6.066634E-2,3.1480122E-2,5.1558997E-2,2.9856388E-2,6.203605E-2,8.995026E-2],"categories":[],"categories_nodes":[],"categories_segments":[],"categories_sizes":[],"default_left":[0,0,0,0,0,0,0,0,0,0,0,0,0,0,0,0,0,0,0,0,0,0,0,0,0,0,0,0,0,0,0,0,0,0,0,0,0,0,0,0,0,0,0,0,0,0,0,0,0,0,0,0,0,0,0,0,0,0,0,0,0,0,0,0,0,0,0,0,0,0,0,0,0,0,0,0,0,0,0,0,0,0,0,0,0,0,0,0,0,0,0,0,0,0,0,0,0,0,0],"id":3,"left_children":[1,3,5,7,9,11,13,15,17,19,21,23,25,27,29,31,33,35,37,39,41,43,45,47,49,51,-1,53,55,57,59,61,63,65,67,69,71,73,75,77,-1,-1,79,81,-1,83,85,87,89,91,93,95,-1,-1,-1,-1,-1,-1,97,-1,-1,-1,-1,-1,-1,-1,-1,-1,-1,-1,-1,-1,-1,-1,-1,-1,-1,-1,-1,-1,-1,-1,-1,-1,-1,-1,-1,-1,-1,-1,-1,-1,-1,-1,-1,-1,-1,-1,-1],"loss_changes":[1.047155E2,3.5175507E1,1.5817497E1,7.047463E0,1.3927643E1,4.7382946E0,1.3445778E0,4.500002E0,5.136522E0,2.824457E0,4.9343567E0,3.6368933E0,2.0810566E0,5.6711006E-1,6.0786057E-1,1.2925502E0,3.1471786E0,1.3942697E0,2.1984692E0,1.5213001E0,1.3592274E0,1.1307168E0,4.2190857E0,1.9919586E0,1.9613037E0,1.0064945E0,0E0,2.2520447E-1,2.3989415E-1,4.2653656E-1,7.9814625E-1,7.633392E-1,5.878482E-1,2.4642622E0,2.1913586E0,5.8502853E-2,1.1930511E0,4.469967E-1,1.515549E0,5.912206E-1,0E0,0E0,7.5535023E-1,6.1399305E-1,0E0,2.8015366E0,1.4941919E0,1.0485071E0,1.0462363E0,1.0629039E0,7.346535E-1,6.2775135E-1,0E0,0E0,0E0,0E0,0E0,0E0,2.1546555E-1,0E0,0E0,0E0,0E0,0E0,0E0,0E0,0E0,0E0,0E0,0E0,0E0,0E0,0E0,0E0,0E0,0E0,0E0,0E0,0E0,0E0,0E0,0E0,0E0,0E0,0E0,0E0,0E0,0E0,0E0,0E0,0E0,0E0,0E0,0E0,0E0,0E0,0E0,0E0,0E0],"parents":[2147483647,0,0,1,1,2,2,3,3,4,4,5,5,6,6,7,7,8,8,9,9,10,10,11,11,12,12,13,13,14,14,15,15,16,16,17,17,18,18,19,19,20,20,21,21,22,22,23,23,24,24,25,25,27,27,28,28,29,29,30,30,31,31,32,32,33,33,34,34,35,35,36,36,37,37,38,38,39,39,42,42,43,43,45,45,46,46,47,47,48,48,49,49,50,50,51,51,58,58],"right_children":[2,4,6,8,10,12,14,16,18,20,22,24,26,28,30,32,34,36,38,40,42,44,46,48,50,52,-1,54,56,58,60,62,64,66,68,70,72,74,76,78,-1,-1,80,82,-1,84,86,88,90,92,94,96,-1,-1,-1,-1,-1,-1,98,-1,-1,-1,-1,-1,-1,-1,-1,-1,-1,-1,-1,-1,-1,-1,-1,-1,-1,-1,-1,-1,-1,-1,-1,-1,-1,-1,-1,-1,-1,-1,-1,-1,-1,-1,-1,-1,-1,-1,-1],"split_conditions":[3E0,2E0,3E0,1E0,7E0,1E0,1.5E0,7.3E-1,6E0,1E0,1E0,2E0,5.9E1,3.4E1,1E0,1E0,1.6E1,4.78E0,2.7E1,1E0,1.3E1,4.96E0,1E0,4.96E0,5E1,5E0,6.9441902E-3,3E0,4.82E0,2.7E1,9.2E-1,1E0,5E0,4.63E0,1E0,4.62E0,6.8E1,3E0,1E0,3.3E1,3.7310965E-2,-4.8067104E-2,4.9E0,7.8E1,1.1208003E-2,7.1E1,3E1,1E0,1.31E2,2.7E1,5.5E1,1E0,6.4266935E-2,6.002469E-2,3.489814E-2,1.50161525E-2,3.9875865E-2,4.397304E-2,6E0,2.4720548E-2,6.081034E-2,1.6232094E-2,-1.136479E-2,-1.2480899E-2,-4.4727653E-2,-2.6028095E-2,6.426529E-3,1.5904589E-2,5.374546E-2,-2.4487091E-2,-9.432779E-3,-1.175463E-2,1.863495E-2,-5.5874646E-2,-3.281926E-2,-4.21486E-3,-3.3566482E-2,-1.0030224E-2,1.3448645E-2,-1.8157763E-2,-1.2005673E-3,-3.018847E-2,-5.604756E-3,-6.391154E-2,-4.1624658E-2,-2.2171251E-2,2.041137E-2,1.7447013E-2,-4.8089186E-3,1.3302674E-2,4.0269304E-2,1.330636E-2,3.0034972E-2,6.066634E-2,3.1480122E-2,5.1558997E-2,2.9856388E-2,6.203605E-2,8.995026E-2],"split_indices":[11,39,13,68,15,35,12,5,16,68,3,13,24,82,6,85,19,28,19,74,20,33,58,31,76,11,0,37,30,20,5,3,83,30,61,30,22,77,3,76,0,0,28,79,0,22,19,3,79,19,76,88,0,0,0,0,0,0,83,0,0,0,0,0,0,0,0,0,0,0,0,0,0,0,0,0,0,0,0,0,0,0,0,0,0,0,0,0,0,0,0,0,0,0,0,0,0,0,0],"split_type":[0,0,0,0,0,0,0,0,0,0,0,0,0,0,0,0,0,0,0,0,0,0,0,0,0,0,0,0,0,0,0,0,0,0,0,0,0,0,0,0,0,0,0,0,0,0,0,0,0,0,0,0,0,0,0,0,0,0,0,0,0,0,0,0,0,0,0,0,0,0,0,0,0,0,0,0,0,0,0,0,0,0,0,0,0,0,0,0,0,0,0,0,0,0,0,0,0,0,0],"sum_hessian":[2.116E3,1.413E3,7.03E2,6.86E2,7.27E2,5.37E2,1.66E2,4.68E2,2.18E2,1.83E2,5.44E2,4.19E2,1.18E2,6E1,1.06E2,8E1,3.88E2,8.7E1,1.31E2,5.6E1,1.27E2,5.9E1,4.85E2,2.09E2,2.1E2,1.01E2,1.7E1,3.8E1,2.2E1,5.9E1,4.7E1,5.3E1,2.7E1,1.48E2,2.4E2,2E1,6.7E1,5.5E1,7.6E1,4.1E1,1.5E1,1.1E1,1.16E2,4.4E1,1.5E1,4.44E2,4.1E1,1.23E2,8.6E1,1.63E2,4.7E1,7.5E1,2.6E1,2.4E1,1.4E1,1.2E1,1E1,1E1,4.9E1,1.1E1,3.6E1,1.2E1,4.1E1,1.2E1,1.5E1,2.8E1,1.2E2,2.24E2,1.6E1,1E1,1E1,1.6E1,5.1E1,2E1,3.5E1,4.8E1,2.8E1,2.2E1,1.9E1,7.3E1,4.3E1,2.4E1,2E1,7.4E1,3.7E2,3.1E1,1E1,2.6E1,9.7E1,6.7E1,1.9E1,8.6E1,7.7E1,2E1,2.7E1,2.8E1,4.7E1,2.2E1,2.7E1],"tree_param":{"num_deleted":"0","num_feature":"90","num_nodes":"99","size_leaf_vector":"1"}},{"base_weights":[5.836504E-3,-1.18851125E-1,3.416667E-1,-3.6497092E-1,-2.9717632E-2,2.5148514E-1,5.544856E-1,-3.0716917E-1,-5.6497526E-1,5.8951627E-2,-1.6169545E-1,1.9320598E-1,3.861487E-1,4.0345493E-1,5.980901E-1,-4.3251187E-1,-2.556801E-1,-6.355211E-2,-4.644454E-1,1.04770094E-1,-8.103187E-2,-2.4189039E-1,1.324776E-2,2.4183005E-1,2.6365539E-2,2.97412E-1,5.006571E-1,2.8075492E-1,6.384431E-2,5.518886E-2,7.786584E-2,-4.8533008E-1,-2.1838162E-2,4.1720518E-4,-2.8090894E-1,-3.137271E-2,-5.0591793E-2,8.831666E-2,4.7501513E-1,2.636546E-2,-1.8359835E-1,-2.6977903E-1,1.1228045E-1,1.6704923E-1,-7.106879E-2,2.717251E-1,-3.0954193E-2,-3.8333707E-2,1.6851318E-1,1.1756078E-2,3.5548434E-1,2.4024758E-2,5.8295643E-1,3.9898507E-2,7.1680145E-3,-3.3089492E-2,-5.125156E-2,-2.2454297E-2,2.3443034E-2,-8.6532775E-3,-3.1937774E-2,5.0599007E-3,2.1404462E-2,2.968092E-2,6.0094696E-2,-1.4868969E-2,8.402253E-3,-3.891412E-2,-7.4048513E-3,-3.423877E-2,-1.5066631E-2,2.5932094E-2,-1.3083083E-3,8.922572E-3,4.328415E-2,-1.669872E-2,3.9791404E-3,4.285696E-2,2.2551702E-2,1.41225895E-2,-1.9453976E-2,-1.5396359E-2,5.632875E-3,2.3370518E-3,2.8924555E-2,4.3967586E-2,2.258656E-2,4.53296E-2,7.185548E-2],"categories":[],"categories_nodes":[],"categories_segments":[],"categories_sizes":[],"default_left":[0,0,0,0,0,0,0,0,0,0,0,0,0,0,0,0,0,0,0,0,0,0,0,0,0,0,0,0,0,0,0,0,0,0,0,0,0,0,0,0,0,0,0,0,0,0,0,0,0,0,0,0,0,0,0,0,0,0,0,0,0,0,0,0,0,0,0,0,0,0,0,0,0,0,0,0,0,0,0,0,0,0,0,0,0,0,0,0,0],"id":4,"left_children":[1,3,5,7,9,11,13,15,17,19,21,23,25,27,29,31,33,-1,35,37,39,41,43,45,47,49,51,53,-1,-1,-1,55,-1,57,59,-1,-1,61,63,65,67,69,71,73,75,77,79,81,83,-1,85,-1,87,-1,-1,-1,-1,-1,-1,-1,-1,-1,-1,-1,-1,-1,-1,-1,-1,-1,-1,-1,-1,-1,-1,-1,-1,-1,-1,-1,-1,-1,-1,-1,-1,-1,-1,-1,-1],"loss_changes":[8.736991E1,3.331665E1,1.0623634E1,4.409725E0,1.3103062E1,2.9988403E0,7.583389E-1,1.8599892E0,2.2602272E-1,4.301715E0,6.3393717E0,2.2464066E0,9.80463E-1,9.109888E-1,4.9671936E-1,8.415375E-1,1.4948215E0,0E0,1.5592575E-2,2.978075E0,1.8380994E0,3.0981388E0,1.8629276E0,1.8020992E0,6.172726E-1,6.420107E-1,8.4920216E-1,6.411834E-1,0E0,0E0,0E0,4.415703E-2,0E0,1.1591448E0,1.4795971E0,0E0,0E0,2.2626543E0,2.0313549E-1,8.23573E-1,1.8388267E0,2.3812618E0,4.5198736E-1,9.641019E-1,9.976492E-1,1.2584476E0,6.5246135E-1,5.109975E-1,3.299703E-1,0E0,4.0160418E-1,0E0,2.0761967E-1,0E0,0E0,0E0,0E0,0E0,0E0,0E0,0E0,0E0,0E0,0E0,0E0,0E0,0E0,0E0,0E0,0E0,0E0,0E0,0E0,0E0,0E0,0E0,0E0,0E0,0E0,0E0,0E0,0E0,0E0,0E0,0E0,0E0,0E0,0E0,0E0],"parents":[2147483647,0,0,1,1,2,2,3,3,4,4,5,5,6,6,7,7,8,8,9,9,10,10,11,11,12,12,13,13,14,14,15,15,16,16,18,18,19,19,20,20,21,21,22,22,23,23,24,24,25,25,26,26,27,27,31,31,33,33,34,34,37,37,38,38,39,39,40,40,41,41,42,42,43,43,44,44,45,45,46,46,47,47,48,48,50,50,52,52],"right_children":[2,4,6,8,10,12,14,16,18,20,22,24,26,28,30,32,34,-1,36,38,40,42,44,46,48,50,52,54,-1,-1,-1,56,-1,58,60,-1,-1,62,64,66,68,70,72,74,76,78,80,82,84,-1,86,-1,88,-1,-1,-1,-1,-1,-1,-1,-1,-1,-1,-1,-1,-1,-1,-1,-1,-1,-1,-1,-1,-1,-1,-1,-1,-1,-1,-1,-1,-1,-1,-1,-1,-1,-1,-1,-1],"split_conditions":[4E0,2E0,3E0,9E0,2E0,4.7E1,7E0,3.6E1,8.9E-1,1E0,1E0,2E0,4.92E0,1E0,4E0,4.2E1,1E0,-6.355211E-2,4.84E0,5.8E1,7E0,1E0,1E0,1E0,4.87E0,2E0,2E1,3.3E1,6.384431E-2,5.518886E-2,7.786584E-2,4.34E0,-2.1838162E-2,4.99E0,4E0,-3.137271E-2,-5.0591793E-2,1E0,4E0,7.6E1,2.5E1,8.9E1,1E0,1E0,4.85E0,5E0,3.9E1,2.9E1,9.2E-1,1.1756078E-2,1E0,2.4024758E-2,1E0,3.9898507E-2,7.1680145E-3,-3.3089492E-2,-5.125156E-2,-2.2454297E-2,2.3443034E-2,-8.6532775E-3,-3.1937774E-2,5.0599007E-3,2.1404462E-2,2.968092E-2,6.0094696E-2,-1.4868969E-2,8.402253E-3,-3.891412E-2,-7.4048513E-3,-3.423877E-2,-1.5066631E-2,2.5932094E-2,-1.3083083E-3,8.922572E-3,4.328415E-2,-1.669872E-2,3.9791404E-3,4.285696E-2,2.2551702E-2,1.41225895E-2,-1.9453976E-2,-1.5396359E-2,5.632875E-3,2.3370518E-3,2.8924555E-2,4.3967586E-2,2.258656E-2,4.53296E-2,7.185548E-2],"split_indices":[11,11,13,37,39,76,19,21,5,68,35,3,30,54,13,76,85,0,32,76,15,60,68,68,33,13,23,82,0,0,0,33,0,32,16,0,0,35,77,22,19,21,47,87,30,16,23,20,4,0,2,0,47,0,0,0,0,0,0,0,0,0,0,0,0,0,0,0,0,0,0,0,0,0,0,0,0,0,0,0,0,0,0,0,0,0,0,0,0],"split_type":[0,0,0,0,0,0,0,0,0,0,0,0,0,0,0,0,0,0,0,0,0,0,0,0,0,0,0,0,0,0,0,0,0,0,0,0,0,0,0,0,0,0,0,0,0,0,0,0,0,0,0,0,0,0,0,0,0,0,0,0,0,0,0,0,0,0,0,0,0,0,0,0,0,0,0,0,0,0,0,0,0,0,0,0,0,0,0,0,0],"sum_hessian":[2.084E3,1.52E3,5.64E2,4.03E2,1.117E3,3.98E2,1.66E2,3.15E2,8.8E1,6.68E2,4.49E2,2.8E2,1.18E2,4E1,1.26E2,8.9E1,2.26E2,4.8E1,4E1,5.04E2,1.64E2,3.08E2,1.41E2,2.16E2,6.4E1,6.9E1,4.9E1,2.8E1,1.2E1,1.04E2,2.2E1,7E1,1.9E1,2E1,2.06E2,1.1E1,2.9E1,4.84E2,2E1,8E1,8.4E1,2.86E2,2.2E1,5E1,9.1E1,1.95E2,2.1E1,4.4E1,2E1,1.8E1,5.1E1,1.3E1,3.6E1,1.7E1,1.1E1,1.3E1,5.7E1,1E1,1E1,3.5E1,1.71E2,3.74E2,1.1E2,1E1,1E1,1.9E1,6.1E1,2.8E1,5.6E1,1.76E2,1.1E2,1E1,1.2E1,4E1,1E1,4.9E1,4.2E1,4.2E1,1.53E2,1E1,1.1E1,2E1,2.4E1,1E1,1E1,2.9E1,2.2E1,2.1E1,1.5E1],"tree_param":{"num_deleted":"0","num_feature":"90","num_nodes":"89","size_leaf_vector":"1"}},{"base_weights":[-4.76123E-3,2.0832844E-1,-1.6746669E-1,1.4778595E-1,5.0241154E-1,-2.676089E-1,3.9666876E-2,8.4315546E-2,2.60515E-1,4.096049E-1,6.106979E-1,-3.8176745E-2,-3.38151E-1,-3.881533E-2,2.432661E-1,9.8528184E-2,-3.339769E-2,1.0330518E-1,3.358613E-1,3.089519E-1,5.286324E-1,6.880042E-1,3.8189746E-2,-1.12366766E-1,1.7128646E-1,-4.5098722E-1,-2.6515672E-1,1.715492E-2,-1.328523E-1,3.3716333E-1,4.071997E-2,3.2713488E-2,1.7018825E-1,-1.488373E-2,1.4910635E-1,2.8967488E-1,5.4162604E-1,2.2135659E-1,4.349571E-2,4.245407E-2,6.884595E-2,5.835918E-1,8.5047565E-2,-1.8799523E-1,5.8078315E-2,8.090101E-2,4.7529843E-2,-3.2403725E-1,-5.018121E-1,-3.3809388E-1,-1.4409801E-1,-3.1286224E-3,2.6067963E-2,-1.9901447E-1,-3.2828018E-2,2.5290275E-1,4.9800193E-1,-1.0043845E-2,1.6366864E-2,1.8797189E-4,3.611604E-2,1.3907104E-2,3.21836E-2,-9.6170595E-3,1.8864278E-2,3.8786985E-2,1.9520106E-2,3.6084205E-2,6.028532E-2,1.315746E-2,3.5169534E-2,4.0267993E-2,6.716478E-2,-2.7847989E-2,-7.5513343E-3,2.7311077E-2,-4.8040533E-3,-5.6405063E-3,2.408922E-2,-3.6707606E-2,-1.2935132E-2,-5.205472E-2,-3.1017078E-2,-2.7690804E-2,-4.1631382E-2,-2.1039216E-2,3.7216754E-3,-5.178134E-3,1.2445926E-2,-2.8793423E-2,-8.827164E-3,-1.2354051E-2,1.126295E-2,1.8624393E-2,3.6938254E-2,3.3819526E-2,5.808499E-2],"categories":[],"categories_nodes":[],"categories_segments":[],"categories_sizes":[],"default_left":[0,0,0,0,0,0,0,0,0,0,0,0,0,0,0,0,0,0,0,0,0,0,0,0,0,0,0,0,0,0,0,0,0,0,0,0,0,0,0,0,0,0,0,0,0,0,0,0,0,0,0,0,0,0,0,0,0,0,0,0,0,0,0,0,0,0,0,0,0,0,0,0,0,0,0,0,0,0,0,0,0,0,0,0,0,0,0,0,0,0,0,0,0,0,0,0,0],"id":5,"left_children":[1,3,5,7,9,11,13,15,17,19,21,23,25,27,29,31,-1,33,35,37,39,41,-1,43,45,47,49,51,53,55,57,59,61,-1,63,65,67,69,-1,-1,-1,71,-1,73,75,77,-1,79,81,83,85,87,-1,89,91,93,95,-1,-1,-1,-1,-1,-1,-1,-1,-1,-1,-1,-1,-1,-1,-1,-1,-1,-1,-1,-1,-1,-1,-1,-1,-1,-1,-1,-1,-1,-1,-1,-1,-1,-1,-1,-1,-1,-1,-1,-1],"loss_changes":[7.304761E1,1.6098454E1,2.4821075E1,5.367012E0,1.2055283E0,1.2994263E1,6.2616653E0,2.9045944E0,3.1432743E0,7.952204E-1,8.5071564E-1,2.9815102E0,4.8824234E0,1.4980919E0,2.021501E0,2.2002292E0,0E0,1.0615773E0,1.4991207E0,3.8996172E-1,2.286148E-1,2.0846558E-1,0E0,1.8543609E0,1.2798405E0,1.3033409E0,3.2318478E0,9.0087E-1,6.7177176E-1,8.018379E-1,6.4755017E-1,2.4745765E0,9.708934E-1,0E0,7.7408683E-1,1.276062E0,4.0299416E-2,2.7986515E-1,0E0,0E0,0E0,1.6374016E-1,0E0,9.511821E-1,1.0396633E0,9.107468E-1,0E0,5.0616693E-1,3.6224747E-1,9.3531036E-1,1.7560434E0,1.0172063E0,0E0,5.57338E-1,5.955772E-1,2.7162695E-1,2.940607E-2,0E0,0E0,0E0,0E0,0E0,0E0,0E0,0E0,0E0,0E0,0E0,0E0,0E0,0E0,0E0,0E0,0E0,0E0,0E0,0E0,0E0,0E0,0E0,0E0,0E0,0E0,0E0,0E0,0E0,0E0,0E0,0E0,0E0,0E0,0E0,0E0,0E0,0E0,0E0,0E0],"parents":[2147483647,0,0,1,1,2,2,3,3,4,4,5,5,6,6,7,7,8,8,9,9,10,10,11,11,12,12,13,13,14,14,15,15,17,17,18,18,19,19,20,20,21,21,23,23,24,24,25,25,26,26,27,27,28,28,29,29,30,30,31,31,32,32,34,34,35,35,36,36,37,37,41,41,43,43,44,44,45,45,47,47,48,48,49,49,50,50,51,51,53,53,54,54,55,55,56,56],"right_children":[2,4,6,8,10,12,14,16,18,20,22,24,26,28,30,32,-1,34,36,38,40,42,-1,44,46,48,50,52,54,56,58,60,62,-1,64,66,68,70,-1,-1,-1,72,-1,74,76,78,-1,80,82,84,86,88,-1,90,92,94,96,-1,-1,-1,-1,-1,-1,-1,-1,-1,-1,-1,-1,-1,-1,-1,-1,-1,-1,-1,-1,-1,-1,-1,-1,-1,-1,-1,-1,-1,-1,-1,-1,-1,-1,-1,-1,-1,-1,-1,-1],"split_conditions":[1E0,1.5E0,1E0,2E0,4.8E0,1E0,2E0,1E0,8E0,2.8E1,4.99E0,1E0,2.7E1,2E0,3.1E1,1.6E1,-3.339769E-2,2.8E1,1.4E1,4E0,5.3E1,4.93E0,3.8189746E-2,4.91E0,2E0,1E0,8.6E1,1E0,2E1,3E0,4.87E0,1.1E1,1E0,-1.488373E-2,4.51E0,6E1,4.82E0,1E0,4.349571E-2,4.245407E-2,6.884595E-2,4E0,8.5047565E-2,9.1E1,1.9E1,1E0,4.7529843E-2,1.8E1,3.64E2,5E0,2E0,4.2E1,2.6067963E-2,9.8E-1,7E1,4.96E0,2.68E2,-1.0043845E-2,1.6366864E-2,1.8797189E-4,3.611604E-2,1.3907104E-2,3.21836E-2,-9.6170595E-3,1.8864278E-2,3.8786985E-2,1.9520106E-2,3.6084205E-2,6.028532E-2,1.315746E-2,3.5169534E-2,4.0267993E-2,6.716478E-2,-2.7847989E-2,-7.5513343E-3,2.7311077E-2,-4.8040533E-3,-5.6405063E-3,2.408922E-2,-3.6707606E-2,-1.2935132E-2,-5.205472E-2,-3.1017078E-2,-2.7690804E-2,-4.1631382E-2,-2.1039216E-2,3.7216754E-3,-5.178134E-3,1.2445926E-2,-2.8793423E-2,-8.827164E-3,-1.2354051E-2,1.126295E-2,1.8624393E-2,3.6938254E-2,3.3819526E-2,5.808499E-2],"split_indices":[85,12,35,13,33,3,14,40,19,19,34,59,76,25,24,19,0,76,24,24,76,33,0,30,13,81,21,60,19,14,29,7,47,0,28,27,29,54,0,0,0,14,0,79,76,44,0,83,22,37,14,76,0,5,79,28,22,0,0,0,0,0,0,0,0,0,0,0,0,0,0,0,0,0,0,0,0,0,0,0,0,0,0,0,0,0,0,0,0,0,0,0,0,0,0,0,0],"split_type":[0,0,0,0,0,0,0,0,0,0,0,0,0,0,0,0,0,0,0,0,0,0,0,0,0,0,0,0,0,0,0,0,0,0,0,0,0,0,0,0,0,0,0,0,0,0,0,0,0,0,0,0,0,0,0,0,0,0,0,0,0,0,0,0,0,0,0,0,0,0,0,0,0,0,0,0,0,0,0,0,0,0,0,0,0,0,0,0,0,0,0,0,0,0,0,0,0],"sum_hessian":[2.105E3,9.11E2,1.194E3,7.57E2,1.54E2,8.05E2,3.89E2,4.86E2,2.71E2,8.6E1,6.8E1,1.9E2,6.15E2,2.81E2,1.08E2,4.71E2,1.5E1,8.9E1,1.82E2,4.9E1,3.7E1,4.9E1,1.9E1,1.41E2,4.9E1,2.39E2,3.76E2,1.76E2,1.05E2,7.3E1,3.5E1,2.47E2,2.24E2,1.3E1,7.6E1,1.51E2,3.1E1,3.1E1,1.8E1,2.5E1,1.2E1,3.3E1,1.6E1,9.8E1,4.3E1,3.9E1,1E1,7.1E1,1.68E2,2.33E2,1.43E2,1.63E2,1.3E1,6.2E1,4.3E1,5E1,2.3E1,1.6E1,1.9E1,2.27E2,2E1,1.88E2,3.6E1,1E1,6.6E1,7.2E1,7.9E1,1E1,2.1E1,2E1,1.1E1,1.3E1,2E1,5.3E1,4.5E1,1.4E1,2.9E1,2.1E1,1.8E1,5.7E1,1.4E1,1.51E2,1.7E1,1.34E2,9.9E1,1.05E2,3.8E1,1.19E2,4.4E1,3.3E1,2.9E1,2.7E1,1.6E1,3.4E1,1.6E1,1E1,1.3E1],"tree_param":{"num_deleted":"0","num_feature":"90","num_nodes":"97","size_leaf_vector":"1"}},{"base_weights":[-5.2601206E-3,-1.0291948E-1,2.9187933E-1,-3.09762E-1,-3.1622168E-2,1.7530845E-1,4.0783495E-1,-3.8871375E-1,-2.008866E-1,8.2898065E-2,-1.0481229E-1,-3.5854444E-2,1.9849674E-1,5.6425285E-1,3.5496676E-1,-1.3081427E-1,-4.2441952E-1,-2.3296982E-1,8.099031E-3,6.124594E-2,3.1739795E-1,-1.8746637E-1,2.4204304E-2,1.5348887E-1,4.4292256E-1,6.380884E-1,4.4559813E-1,2.6254445E-1,4.5762387E-1,-0E0,-3.0702306E-2,-4.5023778E-1,-2.0893173E-1,-2.6227337E-1,-3.9349474E-2,-3.2123137E-2,1.0449886E-1,1.5526093E-2,4.23713E-1,-1.725048E-2,-2.4933514E-1,1.2935786E-1,-4.926246E-2,9.561409E-2,3.3349085E-1,6.718328E-2,3.2107645E-1,7.158957E-2,4.1448254E-2,5.06759E-2,2.9591694E-2,6.0431547E-2,3.5171285E-1,3.6464748E-1,6.502262E-1,-5.5012E-2,-4.12128E-2,-3.5980355E-2,-4.5901476E-3,-1.8184757E-2,-3.3618893E-2,-2.1172313E-2,1.1360549E-2,2.9508004E-2,-6.193706E-3,9.012899E-3,4.4907384E-2,5.6578815E-2,2.2111168E-2,-1.1700158E-2,1.5089913E-2,-4.08349E-2,-1.7474543E-2,2.0813948E-2,-1.7392401E-3,6.3637965E-3,-9.296377E-3,3.3152613E-3,2.5158888E-2,2.136495E-2,4.5524366E-2,1.4544207E-2,4.6663392E-2,-9.828075E-3,1.814442E-2,2.5286129E-2,4.8163813E-2,2.3574183E-2,4.9103927E-2,4.469908E-2,7.4955545E-2],"categories":[],"categories_nodes":[],"categories_segments":[],"categories_sizes":[],"default_left":[0,0,0,0,0,0,0,0,0,0,0,0,0,0,0,0,0,0,0,0,0,0,0,0,0,0,0,0,0,0,0,0,0,0,0,0,0,0,0,0,0,0,0,0,0,0,0,0,0,0,0,0,0,0,0,0,0,0,0,0,0,0,0,0,0,0,0,0,0,0,0,0,0,0,0,0,0,0,0,0,0,0,0,0,0,0,0,0,0,0,0],"id":6,"left_children":[1,3,5,7,9,11,13,15,17,19,21,-1,23,25,27,29,31,33,-1,35,37,39,41,43,45,47,49,51,53,-1,-1,55,57,59,61,63,65,-1,67,69,71,73,75,77,79,-1,81,-1,-1,-1,-1,83,85,87,89,-1,-1,-1,-1,-1,-1,-1,-1,-1,-1,-1,-1,-1,-1,-1,-1,-1,-1,-1,-1,-1,-1,-1,-1,-1,-1,-1,-1,-1,-1,-1,-1,-1,-1,-1,-1],"loss_changes":[6.0659702E1,2.316834E1,6.8584976E0,3.3271027E0,9.8342905E0,3.2737417E0,1.8413277E0,2.0253296E0,1.589551E0,2.2630777E0,7.656108E0,0E0,2.6226463E0,1.5923882E-1,1.6674461E0,7.120498E-1,9.6940994E-1,8.389511E-1,0E0,1.7067581E0,5.313451E-1,4.571108E0,2.1774635E0,2.144146E0,7.448883E-1,2.1657085E-1,2.6103497E-2,1.8478732E0,1.2909889E0,0E0,0E0,3.6222458E-1,5.33234E-1,6.8365383E-1,6.139036E-1,1.2924048E0,1.3316362E0,0E0,4.294691E-1,1.9934924E0,3.6657887E0,1.3637964E0,8.229415E-1,1.5511991E0,5.799904E-1,0E0,5.6117654E-1,0E0,0E0,0E0,0E0,6.791594E-1,7.423239E-1,8.5429E-1,1.10544205E-1,0E0,0E0,0E0,0E0,0E0,0E0,0E0,0E0,0E0,0E0,0E0,0E0,0E0,0E0,0E0,0E0,0E0,0E0,0E0,0E0,0E0,0E0,0E0,0E0,0E0,0E0,0E0,0E0,0E0,0E0,0E0,0E0,0E0,0E0,0E0,0E0],"parents":[2147483647,0,0,1,1,2,2,3,3,4,4,5,5,6,6,7,7,8,8,9,9,10,10,12,12,13,13,14,14,15,15,16,16,17,17,19,19,20,20,21,21,22,22,23,23,24,24,25,25,26,26,27,27,28,28,31,31,32,32,33,33,34,34,35,35,36,36,38,38,39,39,40,40,41,41,42,42,43,43,44,44,46,46,51,51,52,52,53,53,54,54],"right_children":[2,4,6,8,10,12,14,16,18,20,22,-1,24,26,28,30,32,34,-1,36,38,40,42,44,46,48,50,52,54,-1,-1,56,58,60,62,64,66,-1,68,70,72,74,76,78,80,-1,82,-1,-1,-1,-1,84,86,88,90,-1,-1,-1,-1,-1,-1,-1,-1,-1,-1,-1,-1,-1,-1,-1,-1,-1,-1,-1,-1,-1,-1,-1,-1,-1,-1,-1,-1,-1,-1,-1,-1,-1,-1,-1,-1],"split_conditions":[2E0,2E0,5E0,9.6E-1,1E0,2E0,7E0,7E0,1.2E2,1.1E1,1E0,-3.5854444E-2,2E0,2E0,1.5E1,1E0,6E0,1E0,8.099031E-3,4.81E0,9.4E-1,1E0,1E0,4.9E1,4.81E0,2E0,2.51E2,4.67E0,4.9E1,-0E0,-3.0702306E-2,6.6E1,4.78E0,1E0,3.2E1,3E0,3.3E1,1.5526093E-2,1E2,4.91E0,1E0,2.4E1,1E0,1E0,4.93E0,6.718328E-2,4.91E0,7.158957E-2,4.1448254E-2,5.06759E-2,2.9591694E-2,2.45E2,2E0,1E0,3.7E2,-5.5012E-2,-4.12128E-2,-3.5980355E-2,-4.5901476E-3,-1.8184757E-2,-3.3618893E-2,-2.1172313E-2,1.1360549E-2,2.9508004E-2,-6.193706E-3,9.012899E-3,4.4907384E-2,5.6578815E-2,2.2111168E-2,-1.1700158E-2,1.5089913E-2,-4.08349E-2,-1.7474543E-2,2.0813948E-2,-1.7392401E-3,6.3637965E-3,-9.296377E-3,3.3152613E-3,2.5158888E-2,2.136495E-2,4.5524366E-2,1.4544207E-2,4.6663392E-2,-9.828075E-3,1.814442E-2,2.5286129E-2,4.8163813E-2,2.3574183E-2,4.9103927E-2,4.469908E-2,7.4955545E-2],"split_indices":[13,11,11,5,85,11,15,15,79,7,35,0,12,1,83,25,77,54,0,29,5,3,25,76,32,25,26,34,76,0,0,22,33,88,82,15,83,0,79,30,51,24,88,35,30,0,29,0,0,0,0,26,12,88,17,0,0,0,0,0,0,0,0,0,0,0,0,0,0,0,0,0,0,0,0,0,0,0,0,0,0,0,0,0,0,0,0,0,0,0,0],"split_type":[0,0,0,0,0,0,0,0,0,0,0,0,0,0,0,0,0,0,0,0,0,0,0,0,0,0,0,0,0,0,0,0,0,0,0,0,0,0,0,0,0,0,0,0,0,0,0,0,0,0,0,0,0,0,0,0,0,0,0,0,0,0,0,0,0,0,0,0,0,0,0,0,0,0,0,0,0,0,0,0,0,0,0,0,0,0,0,0,0,0,0],"sum_hessian":[2.089E3,1.573E3,5.16E2,4.02E2,1.171E3,2.59E2,2.57E2,2.31E2,1.71E2,4.56E2,7.15E2,1E1,2.49E2,6.2E1,1.95E2,2.9E1,2.02E2,1.54E2,1.7E1,4.19E2,3.7E1,4.36E2,2.79E2,2.12E2,3.7E1,3.5E1,2.7E1,1.05E2,9E1,1.7E1,1.2E1,1.79E2,2.3E1,1.33E2,2.1E1,1.32E2,2.87E2,1.6E1,2.1E1,1.17E2,3.19E2,1.15E2,1.64E2,1.62E2,5E1,1.1E1,2.6E1,2.4E1,1.1E1,1.7E1,1E1,3.3E1,7.2E1,6.3E1,2.7E1,4.5E1,1.34E2,1.1E1,1.2E1,6.6E1,6.7E1,1E1,1.1E1,1E1,1.22E2,2.77E2,1E1,1.1E1,1E1,7.4E1,4.3E1,1E2,2.19E2,7.5E1,4E1,4.5E1,1.19E2,1.17E2,4.5E1,2.7E1,2.3E1,1.3E1,1.3E1,1.4E1,1.9E1,4.3E1,2.9E1,3.3E1,3E1,1.1E1,1.6E1],"tree_param":{"num_deleted":"0","num_feature":"90","num_nodes":"91","size_leaf_vector":"1"}},{"base_weights":[-3.3974848E-3,-9.5429756E-2,2.5802648E-1,-2.8179187E-1,-2.6623772E-2,1.9202727E-1,4.113128E-1,-2.3760459E-1,-4.4602618E-1,4.07485E-2,-1.2987128E-1,1.139475E-1,2.7229157E-1,3.3897248E-1,5.163553E-1,-2.945665E-1,-1.8361293E-1,-4.9243793E-2,-2.9112235E-1,1.834178E-2,2.3655714E-1,1.7713513E-2,-1.9302706E-1,-1.7361684E-1,1.479865E-1,1.8497983E-1,3.4311345E-1,4.229093E-1,2.2476281E-1,5.867509E-1,2.158886E-2,-1.1320114E-1,-3.300488E-1,2.851305E-3,-2.0153932E-1,-1.7619543E-2,-3.734557E-2,-6.681891E-2,6.1638817E-2,1.4260903E-1,3.9595935E-1,-1.4660603E-2,3.303522E-2,-2.694018E-1,-7.8562416E-2,-4.6140407E-4,-3.177454E-2,3.5773158E-1,1.0718085E-1,9.133141E-2,3.2533377E-1,4.2864102E-1,2.8845233E-1,5.3220844E-1,2.910313E-1,7.681687E-2,3.360469E-1,6.290194E-2,4.0711883E-2,3.994771E-3,-2.5526E-2,-3.7677463E-2,-2.0191712E-2,-2.6769549E-2,-1.3166048E-2,1.6619031E-4,-1.9485414E-2,4.9626916E-3,3.9157446E-2,-2.5848025E-3,1.9914834E-2,2.164194E-2,5.3734858E-2,-7.490303E-3,1.36089E-2,-0E0,-2.9813632E-2,-1.8874083E-2,5.594153E-3,4.707116E-2,1.8346915E-2,4.411903E-3,2.2676911E-2,1.9174566E-2,1.3179553E-3,8.105147E-3,4.3429267E-2,5.4774493E-2,2.8171388E-2,2.0243403E-2,3.8159315E-2,3.8650673E-2,6.7411005E-2,1.55249555E-2,3.916922E-2,1.716297E-2,-1.5888378E-3,4.2989805E-2,1.6842742E-2],"categories":[],"categories_nodes":[],"categories_segments":[],"categories_sizes":[],"default_left":[0,0,0,0,0,0,0,0,0,0,0,0,0,0,0,0,0,0,0,0,0,0,0,0,0,0,0,0,0,0,0,0,0,0,0,0,0,0,0,0,0,0,0,0,0,0,0,0,0,0,0,0,0,0,0,0,0,0,0,0,0,0,0,0,0,0,0,0,0,0,0,0,0,0,0,0,0,0,0,0,0,0,0,0,0,0,0,0,0,0,0,0,0,0,0,0,0,0,0],"id":7,"left_children":[1,3,5,7,9,11,13,15,17,19,21,23,25,27,29,31,33,-1,35,37,39,41,43,45,47,49,51,53,55,57,-1,59,61,-1,63,-1,-1,65,67,69,71,73,-1,75,77,-1,-1,79,81,83,85,87,89,91,93,95,97,-1,-1,-1,-1,-1,-1,-1,-1,-1,-1,-1,-1,-1,-1,-1,-1,-1,-1,-1,-1,-1,-1,-1,-1,-1,-1,-1,-1,-1,-1,-1,-1,-1,-1,-1,-1,-1,-1,-1,-1,-1,-1],"loss_changes":[5.0461018E1,1.9862684E1,5.3844414E0,2.8591118E0,7.9092855E0,2.3368826E0,9.780426E-1,9.191532E-1,4.037571E-1,2.9843352E0,4.206005E0,1.9514456E0,1.0462351E0,7.988167E-1,1.146761E0,9.415188E-1,6.8471146E-1,0E0,9.6867085E-2,2.2822936E0,9.37963E-1,1.4028014E0,2.697834E0,4.778185E-1,1.4300716E0,1.0721419E0,2.8150177E-1,5.6997967E-1,6.737809E-1,2.753067E-2,0E0,6.409005E-1,6.563463E-1,0E0,6.691084E-1,0E0,0E0,1.843378E0,1.5653042E0,4.606021E-1,4.4295597E-1,1.1211019E0,0E0,1.4659557E0,1.9207253E0,0E0,0E0,3.9948964E-1,1.0941247E0,4.0074867E-1,8.182342E-1,4.1023254E-1,3.9312983E-1,2.32975E-1,2.6719737E-1,2.028836E-1,2.610433E-1,0E0,0E0,0E0,0E0,0E0,0E0,0E0,0E0,0E0,0E0,0E0,0E0,0E0,0E0,0E0,0E0,0E0,0E0,0E0,0E0,0E0,0E0,0E0,0E0,0E0,0E0,0E0,0E0,0E0,0E0,0E0,0E0,0E0,0E0,0E0,0E0,0E0,0E0,0E0,0E0,0E0,0E0],"parents":[2147483647,0,0,1,1,2,2,3,3,4,4,5,5,6,6,7,7,8,8,9,9,10,10,11,11,12,12,13,13,14,14,15,15,16,16,18,18,19,19,20,20,21,21,22,22,23,23,24,24,25,25,26,26,27,27,28,28,29,29,31,31,32,32,34,34,37,37,38,38,39,39,40,40,41,41,43,43,44,44,47,47,48,48,49,49,50,50,51,51,52,52,53,53,54,54,55,55,56,56],"right_children":[2,4,6,8,10,12,14,16,18,20,22,24,26,28,30,32,34,-1,36,38,40,42,44,46,48,50,52,54,56,58,-1,60,62,-1,64,-1,-1,66,68,70,72,74,-1,76,78,-1,-1,80,82,84,86,88,90,92,94,96,98,-1,-1,-1,-1,-1,-1,-1,-1,-1,-1,-1,-1,-1,-1,-1,-1,-1,-1,-1,-1,-1,-1,-1,-1,-1,-1,-1,-1,-1,-1,-1,-1,-1,-1,-1,-1,-1,-1,-1,-1,-1,-1],"split_conditions":[4E0,2E0,3E0,9E0,2E0,1E0,8E0,9.6E-1,1E0,1E0,5E0,4.1E-1,2E1,2E0,7E1,7E0,4.18E0,-4.9243793E-2,4.83E0,4.77E0,4.99E0,1E0,1E0,3E0,6.1E1,1E0,1E0,1E0,2.39E2,9E1,2.158886E-2,2E0,1E0,2.851305E-3,4.9E0,-1.7619543E-2,-3.734557E-2,4.5E1,2E0,6.3E1,4E0,4.94E0,3.303522E-2,1E0,5.8E1,-4.6140407E-4,-3.177454E-2,8.6E1,8.9E1,1.35E2,4.86E0,4.92E0,4.88E0,4.89E0,4.9E1,3.7E2,3.62E2,6.290194E-2,4.0711883E-2,3.994771E-3,-2.5526E-2,-3.7677463E-2,-2.0191712E-2,-2.6769549E-2,-1.3166048E-2,1.6619031E-4,-1.9485414E-2,4.9626916E-3,3.9157446E-2,-2.5848025E-3,1.9914834E-2,2.164194E-2,5.3734858E-2,-7.490303E-3,1.36089E-2,-0E0,-2.9813632E-2,-1.8874083E-2,5.594153E-3,4.707116E-2,1.8346915E-2,4.411903E-3,2.2676911E-2,1.9174566E-2,1.3179553E-3,8.105147E-3,4.3429267E-2,5.4774493E-2,2.8171388E-2,2.0243403E-2,3.8159315E-2,3.8650673E-2,6.7411005E-2,1.55249555E-2,3.916922E-2,1.716297E-2,-1.5888378E-3,4.2989805E-2,1.6842742E-2],"split_indices":[11,11,13,37,39,59,11,5,44,60,16,5,19,37,82,15,30,0,33,30,31,67,63,37,17,47,10,64,22,21,0,7,38,0,28,0,0,82,12,79,77,30,0,3,20,0,0,21,21,22,28,32,30,30,76,17,22,0,0,0,0,0,0,0,0,0,0,0,0,0,0,0,0,0,0,0,0,0,0,0,0,0,0,0,0,0,0,0,0,0,0,0,0,0,0,0,0,0,0],"split_type":[0,0,0,0,0,0,0,0,0,0,0,0,0,0,0,0,0,0,0,0,0,0,0,0,0,0,0,0,0,0,0,0,0,0,0,0,0,0,0,0,0,0,0,0,0,0,0,0,0,0,0,0,0,0,0,0,0,0,0,0,0,0,0,0,0,0,0,0,0,0,0,0,0,0,0,0,0,0,0,0,0,0,0,0,0,0,0,0,0,0,0,0,0,0,0,0,0,0,0],"sum_hessian":[2.096E3,1.551E3,5.45E2,4.17E2,1.134E3,3.83E2,1.62E2,3.31E2,8.6E1,6.86E2,4.48E2,1.96E2,1.87E2,9.9E1,6.3E1,1.58E2,1.73E2,6.4E1,2.2E1,6.17E2,6.9E1,1.34E2,3.14E2,2E1,1.76E2,8.6E1,1.01E2,5.5E1,4.4E1,5E1,1.3E1,2.7E1,1.31E2,1.3E1,1.6E2,1.1E1,1.1E1,2.07E2,4.1E2,4.5E1,2.4E1,1.22E2,1.2E1,1.87E2,1.27E2,1E1,1E1,2.7E1,1.49E2,5.3E1,3.3E1,3.6E1,6.5E1,2.8E1,2.7E1,2E1,2.4E1,3.8E1,1.2E1,1.3E1,1.4E1,9.4E1,3.7E1,8E1,8E1,1.35E2,7.2E1,3.97E2,1.3E1,1.1E1,3.4E1,1.2E1,1.2E1,8.8E1,3.4E1,1.8E1,1.69E2,7E1,5.7E1,1.5E1,1.2E1,9.9E1,5E1,2.2E1,3.1E1,1.1E1,2.2E1,1.8E1,1.8E1,3.6E1,2.9E1,1.6E1,1.2E1,1.3E1,1.4E1,1E1,1E1,1.4E1,1E1],"tree_param":{"num_deleted":"0","num_feature":"90","num_nodes":"99","size_leaf_vector":"1"}},{"base_weights":[8.58446E-3,-9.208759E-2,2.0396027E-1,-2.4455371E-1,-2.8649801E-2,1.4273979E-1,3.7893543E-1,-1.294448E-1,-3.20662E-1,7.7722505E-2,-7.764328E-2,1.6734527E-1,-7.448871E-2,5.3888768E-2,3.446659E-1,3.9056618E-2,-1.7660578E-1,-4.1277254E-1,-2.65653E-1,1.631958E-1,-6.5041967E-3,3.8834844E-2,-1.432825E-1,1.3083677E-1,3.321391E-1,-3.7875157E-2,9.828576E-3,2.2831744E-1,3.839754E-1,-2.4618153E-2,1.960999E-1,3.937298E-4,-2.0149148E-1,-2.7900985E-1,-4.5427304E-2,-3.0502585E-1,-2.064226E-1,1.4018992E-1,4.383455E-2,-7.85913E-2,7.417709E-2,9.517256E-3,2.579466E-1,-0E0,-2.0596007E-1,6.478185E-2,2.0501514E-1,4.027034E-1,2.3601958E-1,-9.776829E-2,1.8602192E-2,8.206244E-3,3.4122103E-1,4.981507E-1,3.1815124E-1,1.2714318E-3,3.4260202E-2,-2.594997E-2,-1.2903878E-2,-1.1328275E-2,-4.269634E-2,-1.1380808E-2,-3.262555E-2,-2.7241359E-2,-1.1481963E-2,6.7536347E-3,1.9531041E-2,-1.1980133E-2,1.4483201E-2,1.4538633E-2,-4.188726E-3,-3.8873383E-3,1.4852786E-2,4.203946E-2,5.832757E-3,1.1817425E-2,-9.776759E-3,-3.4213904E-2,-1.4954059E-2,-7.7747344E-4,1.9860502E-2,1.001552E-2,2.652788E-2,3.501314E-2,5.1852744E-2,1.3144839E-2,3.4516107E-2,-7.7629037E-4,-2.188886E-2,2.289634E-2,4.3377813E-2,3.396892E-2,6.130373E-2,2.3075854E-2,3.9453994E-2],"categories":[],"categories_nodes":[],"categories_segments":[],"categories_sizes":[],"default_left":[0,0,0,0,0,0,0,0,0,0,0,0,0,0,0,0,0,0,0,0,0,0,0,0,0,0,0,0,0,0,0,0,0,0,0,0,0,0,0,0,0,0,0,0,0,0,0,0,0,0,0,0,0,0,0,0,0,0,0,0,0,0,0,0,0,0,0,0,0,0,0,0,0,0,0,0,0,0,0,0,0,0,0,0,0,0,0,0,0,0,0,0,0,0,0],"id":8,"left_children":[1,3,5,7,9,11,13,15,17,19,21,23,25,-1,27,29,31,33,35,37,39,41,43,45,47,-1,49,51,53,-1,55,-1,57,59,-1,61,63,65,-1,67,69,71,73,75,77,79,81,83,85,87,-1,-1,89,91,93,-1,-1,-1,-1,-1,-1,-1,-1,-1,-1,-1,-1,-1,-1,-1,-1,-1,-1,-1,-1,-1,-1,-1,-1,-1,-1,-1,-1,-1,-1,-1,-1,-1,-1,-1,-1,-1,-1,-1,-1],"loss_changes":[4.1059258E1,1.3284175E1,7.4993076E0,3.4528198E0,5.0820765E0,2.843917E0,7.290211E-1,1.3159633E0,1.0486946E0,2.2268648E0,5.1232257E0,2.7680244E0,1.4259644E0,0E0,5.554352E-1,1.6558785E0,5.9564495E-1,2.8843307E-1,2.4736118E-1,8.4919405E-1,9.077635E-1,1.5189414E0,3.8542385E0,1.8755779E0,4.176035E-1,0E0,8.4220004E-1,6.2320423E-1,6.0913277E-1,0E0,6.049054E-1,0E0,4.0258265E-1,4.8608553E-1,0E0,2.8421593E-1,3.2896638E-1,5.3319716E-1,0E0,7.7905226E-1,6.19774E-1,1.4562771E0,8.35583E-1,1.5261213E0,2.1892471E0,2.0499654E0,1.0933094E0,1.7769337E-2,3.5207748E-1,2.6997563E-1,0E0,0E0,7.33819E-2,4.064846E-1,3.4711313E-1,0E0,0E0,0E0,0E0,0E0,0E0,0E0,0E0,0E0,0E0,0E0,0E0,0E0,0E0,0E0,0E0,0E0,0E0,0E0,0E0,0E0,0E0,0E0,0E0,0E0,0E0,0E0,0E0,0E0,0E0,0E0,0E0,0E0,0E0,0E0,0E0,0E0,0E0,0E0,0E0],"parents":[2147483647,0,0,1,1,2,2,3,3,4,4,5,5,6,6,7,7,8,8,9,9,10,10,11,11,12,12,14,14,15,15,16,16,17,17,18,18,19,19,20,20,21,21,22,22,23,23,24,24,26,26,27,27,28,28,30,30,32,32,33,33,35,35,36,36,37,37,39,39,40,40,41,41,42,42,43,43,44,44,45,45,46,46,47,47,48,48,49,49,52,52,53,53,54,54],"right_children":[2,4,6,8,10,12,14,16,18,20,22,24,26,-1,28,30,32,34,36,38,40,42,44,46,48,-1,50,52,54,-1,56,-1,58,60,-1,62,64,66,-1,68,70,72,74,76,78,80,82,84,86,88,-1,-1,90,92,94,-1,-1,-1,-1,-1,-1,-1,-1,-1,-1,-1,-1,-1,-1,-1,-1,-1,-1,-1,-1,-1,-1,-1,-1,-1,-1,-1,-1,-1,-1,-1,-1,-1,-1,-1,-1,-1,-1,-1,-1],"split_conditions":[3E0,2E0,3E0,3E0,6E0,1E0,2.8E1,6.1E1,8.9E-1,1E0,1E0,1E0,3.1E1,5.3888768E-2,1E0,4.88E0,4.44E0,8E0,1.3E1,5.8E1,4.85E0,2.2E1,1E0,5.1E1,1E0,-3.7875157E-2,8.6E1,4.1E1,1E0,-2.4618153E-2,9.2E1,3.937298E-4,4.93E0,9E0,-4.5427304E-2,4.7E1,4.94E0,2E1,4.383455E-2,2.98E2,2E0,1E0,1E0,1.9E1,1E0,1E0,3.4E1,4.97E0,5E0,6E0,1.8602192E-2,8.206244E-3,4.73E0,4.78E0,2.45E2,1.2714318E-3,3.4260202E-2,-2.594997E-2,-1.2903878E-2,-1.1328275E-2,-4.269634E-2,-1.1380808E-2,-3.262555E-2,-2.7241359E-2,-1.1481963E-2,6.7536347E-3,1.9531041E-2,-1.1980133E-2,1.4483201E-2,1.4538633E-2,-4.188726E-3,-3.8873383E-3,1.4852786E-2,4.203946E-2,5.832757E-3,1.1817425E-2,-9.776759E-3,-3.4213904E-2,-1.4954059E-2,-7.7747344E-4,1.9860502E-2,1.001552E-2,2.652788E-2,3.501314E-2,5.1852744E-2,1.3144839E-2,3.4516107E-2,-7.7629037E-4,-2.188886E-2,2.289634E-2,4.3377813E-2,3.396892E-2,6.130373E-2,2.3075854E-2,3.9453994E-2],"split_indices":[11,11,13,7,16,68,79,17,5,68,85,35,76,0,50,29,28,8,19,76,30,83,3,20,88,0,79,23,64,0,79,0,30,23,0,26,31,19,0,26,25,70,50,23,51,70,76,32,77,8,0,0,33,33,22,0,0,0,0,0,0,0,0,0,0,0,0,0,0,0,0,0,0,0,0,0,0,0,0,0,0,0,0,0,0,0,0,0,0,0,0,0,0,0,0],"split_type":[0,0,0,0,0,0,0,0,0,0,0,0,0,0,0,0,0,0,0,0,0,0,0,0,0,0,0,0,0,0,0,0,0,0,0,0,0,0,0,0,0,0,0,0,0,0,0,0,0,0,0,0,0,0,0,0,0,0,0,0,0,0,0,0,0,0,0,0,0,0,0,0,0,0,0,0,0,0,0,0,0,0,0,0,0,0,0,0,0,0,0,0,0,0,0],"sum_hessian":[2.085E3,1.376E3,7.09E2,4.03E2,9.73E2,5.27E2,1.82E2,1.62E2,2.41E2,3.06E2,6.67E2,4.74E2,5.3E1,2.9E1,1.53E2,3.5E1,1.27E2,8.7E1,1.54E2,1.52E2,1.54E2,2.4E2,4.27E2,3.9E2,8.4E1,1.1E1,4.2E1,4.1E1,1.12E2,1.2E1,2.3E1,1.5E1,1.12E2,2.3E1,6.4E1,8.9E1,6.5E1,1.42E2,1E1,8.2E1,7.2E1,2.13E2,2.7E1,1.3E2,2.97E2,2.08E2,1.82E2,4.6E1,3.8E1,2.6E1,1.6E1,1.9E1,2.2E1,3.8E1,7.4E1,1.1E1,1.2E1,6E1,5.2E1,1.2E1,1.1E1,1E1,7.9E1,3.6E1,2.9E1,6.3E1,7.9E1,7E1,1.2E1,4.5E1,2.7E1,1.58E2,5.5E1,1.4E1,1.3E1,5.9E1,7.1E1,8.5E1,2.12E2,1.35E2,7.3E1,6.8E1,1.14E2,3.5E1,1.1E1,2.1E1,1.7E1,1.6E1,1E1,1.2E1,1E1,1.8E1,2E1,3.7E1,3.7E1],"tree_param":{"num_deleted":"0","num_feature":"90","num_nodes":"95","size_leaf_vector":"1"}},{"base_weights":[4.788628E-3,-1.0082327E-1,1.6332118E-1,5.726755E-2,-1.5206331E-1,4.9333062E-2,2.4530984E-1,3.6191482E-2,3.097571E-1,-2.0181054E-2,-2.077469E-1,1.7005505E-2,2.0624809E-1,1.14654265E-1,3.054182E-1,-2.1711849E-2,8.411093E-2,1.6252672E-2,4.4650607E-2,6.677753E-2,-7.143673E-2,-6.508982E-2,-2.4786891E-1,-1.2126627E-1,5.696436E-2,3.273385E-1,9.7893886E-2,8.630675E-3,2.0404035E-1,2.5258693E-1,4.2814258E-1,1.0230408E-1,-5.6867633E-2,2.048529E-4,1.9701006E-1,-2.4076028E-2,1.4386863E-1,-1.7834847E-1,-3.2070912E-2,-1.717188E-1,5.6486707E-2,-3.2523394E-1,-1.9939576E-1,3.575328E-2,-2.3640525E-1,3.3141226E-2,2.729008E-1,3.821114E-2,2.1869639E-2,-0E0,1.797976E-2,-1.4617781E-1,8.631992E-2,-0E0,2.8564835E-1,1.85924E-1,3.6529508E-1,3.4849358E-1,5.7591414E-1,1.0411034E-3,1.8631062E-2,-1.7846049E-3,-1.9990956E-2,8.94305E-3,-1.5629569E-2,1.409814E-2,4.2905718E-2,-9.756244E-3,7.0290426E-3,-0E0,2.0635631E-2,-2.6803887E-2,-2.6802698E-3,-9.99335E-3,3.376493E-3,-3.523656E-2,-9.8512815E-3,-1.9626709E-2,1.148957E-2,-3.567098E-2,-2.0261718E-2,-2.2165833E-2,-5.979573E-3,1.5386279E-2,-8.620357E-3,-8.912261E-3,-4.4963047E-2,-2.057566E-3,1.051126E-2,3.6235943E-2,1.4140948E-2,3.557355E-3,-3.39227E-2,-3.6762059E-3,1.8351577E-2,1.2443297E-2,-1.3833045E-2,5.0156325E-2,2.2930726E-2,7.4038203E-3,2.7043039E-2,1.7709697E-2,3.8669355E-2,1.8288484E-2,3.958307E-2,7.213881E-2,4.475604E-2],"categories":[],"categories_nodes":[],"categories_segments":[],"categories_sizes":[],"default_left":[0,0,0,0,0,0,0,0,0,0,0,0,0,0,0,0,0,0,0,0,0,0,0,0,0,0,0,0,0,0,0,0,0,0,0,0,0,0,0,0,0,0,0,0,0,0,0,0,0,0,0,0,0,0,0,0,0,0,0,0,0,0,0,0,0,0,0,0,0,0,0,0,0,0,0,0,0,0,0,0,0,0,0,0,0,0,0,0,0,0,0,0,0,0,0,0,0,0,0,0,0,0,0,0,0,0,0],"id":9,"left_children":[1,3,5,7,9,11,13,15,17,19,21,23,25,27,29,31,33,-1,-1,35,37,39,41,43,45,47,49,51,53,55,57,59,61,63,65,67,69,71,73,75,77,79,81,83,85,87,89,-1,-1,-1,-1,91,93,95,97,99,101,103,105,-1,-1,-1,-1,-1,-1,-1,-1,-1,-1,-1,-1,-1,-1,-1,-1,-1,-1,-1,-1,-1,-1,-1,-1,-1,-1,-1,-1,-1,-1,-1,-1,-1,-1,-1,-1,-1,-1,-1,-1,-1,-1,-1,-1,-1,-1,-1,-1],"loss_changes":[3.4747543E1,1.0103408E1,7.7153893E0,1.5772485E0,6.883415E0,1.7445326E0,3.7083569E0,7.9330504E-1,3.2960033E-1,1.2576873E0,3.7359314E0,1.6083056E0,6.9955087E-1,1.436435E0,1.9569168E0,5.593384E-1,1.4580144E0,0E0,0E0,7.438592E-1,7.223812E-1,1.92687E0,1.8140011E0,1.203657E0,1.1281037E0,1.7020226E-2,2.6564312E-1,8.725731E-1,1.3586092E0,1.6275969E0,8.485317E-1,1.9453743E-1,5.384109E-1,1.2780026E0,7.4059176E-1,3.424482E-1,5.235206E-1,6.02165E-1,5.9973943E-1,9.6492934E-1,1.0330665E0,6.282482E-1,9.531145E-1,4.233488E-1,1.0994184E0,8.0702853E-1,1.5716863E-1,0E0,0E0,0E0,0E0,8.8451964E-1,6.0761166E-1,4.4639367E-1,5.2962923E-1,1.3543358E0,2.1744633E-1,3.8714027E-1,1.5774822E-1,0E0,0E0,0E0,0E0,0E0,0E0,0E0,0E0,0E0,0E0,0E0,0E0,0E0,0E0,0E0,0E0,0E0,0E0,0E0,0E0,0E0,0E0,0E0,0E0,0E0,0E0,0E0,0E0,0E0,0E0,0E0,0E0,0E0,0E0,0E0,0E0,0E0,0E0,0E0,0E0,0E0,0E0,0E0,0E0,0E0,0E0,0E0,0E0],"parents":[2147483647,0,0,1,1,2,2,3,3,4,4,5,5,6,6,7,7,8,8,9,9,10,10,11,11,12,12,13,13,14,14,15,15,16,16,19,19,20,20,21,21,22,22,23,23,24,24,25,25,26,26,27,27,28,28,29,29,30,30,31,31,32,32,33,33,34,34,35,35,36,36,37,37,38,38,39,39,40,40,41,41,42,42,43,43,44,44,45,45,46,46,51,51,52,52,53,53,54,54,55,55,56,56,57,57,58,58],"right_children":[2,4,6,8,10,12,14,16,18,20,22,24,26,28,30,32,34,-1,-1,36,38,40,42,44,46,48,50,52,54,56,58,60,62,64,66,68,70,72,74,76,78,80,82,84,86,88,90,-1,-1,-1,-1,92,94,96,98,100,102,104,106,-1,-1,-1,-1,-1,-1,-1,-1,-1,-1,-1,-1,-1,-1,-1,-1,-1,-1,-1,-1,-1,-1,-1,-1,-1,-1,-1,-1,-1,-1,-1,-1,-1,-1,-1,-1,-1,-1,-1,-1,-1,-1,-1,-1,-1,-1,-1,-1],"split_conditions":[2E0,1E0,2E0,2.7E1,2.8E1,1E0,9.3E-1,1.4E1,4E0,1E0,1E0,4.61E0,1E0,1.2E1,2E0,1E0,4.79E0,1.6252672E-2,4.4650607E-2,4.83E0,3.6E1,4.9E0,1E0,1E0,6E0,1E0,1E0,4.73E0,4.64E0,1E0,1.3E1,4.98E0,4.94E0,4.64E0,4.2E1,1E0,1.3E1,4.9E1,4.87E0,5.7E1,1.6E1,1E0,3.56E2,4.53E0,6.4E1,1E0,1E0,3.821114E-2,2.1869639E-2,-0E0,1.797976E-2,4E1,1.1E1,1E0,4.6E0,2.8E1,1E0,4.59E0,6E0,1.0411034E-3,1.8631062E-2,-1.7846049E-3,-1.9990956E-2,8.94305E-3,-1.5629569E-2,1.409814E-2,4.2905718E-2,-9.756244E-3,7.0290426E-3,-0E0,2.0635631E-2,-2.6803887E-2,-2.6802698E-3,-9.99335E-3,3.376493E-3,-3.523656E-2,-9.8512815E-3,-1.9626709E-2,1.148957E-2,-3.567098E-2,-2.0261718E-2,-2.2165833E-2,-5.979573E-3,1.5386279E-2,-8.620357E-3,-8.912261E-3,-4.4963047E-2,-2.057566E-3,1.051126E-2,3.6235943E-2,1.4140948E-2,3.557355E-3,-3.39227E-2,-3.6762059E-3,1.8351577E-2,1.2443297E-2,-1.3833045E-2,5.0156325E-2,2.2930726E-2,7.4038203E-3,2.7043039E-2,1.7709697E-2,3.8669355E-2,1.8288484E-2,3.958307E-2,7.213881E-2,4.475604E-2],"split_indices":[14,85,13,83,16,60,5,19,77,25,3,30,2,19,12,75,33,0,0,30,21,29,51,10,77,78,48,34,33,35,83,29,34,33,82,5,82,24,28,20,76,44,22,29,82,59,63,0,0,0,0,82,23,24,34,19,51,34,11,0,0,0,0,0,0,0,0,0,0,0,0,0,0,0,0,0,0,0,0,0,0,0,0,0,0,0,0,0,0,0,0,0,0,0,0,0,0,0,0,0,0,0,0,0,0,0,0],"split_type":[0,0,0,0,0,0,0,0,0,0,0,0,0,0,0,0,0,0,0,0,0,0,0,0,0,0,0,0,0,0,0,0,0,0,0,0,0,0,0,0,0,0,0,0,0,0,0,0,0,0,0,0,0,0,0,0,0,0,0,0,0,0,0,0,0,0,0,0,0,0,0,0,0,0,0,0,0,0,0,0,0,0,0,0,0,0,0,0,0,0,0,0,0,0,0,0,0,0,0,0,0,0,0,0,0,0,0],"sum_hessian":[2.073E3,1.244E3,8.29E2,3.04E2,9.4E2,3.48E2,4.81E2,2.82E2,2.2E1,2.8E2,6.6E2,2.9E2,5.8E1,1.53E2,3.28E2,1.27E2,1.55E2,1.2E1,1E1,1.03E2,1.77E2,1.46E2,5.14E2,6.4E1,2.26E2,2.6E1,3.2E1,7.1E1,8.2E1,2.32E2,9.6E1,2.7E1,1E2,9E1,6.5E1,4.7E1,5.6E1,4.6E1,1.31E2,7.8E1,6.8E1,1.95E2,3.19E2,2.7E1,3.7E1,2.05E2,2.1E1,1.5E1,1.1E1,1.5E1,1.7E1,2.3E1,4.8E1,2.4E1,5.8E1,1.48E2,8.4E1,6.5E1,3.1E1,1.4E1,1.3E1,8E1,2E1,5.8E1,3.2E1,5.4E1,1.1E1,2.7E1,2E1,1.7E1,3.9E1,2.8E1,1.8E1,6.5E1,6.6E1,2.1E1,5.7E1,1.2E1,5.6E1,1.53E2,4.2E1,2.74E2,4.5E1,1.4E1,1.3E1,2.3E1,1.4E1,1.17E2,8.8E1,1.1E1,1E1,1.2E1,1.1E1,2.1E1,2.7E1,1.3E1,1.1E1,1E1,4.8E1,6.5E1,8.3E1,1E1,7.4E1,1.6E1,4.9E1,1.2E1,1.9E1],"tree_param":{"num_deleted":"0","num_feature":"90","num_nodes":"107","size_leaf_vector":"1"}},{"base_weights":[7.050261E-4,1.3267422E-1,-1.00491695E-1,9.4037436E-2,3.3114502E-1,-1.6928115E-1,3.903871E-2,1.0057318E-1,-3.486633E-2,2.77007E-1,4.4064054E-1,-2.7751835E-2,-2.150512E-1,-1.0245749E-2,1.6783403E-1,3.2201886E-2,1.5162158E-1,2.4267189E-1,4.510169E-2,4.9808052E-1,2.4882518E-2,-9.2907995E-2,9.01819E-2,-3.065661E-1,-1.5854877E-1,-4.8251692E-2,7.116316E-2,2.539091E-1,-1.4967377E-3,1.47881545E-2,3.3684816E-2,1.2570475E-1,2.5759333E-1,3.455537E-1,2.0099568E-1,3.50076E-2,6.046359E-2,-4.078702E-2,-5.529908E-2,-3.9688568E-3,1.3875754E-1,-2.1053186E-1,-3.4705216E-1,-2.1171974E-1,-2.8371323E-2,1.8378874E-2,-7.083043E-2,-4.493582E-3,1.583146E-1,2.1240728E-1,4.182322E-2,-1.6139058E-2,7.770794E-2,-4.3388255E-4,2.784263E-2,7.146921E-3,1.9264432E-2,1.06168715E-2,3.3229187E-2,2.2009647E-2,4.3388143E-2,5.40449E-3,2.3136107E-2,-1.07253445E-2,1.1237807E-2,3.7539941E-3,2.6592894E-2,-3.220698E-2,-7.2684237E-3,-4.78262E-2,-3.200139E-2,-2.3013845E-2,-3.1836838E-3,-7.2375643E-3,3.6115587E-2,-1.8754255E-2,-3.8992278E-3,-6.2920596E-3,1.1004298E-2,-2.8527798E-3,2.4650354E-2,3.730903E-2,1.6238049E-2,-0E0,1.8006293E-2],"categories":[],"categories_nodes":[],"categories_segments":[],"categories_sizes":[],"default_left":[0,0,0,0,0,0,0,0,0,0,0,0,0,0,0,0,0,0,0,0,0,0,0,0,0,0,0,0,0,0,0,0,0,0,0,0,0,0,0,0,0,0,0,0,0,0,0,0,0,0,0,0,0,0,0,0,0,0,0,0,0,0,0,0,0,0,0,0,0,0,0,0,0,0,0,0,0,0,0,0,0,0,0,0,0],"id":10,"left_children":[1,3,5,7,9,11,13,15,-1,17,19,21,23,25,27,29,31,33,-1,35,-1,37,39,41,43,45,47,49,51,53,-1,55,57,59,61,-1,-1,-1,63,-1,65,67,69,71,73,-1,75,77,79,81,-1,-1,83,-1,-1,-1,-1,-1,-1,-1,-1,-1,-1,-1,-1,-1,-1,-1,-1,-1,-1,-1,-1,-1,-1,-1,-1,-1,-1,-1,-1,-1,-1,-1,-1],"loss_changes":[2.7714508E1,6.835457E0,1.1287944E1,2.1976542E0,6.716423E-1,5.0677853E0,2.4803505E0,2.5804572E0,0E0,4.2462158E-1,3.0819702E-1,1.4993684E0,2.976345E0,8.705629E-1,1.5997386E0,1.662769E0,1.0992785E0,2.4892235E-1,0E0,2.2906399E-1,0E0,1.4236469E0,4.5070326E-1,7.4598694E-1,2.5309992E0,1.0128835E0,6.029233E-1,3.3911943E-1,4.8949018E-1,1.5666102E0,0E0,1.2123442E0,8.4839344E-1,9.397769E-2,2.4899912E-1,0E0,0E0,0E0,1.0046582E0,0E0,6.161413E-1,1.0133817E0,3.2056236E-1,8.3453655E-1,1.8656168E0,0E0,6.277477E-1,3.2342917E-1,7.2088194E-1,3.681774E-1,0E0,0E0,2.056862E-1,0E0,0E0,0E0,0E0,0E0,0E0,0E0,0E0,0E0,0E0,0E0,0E0,0E0,0E0,0E0,0E0,0E0,0E0,0E0,0E0,0E0,0E0,0E0,0E0,0E0,0E0,0E0,0E0,0E0,0E0,0E0,0E0],"parents":[2147483647,0,0,1,1,2,2,3,3,4,4,5,5,6,6,7,7,9,9,10,10,11,11,12,12,13,13,14,14,15,15,16,16,17,17,19,19,21,21,22,22,23,23,24,24,25,25,26,26,27,27,28,28,29,29,31,31,32,32,33,33,34,34,38,38,40,40,41,41,42,42,43,43,44,44,46,46,47,47,48,48,49,49,52,52],"right_children":[2,4,6,8,10,12,14,16,-1,18,20,22,24,26,28,30,32,34,-1,36,-1,38,40,42,44,46,48,50,52,54,-1,56,58,60,62,-1,-1,-1,64,-1,66,68,70,72,74,-1,76,78,80,82,-1,-1,84,-1,-1,-1,-1,-1,-1,-1,-1,-1,-1,-1,-1,-1,-1,-1,-1,-1,-1,-1,-1,-1,-1,-1,-1,-1,-1,-1,-1,-1,-1,-1,-1],"split_conditions":[1E0,1.5E0,1E0,1E0,8E0,1E0,2E0,1.2E1,-3.486633E-2,6.9E1,6.3E1,4.91E0,2.7E1,1E0,3.1E1,1E0,1E0,3E0,4.510169E-2,1E0,2.4882518E-2,2.2E1,2.8E1,1E0,1.5E1,1E1,7.4E1,5.4E1,4.86E0,1.1E1,3.3684816E-2,1.3E1,2E0,3E0,4.74E0,3.50076E-2,6.046359E-2,-4.078702E-2,1E0,-3.9688568E-3,1E0,1E0,3.65E2,5.5E1,3E0,1.8378874E-2,2E0,2.65E2,4.83E0,3E0,4.182322E-2,-1.6139058E-2,4.95E0,-4.3388255E-4,2.784263E-2,7.146921E-3,1.9264432E-2,1.06168715E-2,3.3229187E-2,2.2009647E-2,4.3388143E-2,5.40449E-3,2.3136107E-2,-1.07253445E-2,1.1237807E-2,3.7539941E-3,2.6592894E-2,-3.220698E-2,-7.2684237E-3,-4.78262E-2,-3.200139E-2,-2.3013845E-2,-3.1836838E-3,-7.2375643E-3,3.6115587E-2,-1.8754255E-2,-3.8992278E-3,-6.2920596E-3,1.1004298E-2,-2.8527798E-3,2.4650354E-2,3.730903E-2,1.6238049E-2,-0E0,1.8006293E-2],"split_indices":[85,12,35,86,11,3,14,19,0,82,23,30,76,59,24,61,35,77,0,10,0,21,19,81,83,17,79,76,29,7,0,83,14,13,28,0,0,0,59,0,44,88,17,76,14,0,11,26,30,24,0,0,30,0,0,0,0,0,0,0,0,0,0,0,0,0,0,0,0,0,0,0,0,0,0,0,0,0,0,0,0,0,0,0,0],"split_type":[0,0,0,0,0,0,0,0,0,0,0,0,0,0,0,0,0,0,0,0,0,0,0,0,0,0,0,0,0,0,0,0,0,0,0,0,0,0,0,0,0,0,0,0,0,0,0,0,0,0,0,0,0,0,0,0,0,0,0,0,0,0,0,0,0,0,0,0,0,0,0,0,0,0,0,0,0,0,0,0,0,0,0,0,0],"sum_hessian":[2.073E3,9E2,1.173E3,7.55E2,1.45E2,7.86E2,3.87E2,7.45E2,1E1,1E2,4.5E1,1.93E2,5.93E2,2.8E2,1.07E2,3.2E2,4.25E2,8.6E1,1.4E1,3.3E1,1.2E1,1.25E2,6.8E1,2.24E2,3.69E2,1.92E2,8.8E1,7.1E1,3.6E1,3.04E2,1.6E1,3.44E2,8.1E1,2.2E1,6.4E1,1.6E1,1.7E1,1.2E1,1.13E2,1.8E1,5E1,6.9E1,1.55E2,2.61E2,1.08E2,1.6E1,1.76E2,4.7E1,4.1E1,5.9E1,1.2E1,1.2E1,2.4E1,2.84E2,2E1,1.92E2,1.52E2,2.8E1,5.3E1,1.1E1,1.1E1,1.2E1,5.2E1,8.7E1,2.6E1,2.9E1,2.1E1,3.7E1,3.2E1,2.3E1,1.32E2,2.36E2,2.5E1,9.8E1,1E1,3.6E1,1.4E2,3.2E1,1.5E1,1.3E1,2.8E1,1.2E1,4.7E1,1.4E1,1E1],"tree_param":{"num_deleted":"0","num_feature":"90","num_nodes":"85","size_leaf_vector":"1"}},{"base_weights":[-2.6498486E-3,1.2698102E-1,-1.00777894E-1,8.885159E-2,3.1041276E-1,-1.615942E-1,2.5766399E-2,6.197109E-2,1.9386017E-1,2.4659501E-1,3.9147994E-1,-2.1580662E-1,-8.358988E-2,-3.1363115E-2,1.7110565E-1,7.105641E-2,-2.8618688E-2,4.3189567E-2,1.5943538E-1,1.9150613E-1,3.3124563E-1,4.3958417E-1,2.3589762E-2,-3.650692E-1,-1.9929811E-1,-1.3937473E-1,7.267557E-2,-9.685465E-2,3.801489E-2,9.105492E-2,2.7658698E-1,2.0570727E-1,4.917016E-2,4.80495E-2,2.1662734E-1,2.4210896E-1,6.286062E-3,2.161519E-2,4.20972E-2,3.6214706E-1,5.7913598E-2,-4.653761E-2,-2.772581E-1,-8.514653E-2,-2.1398543E-1,-2.73942E-1,-8.19862E-2,3.3388E-2,2.5097795E-2,-1.7147821E-1,-1.515467E-2,-1.5061116E-1,7.7304035E-2,2.4286412E-2,2.1287267E-1,4.288456E-2,1.9344743E-1,2.7638694E-2,7.536154E-3,3.5305023E-3,3.0719552E-2,2.0362811E-2,-3.5591982E-3,2.660183E-2,5.406234E-3,1.4530072E-2,2.9038189E-2,1.9888856E-2,4.177178E-2,-3.2970272E-2,-1.7589381E-2,-2.2536285E-2,9.3595724E-4,-2.6351864E-2,-1.7601632E-2,-3.102078E-2,-7.7796616E-3,1.8084003E-3,-1.4791818E-2,1.04315085E-2,-9.387197E-3,-8.068771E-3,-2.4832385E-2,3.8154465E-3,-1.768341E-2,-2.5501166E-2,-4.2994493E-3,1.6514963E-2,1.4345816E-3,-4.7925967E-3,9.994032E-3,3.481772E-2,6.27708E-3,5.562249E-3,2.5823085E-2],"categories":[],"categories_nodes":[],"categories_segments":[],"categories_sizes":[],"default_left":[0,0,0,0,0,0,0,0,0,0,0,0,0,0,0,0,0,0,0,0,0,0,0,0,0,0,0,0,0,0,0,0,0,0,0,0,0,0,0,0,0,0,0,0,0,0,0,0,0,0,0,0,0,0,0,0,0,0,0,0,0,0,0,0,0,0,0,0,0,0,0,0,0,0,0,0,0,0,0,0,0,0,0,0,0,0,0,0,0,0,0,0,0,0,0],"id":11,"left_children":[1,3,5,7,9,11,13,15,17,19,21,23,25,27,29,31,-1,-1,33,35,37,39,-1,41,43,45,47,49,51,53,55,57,59,61,63,65,-1,-1,-1,67,-1,-1,69,71,73,75,77,-1,79,81,83,85,87,89,91,-1,93,-1,-1,-1,-1,-1,-1,-1,-1,-1,-1,-1,-1,-1,-1,-1,-1,-1,-1,-1,-1,-1,-1,-1,-1,-1,-1,-1,-1,-1,-1,-1,-1,-1,-1,-1,-1,-1,-1],"loss_changes":[2.6405058E1,6.1852617E0,9.114367E0,2.0568352E0,6.312046E-1,3.3308334E0,3.2077541E0,1.8745558E0,1.1011558E0,2.9932356E-1,3.152256E-1,1.0289345E0,2.89349E0,1.2636192E0,8.5843205E-1,1.6707118E0,0E0,0E0,8.1038356E-1,3.2534385E-1,1.8608284E-1,2.1485138E-1,0E0,1.9306946E-1,6.660919E-1,1.8262668E0,1.0369173E0,8.5057235E-1,9.973802E-1,4.91664E-1,4.3711233E-1,6.8102026E-1,1.7436826E0,6.35654E-1,6.5215445E-1,1.0116768E-1,0E0,0E0,0E0,1.6372108E-1,0E0,0E0,3.498006E-2,6.9952583E-1,6.168194E-1,4.4922876E-1,1.1570823E0,0E0,7.176711E-1,4.6334934E-1,6.239443E-1,2.1764565E-1,5.991087E-1,2.4490653E-1,3.8385797E-1,0E0,2.3997188E-1,0E0,0E0,0E0,0E0,0E0,0E0,0E0,0E0,0E0,0E0,0E0,0E0,0E0,0E0,0E0,0E0,0E0,0E0,0E0,0E0,0E0,0E0,0E0,0E0,0E0,0E0,0E0,0E0,0E0,0E0,0E0,0E0,0E0,0E0,0E0,0E0,0E0,0E0],"parents":[2147483647,0,0,1,1,2,2,3,3,4,4,5,5,6,6,7,7,8,8,9,9,10,10,11,11,12,12,13,13,14,14,15,15,18,18,19,19,20,20,21,21,23,23,24,24,25,25,26,26,27,27,28,28,29,29,30,30,31,31,32,32,33,33,34,34,35,35,39,39,42,42,43,43,44,44,45,45,46,46,48,48,49,49,50,50,51,51,52,52,53,53,54,54,56,56],"right_children":[2,4,6,8,10,12,14,16,18,20,22,24,26,28,30,32,-1,-1,34,36,38,40,-1,42,44,46,48,50,52,54,56,58,60,62,64,66,-1,-1,-1,68,-1,-1,70,72,74,76,78,-1,80,82,84,86,88,90,92,-1,94,-1,-1,-1,-1,-1,-1,-1,-1,-1,-1,-1,-1,-1,-1,-1,-1,-1,-1,-1,-1,-1,-1,-1,-1,-1,-1,-1,-1,-1,-1,-1,-1,-1,-1,-1,-1,-1,-1],"split_conditions":[1E0,1.5E0,1E0,5E0,4.8E0,1.5E1,2E0,1E0,3.1E1,2.58E2,4.99E0,1E1,4E1,2.2E1,2E0,5E0,-2.8618688E-2,4.3189567E-2,4.73E0,1E0,4E0,4.93E0,2.3589762E-2,1.9E1,2E0,8.1E1,4.55E0,4.94E0,1.7E1,2.9E1,1.5E1,1E0,1E0,4.68E0,5.7E1,4.64E0,6.286062E-3,2.161519E-2,4.20972E-2,1E0,5.7913598E-2,-4.653761E-2,1E0,2E0,4.71E0,9.7E-1,1.8E2,3.3388E-2,6E0,1E0,4.6E1,4E0,2E0,1E0,1E0,4.288456E-2,4.3E1,2.7638694E-2,7.536154E-3,3.5305023E-3,3.0719552E-2,2.0362811E-2,-3.5591982E-3,2.660183E-2,5.406234E-3,1.4530072E-2,2.9038189E-2,1.9888856E-2,4.177178E-2,-3.2970272E-2,-1.7589381E-2,-2.2536285E-2,9.3595724E-4,-2.6351864E-2,-1.7601632E-2,-3.102078E-2,-7.7796616E-3,1.8084003E-3,-1.4791818E-2,1.04315085E-2,-9.387197E-3,-8.068771E-3,-2.4832385E-2,3.8154465E-3,-1.768341E-2,-2.5501166E-2,-4.2994493E-3,1.6514963E-2,1.4345816E-3,-4.7925967E-3,9.994032E-3,3.481772E-2,6.27708E-3,5.562249E-3,2.5823085E-2],"split_indices":[85,12,35,11,33,83,14,40,17,26,34,76,76,19,13,16,0,0,30,58,14,33,0,7,8,21,28,32,79,19,24,58,53,31,82,34,0,0,0,59,0,0,50,11,33,5,22,0,8,10,82,77,7,69,68,0,79,0,0,0,0,0,0,0,0,0,0,0,0,0,0,0,0,0,0,0,0,0,0,0,0,0,0,0,0,0,0,0,0,0,0,0,0,0,0],"split_type":[0,0,0,0,0,0,0,0,0,0,0,0,0,0,0,0,0,0,0,0,0,0,0,0,0,0,0,0,0,0,0,0,0,0,0,0,0,0,0,0,0,0,0,0,0,0,0,0,0,0,0,0,0,0,0,0,0,0,0,0,0,0,0,0,0,0,0,0,0,0,0,0,0,0,0,0,0,0,0,0,0,0,0,0,0,0,0,0,0,0,0,0,0,0,0],"sum_hessian":[2.074E3,8.93E2,1.181E3,7.41E2,1.52E2,7.98E2,3.83E2,5.92E2,1.49E2,8.8E1,6.4E1,4.69E2,3.29E2,2.75E2,1.08E2,5.78E2,1.4E1,1.7E1,1.32E2,5.6E1,3.2E1,4.7E1,1.7E1,4.4E1,4.25E2,2.43E2,8.6E1,1.42E2,1.33E2,6.3E1,4.5E1,7.9E1,4.99E2,4.6E1,8.6E1,3.9E1,1.7E1,1.6E1,1.6E1,3.3E1,1.4E1,1.8E1,2.6E1,5E1,3.75E2,7.1E1,1.72E2,1.2E1,7.4E1,7.3E1,6.9E1,2.2E1,1.11E2,4.2E1,2.1E1,1.4E1,3.1E1,5E1,2.9E1,4.75E2,2.4E1,1.6E1,3E1,6.5E1,2.1E1,1.5E1,2.4E1,1E1,2.3E1,1.5E1,1.1E1,2E1,3E1,1.59E2,2.16E2,5.9E1,1.2E1,6.8E1,1.04E2,4.5E1,2.9E1,3.5E1,3.8E1,5.2E1,1.7E1,1E1,1.2E1,4.5E1,6.6E1,2.1E1,2.1E1,1E1,1.1E1,1.1E1,2E1],"tree_param":{"num_deleted":"0","num_feature":"90","num_nodes":"95","size_leaf_vector":"1"}},{"base_weights":[-4.558451E-3,1.05640605E-1,-8.967423E-2,6.640069E-2,2.3708667E-1,-1.4157861E-1,1.2928809E-2,-8.602413E-2,8.06761E-2,1.5758757E-1,3.0423823E-1,-2.3248915E-2,-1.7797951E-1,-3.1156147E-2,1.3635622E-1,-1.7351604E-1,-6.151471E-3,1.5592958E-1,4.4870406E-2,3.6084514E-2,2.2000976E-1,2.67635E-1,4.621258E-2,-9.918994E-2,6.315742E-2,-2.1129382E-1,-9.2970766E-2,-1.00850046E-1,2.5556592E-2,1.0056984E-1,3.7418526E-2,-3.373376E-2,-2.331629E-3,-9.355742E-3,5.7913824E-3,1.2182332E-1,2.877762E-1,-5.9608165E-2,7.1595326E-2,-1.0543592E-2,1.0950787E-1,1.2998533E-3,2.608423E-1,3.2231373E-1,1.6932942E-1,-6.7661844E-2,-2.8088663E-2,-4.68448E-3,1.5339261E-1,-2.4716794E-1,-1.465186E-1,-1.5140665E-1,4.5533404E-2,-1.4447017E-1,1.6705576E-2,-1.0946614E-1,5.5557366E-2,1.5290397E-1,-8.4535475E-4,8.808705E-3,2.5721624E-2,4.6712756E-2,1.50306225E-2,-1.0816365E-2,9.800786E-3,5.2014417E-3,2.3313077E-2,1.3933493E-3,1.816144E-2,3.0589312E-2,1.0635124E-2,3.525122E-2,1.9508202E-2,2.3662392E-2,-0E0,2.1930416E-3,-1.169548E-2,1.1117722E-2,-1.3900037E-2,-1.129773E-3,2.434835E-2,-2.6045462E-2,-2.5883093E-3,-2.2438688E-2,-9.447191E-3,-2.3422996E-3,-2.2556245E-2,2.400366E-2,-9.528671E-3,-1.7651595E-2,5.0980938E-3,1.5961844E-2,-5.723496E-3,-0E0,-1.6449388E-2,2.1083178E-2,3.012205E-3,-0E0,1.8936722E-2,6.8752156E-3,-9.097267E-3],"categories":[],"categories_nodes":[],"categories_segments":[],"categories_sizes":[],"default_left":[0,0,0,0,0,0,0,0,0,0,0,0,0,0,0,0,0,0,0,0,0,0,0,0,0,0,0,0,0,0,0,0,0,0,0,0,0,0,0,0,0,0,0,0,0,0,0,0,0,0,0,0,0,0,0,0,0,0,0,0,0,0,0,0,0,0,0,0,0,0,0,0,0,0,0,0,0,0,0,0,0,0,0,0,0,0,0,0,0,0,0,0,0,0,0,0,0,0,0,0,0],"id":12,"left_children":[1,3,5,7,9,11,13,15,17,19,21,23,25,27,29,31,33,35,37,39,41,43,-1,45,47,49,51,53,55,57,-1,-1,-1,-1,-1,59,61,63,65,-1,67,-1,69,71,73,75,-1,77,79,81,83,85,87,89,91,93,95,97,99,-1,-1,-1,-1,-1,-1,-1,-1,-1,-1,-1,-1,-1,-1,-1,-1,-1,-1,-1,-1,-1,-1,-1,-1,-1,-1,-1,-1,-1,-1,-1,-1,-1,-1,-1,-1,-1,-1,-1,-1,-1,-1],"loss_changes":[1.9573887E1,4.6424675E0,6.288189E0,1.533906E0,1.0162802E0,3.348362E0,2.16952E0,4.002586E-1,1.7054887E0,7.0973134E-1,4.448328E-1,1.2303598E0,1.6434708E0,1.1642461E0,8.0855215E-1,6.4503574E-1,1.9377232E-1,8.5032225E-1,1.228442E0,3.7563497E-1,5.102041E-1,3.9615393E-1,0E0,5.189948E-1,5.4817957E-1,9.1898155E-1,1.4014893E0,6.9205844E-1,6.528674E-1,5.089304E-1,0E0,0E0,0E0,0E0,0E0,7.0104265E-1,8.78917E-1,6.9274426E-1,1.0664133E0,0E0,1.4331159E-1,0E0,2.9512072E-1,9.931946E-2,4.2355454E-1,3.9628246E-1,0E0,7.963394E-1,5.897792E-1,7.672825E-1,5.791509E-1,1.1181965E0,1.4342355E0,6.291003E-1,3.9978802E-1,1.6660416E-1,4.9483126E-1,3.4346056E-1,2.09201E-1,0E0,0E0,0E0,0E0,0E0,0E0,0E0,0E0,0E0,0E0,0E0,0E0,0E0,0E0,0E0,0E0,0E0,0E0,0E0,0E0,0E0,0E0,0E0,0E0,0E0,0E0,0E0,0E0,0E0,0E0,0E0,0E0,0E0,0E0,0E0,0E0,0E0,0E0,0E0,0E0,0E0,0E0],"parents":[2147483647,0,0,1,1,2,2,3,3,4,4,5,5,6,6,7,7,8,8,9,9,10,10,11,11,12,12,13,13,14,14,15,15,16,16,17,17,18,18,19,19,20,20,21,21,23,23,24,24,25,25,26,26,27,27,28,28,29,29,35,35,36,36,37,37,38,38,40,40,42,42,43,43,44,44,45,45,47,47,48,48,49,49,50,50,51,51,52,52,53,53,54,54,55,55,56,56,57,57,58,58],"right_children":[2,4,6,8,10,12,14,16,18,20,22,24,26,28,30,32,34,36,38,40,42,44,-1,46,48,50,52,54,56,58,-1,-1,-1,-1,-1,60,62,64,66,-1,68,-1,70,72,74,76,-1,78,80,82,84,86,88,90,92,94,96,98,100,-1,-1,-1,-1,-1,-1,-1,-1,-1,-1,-1,-1,-1,-1,-1,-1,-1,-1,-1,-1,-1,-1,-1,-1,-1,-1,-1,-1,-1,-1,-1,-1,-1,-1,-1,-1,-1,-1,-1,-1,-1,-1],"split_conditions":[1E0,6E0,1E0,4.5E-1,4.84E0,1E0,2E0,1.52E2,6E1,3E0,6E0,4.85E0,4.1E1,2E1,3E0,1.04E2,7.1E1,4.99E0,4.74E0,1.8E2,3E0,3E0,4.621258E-2,8E0,1E0,1E0,3.35E2,4.98E0,1.7E1,3.1E1,3.7418526E-2,-3.373376E-2,-2.331629E-3,-9.355742E-3,5.7913824E-3,1E0,1E0,5E0,3E1,-1.0543592E-2,3E0,1.2998533E-3,3.44E2,1E0,6E0,1E0,-2.8088663E-2,2.68E2,2.8E1,1E0,4.83E0,1E0,4.8E1,3E0,4.91E0,1E0,1.5E1,9.4E-1,1E0,8.808705E-3,2.5721624E-2,4.6712756E-2,1.50306225E-2,-1.0816365E-2,9.800786E-3,5.2014417E-3,2.3313077E-2,1.3933493E-3,1.816144E-2,3.0589312E-2,1.0635124E-2,3.525122E-2,1.9508202E-2,2.3662392E-2,-0E0,2.1930416E-3,-1.169548E-2,1.1117722E-2,-1.3900037E-2,-1.129773E-3,2.434835E-2,-2.6045462E-2,-2.5883093E-3,-2.2438688E-2,-9.447191E-3,-2.3422996E-3,-2.2556245E-2,2.400366E-2,-9.528671E-3,-1.7651595E-2,5.0980938E-3,1.5961844E-2,-5.723496E-3,-0E0,-1.6449388E-2,2.1083178E-2,3.012205E-3,-0E0,1.8936722E-2,6.8752156E-3,-9.097267E-3],"split_indices":[85,11,35,5,29,3,14,26,27,13,7,30,76,19,13,79,79,28,28,22,19,8,0,8,44,44,22,32,79,24,0,0,0,0,0,47,64,24,24,0,37,0,22,63,77,68,0,22,19,58,32,69,76,83,34,25,17,5,68,0,0,0,0,0,0,0,0,0,0,0,0,0,0,0,0,0,0,0,0,0,0,0,0,0,0,0,0,0,0,0,0,0,0,0,0,0,0,0,0,0,0],"split_type":[0,0,0,0,0,0,0,0,0,0,0,0,0,0,0,0,0,0,0,0,0,0,0,0,0,0,0,0,0,0,0,0,0,0,0,0,0,0,0,0,0,0,0,0,0,0,0,0,0,0,0,0,0,0,0,0,0,0,0,0,0,0,0,0,0,0,0,0,0,0,0,0,0,0,0,0,0,0,0,0,0,0,0,0,0,0,0,0,0,0,0,0,0,0,0,0,0,0,0,0,0],"sum_hessian":[2.085E3,9.08E2,1.177E3,7.01E2,2.07E2,7.82E2,3.95E2,5.9E1,6.42E2,9.7E1,1.1E2,1.85E2,5.97E2,2.91E2,1.04E2,2.7E1,3.2E1,2.05E2,4.37E2,3.4E1,6.3E1,9.2E1,1.8E1,9.9E1,8.6E1,4.27E2,1.7E2,1.31E2,1.6E2,9.2E1,1.2E1,1.2E1,1.5E1,1.4E1,1.8E1,1.65E2,4E1,8.8E1,3.49E2,1.1E1,2.3E1,1.1E1,5.2E1,5.7E1,3.5E1,8.6E1,1.3E1,4.9E1,3.7E1,2.72E2,1.55E2,1.2E2,5E1,9.6E1,3.5E1,2.8E1,1.32E2,6.1E1,3.1E1,1.34E2,3.1E1,1.6E1,2.4E1,6.8E1,2E1,3.13E2,3.6E1,1.1E1,1.2E1,3.9E1,1.3E1,4.4E1,1.3E1,2.5E1,1E1,3E1,5.6E1,2.6E1,2.3E1,1.3E1,2.4E1,2.56E2,1.6E1,6E1,9.5E1,4.5E1,7.5E1,2.1E1,2.9E1,8.3E1,1.3E1,1.2E1,2.3E1,1E1,1.8E1,1.7E1,1.15E2,1.2E1,4.9E1,1.7E1,1.4E1],"tree_param":{"num_deleted":"0","num_feature":"90","num_nodes":"101","size_leaf_vector":"1"}},{"base_weights":[7.138153E-4,-6.374074E-2,1.2649904E-1,-1.5504271E-1,-2.8116208E-2,7.971594E-2,2.3009354E-1,-8.271371E-2,-2.0553723E-1,-4.6081502E-2,1.6198143E-1,9.643563E-2,-5.0395124E-2,1.3668801E-1,2.9293823E-1,1.1951281E-1,-1.14389375E-1,-2.3675983E-1,-8.827404E-2,-1.1507621E-1,-1.3995959E-2,1.0075679E-1,3.0333927E-1,4.437725E-2,1.4854838E-1,-1.514068E-1,7.691562E-2,2.6084542E-1,3.2234248E-2,2.4723615E-1,3.9842623E-1,-5.980613E-4,2.329224E-2,-1.333813E-1,9.255561E-3,-7.5486163E-3,-2.4945705E-1,-1.612003E-1,3.393199E-3,-1.4873108E-1,-1.3933908E-2,4.917478E-3,-1.4822008E-1,1.5761846E-1,-5.314871E-3,4.3846477E-2,1.7735796E-2,1.5359685E-2,2.5757205E-1,1.1214171E-1,2.2042486E-1,-1.8214008E-4,-2.1477191E-1,-3.3449847E-3,2.0759903E-2,1.6400816E-1,3.9565314E-2,-7.929267E-2,1.6517255E-1,8.0644265E-3,2.7909288E-1,2.3930766E-2,4.447921E-1,-6.8595246E-3,-2.370359E-2,-2.9789975E-2,-2.0200893E-2,-2.5634326E-3,-2.1711057E-2,-2.857161E-2,-1.2011125E-2,-2.337837E-2,3.0775466E-3,-4.7875377E-3,4.7636596E-3,-2.9600024E-2,-6.67146E-3,2.0043625E-2,1.1265072E-3,-4.67202E-3,8.290484E-3,3.9548133E-2,8.154887E-3,1.5435981E-2,-0E0,1.1156726E-2,3.263479E-2,-2.8451553E-2,-1.1007234E-2,2.6314517E-2,5.309462E-3,-1.9722948E-2,6.426744E-3,7.116247E-3,2.449191E-2,2.4875201E-2,4.1690506E-2,5.2248705E-2,3.1323697E-2],"categories":[],"categories_nodes":[],"categories_segments":[],"categories_sizes":[],"default_left":[0,0,0,0,0,0,0,0,0,0,0,0,0,0,0,0,0,0,0,0,0,0,0,0,0,0,0,0,0,0,0,0,0,0,0,0,0,0,0,0,0,0,0,0,0,0,0,0,0,0,0,0,0,0,0,0,0,0,0,0,0,0,0,0,0,0,0,0,0,0,0,0,0,0,0,0,0,0,0,0,0,0,0,0,0,0,0,0,0,0,0,0,0,0,0,0,0,0,0],"id":13,"left_children":[1,3,5,7,9,11,13,15,17,19,21,23,25,27,29,31,33,35,37,39,41,43,45,47,49,51,53,55,57,59,61,-1,-1,63,-1,-1,65,67,-1,69,71,73,75,77,-1,-1,-1,79,81,83,85,-1,87,-1,-1,89,-1,91,93,-1,95,-1,97,-1,-1,-1,-1,-1,-1,-1,-1,-1,-1,-1,-1,-1,-1,-1,-1,-1,-1,-1,-1,-1,-1,-1,-1,-1,-1,-1,-1,-1,-1,-1,-1,-1,-1,-1,-1],"loss_changes":[1.7007515E1,4.4854145E0,3.3965178E0,1.3712358E0,3.4076195E0,1.0797689E0,1.2084055E0,1.0508755E0,7.7770233E-1,2.008834E0,6.73321E-1,1.1596546E0,7.392475E-1,1.1424364E0,4.636612E-1,3.3719465E-1,5.705979E-1,3.131714E-1,4.6379817E-1,9.6539736E-1,1.6042476E0,5.6140625E-1,2.8623486E-1,1.3359436E0,5.0986624E-1,2.8126138E-1,3.8493252E-1,4.1437435E-1,7.778211E-1,4.403839E-1,9.8121166E-2,0E0,0E0,8.261757E-1,0E0,0E0,2.6678658E-1,2.127049E-1,0E0,7.71925E-1,7.548672E-1,1.2403966E0,8.834827E-1,2.6483214E-1,0E0,0E0,0E0,8.29358E-1,5.512018E-1,7.0084596E-1,7.3846626E-1,0E0,8.987069E-2,0E0,0E0,2.4029106E-1,0E0,5.000402E-1,1.3089025E-1,0E0,1.558733E-1,0E0,2.8737068E-2,0E0,0E0,0E0,0E0,0E0,0E0,0E0,0E0,0E0,0E0,0E0,0E0,0E0,0E0,0E0,0E0,0E0,0E0,0E0,0E0,0E0,0E0,0E0,0E0,0E0,0E0,0E0,0E0,0E0,0E0,0E0,0E0,0E0,0E0,0E0,0E0],"parents":[2147483647,0,0,1,1,2,2,3,3,4,4,5,5,6,6,7,7,8,8,9,9,10,10,11,11,12,12,13,13,14,14,15,15,16,16,17,17,18,18,19,19,20,20,21,21,22,22,23,23,24,24,25,25,26,26,27,27,28,28,29,29,30,30,33,33,36,36,37,37,39,39,40,40,41,41,42,42,43,43,47,47,48,48,49,49,50,50,52,52,55,55,57,57,58,58,60,60,62,62],"right_children":[2,4,6,8,10,12,14,16,18,20,22,24,26,28,30,32,34,36,38,40,42,44,46,48,50,52,54,56,58,60,62,-1,-1,64,-1,-1,66,68,-1,70,72,74,76,78,-1,-1,-1,80,82,84,86,-1,88,-1,-1,90,-1,92,94,-1,96,-1,98,-1,-1,-1,-1,-1,-1,-1,-1,-1,-1,-1,-1,-1,-1,-1,-1,-1,-1,-1,-1,-1,-1,-1,-1,-1,-1,-1,-1,-1,-1,-1,-1,-1,-1,-1,-1],"split_conditions":[3E0,2E0,6E0,3E0,1E0,1E0,1E0,3.1E1,1E0,4.7E0,4.85E0,2E1,1E0,1.9E1,1.5E1,4.95E0,3.9E1,9.2E-1,4.7E1,4.76E0,5E0,1.15E2,1E0,6E0,4.92E0,1.37E2,8.1E1,4.93E0,1.5E0,4.62E0,5.3E1,-5.980613E-4,2.329224E-2,1E0,9.255561E-3,-7.5486163E-3,8.9E-1,7E0,3.393199E-3,7.7E-1,6.7E1,4E1,8.3E-1,1.12E2,-5.314871E-3,4.3846477E-2,1.7735796E-2,4.1E1,1E0,5.2E1,7.3E1,-1.8214008E-4,4.78E0,-3.3449847E-3,2.0759903E-2,4.79E0,3.9565314E-2,4.89E0,4.71E0,8.0644265E-3,1E1,2.3930766E-2,1.82E2,-6.8595246E-3,-2.370359E-2,-2.9789975E-2,-2.0200893E-2,-2.5634326E-3,-2.1711057E-2,-2.857161E-2,-1.2011125E-2,-2.337837E-2,3.0775466E-3,-4.7875377E-3,4.7636596E-3,-2.9600024E-2,-6.67146E-3,2.0043625E-2,1.1265072E-3,-4.67202E-3,8.290484E-3,3.9548133E-2,8.154887E-3,1.5435981E-2,-0E0,1.1156726E-2,3.263479E-2,-2.8451553E-2,-1.1007234E-2,2.6314517E-2,5.309462E-3,-1.9722948E-2,6.426744E-3,7.116247E-3,2.449191E-2,2.4875201E-2,4.1690506E-2,5.2248705E-2,3.1323697E-2],"split_indices":[11,11,11,37,60,68,59,17,47,30,33,19,65,23,83,32,83,4,82,33,39,79,6,37,30,22,79,29,12,33,20,0,0,88,0,0,5,8,0,5,26,20,5,23,0,0,0,76,6,82,79,0,28,0,0,32,0,31,33,0,8,0,22,0,0,0,0,0,0,0,0,0,0,0,0,0,0,0,0,0,0,0,0,0,0,0,0,0,0,0,0,0,0,0,0,0,0,0,0],"split_type":[0,0,0,0,0,0,0,0,0,0,0,0,0,0,0,0,0,0,0,0,0,0,0,0,0,0,0,0,0,0,0,0,0,0,0,0,0,0,0,0,0,0,0,0,0,0,0,0,0,0,0,0,0,0,0,0,0,0,0,0,0,0,0,0,0,0,0,0,0,0,0,0,0,0,0,0,0,0,0,0,0,0,0,0,0,0,0,0,0,0,0,0,0,0,0,0,0,0,0],"sum_hessian":[2.095E3,1.385E3,7.1E2,3.87E2,9.98E2,4.91E2,2.19E2,1.61E2,2.26E2,9.13E2,8.5E1,4.36E2,5.5E1,9E1,1.29E2,2.1E1,1.4E2,1.77E2,4.9E1,2.88E2,6.25E2,6.1E1,2.4E1,2.2E2,2.16E2,3.1E1,2.4E1,4E1,5E1,9.3E1,3.6E1,1E1,1.1E1,1.29E2,1.1E1,1.4E1,1.63E2,3.1E1,1.8E1,2.15E2,7.3E1,5.48E2,7.7E1,4.5E1,1.6E1,1E1,1.4E1,1.95E2,2.5E1,1.46E2,7E1,1E1,2.1E1,1.3E1,1.1E1,2.5E1,1.5E1,2.7E1,2.3E1,1.6E1,7.7E1,1E1,2.6E1,8.1E1,4.8E1,7.7E1,8.6E1,1E1,2.1E1,3.5E1,1.8E2,1.2E1,6.1E1,2.44E2,3.04E2,2.6E1,5.1E1,3.4E1,1.1E1,1.01E2,9.4E1,1.3E1,1.2E1,1.06E2,4E1,3.6E1,3.4E1,1.1E1,1E1,1.2E1,1.3E1,1.5E1,1.2E1,1.2E1,1.1E1,6.6E1,1.1E1,1.4E1,1.2E1],"tree_param":{"num_deleted":"0","num_feature":"90","num_nodes":"99","size_leaf_vector":"1"}},{"base_weights":[6.0853823E-3,-4.1618813E-2,1.4362971E-1,-1.4090729E-1,-7.831138E-3,-2.408062E-2,1.5301237E-1,-7.448453E-2,-1.9539654E-1,-2.2122806E-2,1.228688E-1,1.1722187E-1,2.4429776E-1,1.2773148E-2,-9.835872E-2,-2.253187E-1,-8.45149E-2,1.5259369E-2,-7.557011E-2,1.8100761E-1,3.401117E-2,7.702297E-2,2.2297448E-1,2.2487687E-1,4.5487642E-2,8.9823976E-2,-1.3246168E-1,-7.6771714E-2,-2.4766222E-1,4.2209662E-2,-1.9721298E-1,-3.600132E-2,5.853394E-2,-1.7947608E-1,-4.9760427E-2,2.6510277E-1,1.00681856E-1,-9.300307E-2,1.6377494E-1,1.5558602E-2,1.6497087E-1,1.2802945E-1,2.7200338E-1,2.5847962E-1,1.4308295E-1,2.0696348E-2,-2.6532735E-3,-1.598027E-2,-1.5771938E-3,1.1140533E-3,-1.4750478E-2,-2.6208714E-2,-7.334107E-3,-8.133739E-3,1.934735E-2,-6.1601023E-3,-2.7187038E-2,-4.9196193E-3,2.3312297E-2,3.2036777E-3,2.1103697E-2,-2.4433715E-2,-4.908621E-3,2.0344337E-2,-5.889855E-3,1.0788436E-2,3.4903962E-2,1.9217487E-3,2.0015275E-2,-1.6565721E-2,-2.2131742E-3,5.4432265E-3,2.4441628E-2,4.3862774E-3,-2.656276E-2,2.0406408E-2,-3.5972253E-3,2.2261677E-2,5.009248E-4,3.094517E-2,1.270462E-2,4.0248536E-2,2.2738623E-2,7.905274E-3,2.9357329E-2],"categories":[],"categories_nodes":[],"categories_segments":[],"categories_sizes":[],"default_left":[0,0,0,0,0,0,0,0,0,0,0,0,0,0,0,0,0,0,0,0,0,0,0,0,0,0,0,0,0,0,0,0,0,0,0,0,0,0,0,0,0,0,0,0,0,0,0,0,0,0,0,0,0,0,0,0,0,0,0,0,0,0,0,0,0,0,0,0,0,0,0,0,0,0,0,0,0,0,0,0,0,0,0,0,0],"id":14,"left_children":[1,3,5,7,9,-1,11,13,15,17,19,21,23,-1,25,27,29,31,33,35,37,39,41,43,-1,45,47,49,51,53,55,57,59,61,63,65,67,69,71,73,75,77,79,81,83,-1,-1,-1,-1,-1,-1,-1,-1,-1,-1,-1,-1,-1,-1,-1,-1,-1,-1,-1,-1,-1,-1,-1,-1,-1,-1,-1,-1,-1,-1,-1,-1,-1,-1,-1,-1,-1,-1,-1,-1],"loss_changes":[1.3755837E1,5.2006226E0,1.9758615E0,1.3844733E0,2.163167E0,0E0,1.660265E0,8.786202E-1,6.633043E-1,2.1030614E0,5.6127477E-1,1.5767612E0,4.309101E-1,0E0,1.0558109E0,5.061455E-1,7.093421E-1,1.3730421E0,1.1293561E0,3.9607096E-1,7.969555E-1,1.4875599E0,4.0929794E-1,2.9940367E-1,0E0,3.642835E-1,4.2019963E-1,1.6451897E-1,3.1184864E-1,4.5677882E-1,2.1314073E-1,9.9447477E-1,1.3266732E0,6.7752814E-1,8.050465E-1,3.3893704E-1,2.7403992E-1,1.0113312E-1,1.6843194E-1,1.3106259E0,9.196782E-1,4.1829604E-1,2.8073835E-1,2.708683E-1,3.5387456E-1,0E0,0E0,0E0,0E0,0E0,0E0,0E0,0E0,0E0,0E0,0E0,0E0,0E0,0E0,0E0,0E0,0E0,0E0,0E0,0E0,0E0,0E0,0E0,0E0,0E0,0E0,0E0,0E0,0E0,0E0,0E0,0E0,0E0,0E0,0E0,0E0,0E0,0E0,0E0,0E0],"parents":[2147483647,0,0,1,1,2,2,3,3,4,4,6,6,7,7,8,8,9,9,10,10,11,11,12,12,14,14,15,15,16,16,17,17,18,18,19,19,20,20,21,21,22,22,23,23,25,25,26,26,27,27,28,28,29,29,30,30,31,31,32,32,33,33,34,34,35,35,36,36,37,37,38,38,39,39,40,40,41,41,42,42,43,43,44,44],"right_children":[2,4,6,8,10,-1,12,14,16,18,20,22,24,-1,26,28,30,32,34,36,38,40,42,44,-1,46,48,50,52,54,56,58,60,62,64,66,68,70,72,74,76,78,80,82,84,-1,-1,-1,-1,-1,-1,-1,-1,-1,-1,-1,-1,-1,-1,-1,-1,-1,-1,-1,-1,-1,-1,-1,-1,-1,-1,-1,-1,-1,-1,-1,-1,-1,-1,-1,-1,-1,-1,-1,-1],"split_conditions":[2E0,2E0,2E0,3E0,1E0,-2.408062E-2,2E0,1E0,1E0,2E0,1E0,1E0,1E0,1.2773148E-2,3.1E1,9.3E-1,1E0,4.76E0,4.53E0,2E0,8.6E1,1.5E1,1E0,1.05E2,4.5487642E-2,2.4E1,4.1E1,1E0,8.8E1,2.65E2,1.09E2,7E0,2E1,9E1,1E0,4.68E0,3E0,4.2E1,6.6E1,1E0,1.14E2,2.6E1,1E0,1E0,1E0,2.0696348E-2,-2.6532735E-3,-1.598027E-2,-1.5771938E-3,1.1140533E-3,-1.4750478E-2,-2.6208714E-2,-7.334107E-3,-8.133739E-3,1.934735E-2,-6.1601023E-3,-2.7187038E-2,-4.9196193E-3,2.3312297E-2,3.2036777E-3,2.1103697E-2,-2.4433715E-2,-4.908621E-3,2.0344337E-2,-5.889855E-3,1.0788436E-2,3.4903962E-2,1.9217487E-3,2.0015275E-2,-1.6565721E-2,-2.2131742E-3,5.4432265E-3,2.4441628E-2,4.3862774E-3,-2.656276E-2,2.0406408E-2,-3.5972253E-3,2.2261677E-2,5.009248E-4,3.094517E-2,1.270462E-2,4.0248536E-2,2.2738623E-2,7.905274E-3,2.9357329E-2],"split_indices":[13,11,11,37,60,0,12,85,47,39,88,35,67,0,17,4,69,33,30,24,79,83,38,79,0,19,76,88,23,22,79,7,83,21,13,29,11,76,21,85,79,24,58,75,78,0,0,0,0,0,0,0,0,0,0,0,0,0,0,0,0,0,0,0,0,0,0,0,0,0,0,0,0,0,0,0,0,0,0,0,0,0,0,0,0],"split_type":[0,0,0,0,0,0,0,0,0,0,0,0,0,0,0,0,0,0,0,0,0,0,0,0,0,0,0,0,0,0,0,0,0,0,0,0,0,0,0,0,0,0,0,0,0,0,0,0,0,0,0,0,0,0,0,0,0,0,0,0,0,0,0,0,0,0,0,0,0,0,0,0,0,0,0,0,0,0,0,0,0,0,0,0,0],"sum_hessian":[2.093E3,1.554E3,5.39E2,3.93E2,1.161E3,1.2E1,5.27E2,1.79E2,2.14E2,1.048E3,1.13E2,3.81E2,1.46E2,1.8E1,1.61E2,1.67E2,4.7E1,6.16E2,4.32E2,6.7E1,4.6E1,2.78E2,1.03E2,1.36E2,1E1,2.4E1,1.37E2,2.3E1,1.44E2,2.2E1,2.5E1,2.81E2,3.35E2,8.4E1,3.48E2,3.1E1,3.6E1,2.3E1,2.3E1,1.65E2,1.13E2,3.7E1,6.6E1,9.4E1,4.2E1,1.2E1,1.2E1,1.1E2,2.7E1,1E1,1.3E1,1.32E2,1.2E1,1.2E1,1E1,1E1,1.5E1,2.69E2,1.2E1,2.87E2,4.8E1,5.5E1,2.9E1,1.1E1,3.37E2,1.2E1,1.9E1,2.1E1,1.5E1,1E1,1.3E1,1.1E1,1.2E1,1.51E2,1.4E1,9.5E1,1.8E1,2E1,1.7E1,5.1E1,1.5E1,1.4E1,8E1,3.1E1,1.1E1],"tree_param":{"num_deleted":"0","num_feature":"90","num_nodes":"85","size_leaf_vector":"1"}},{"base_weights":[4.540575E-3,8.8524446E-2,-6.1015442E-2,6.550106E-2,2.0513742E-1,-1.06500044E-1,2.78095E-2,5.2297622E-2,2.4943404E-1,1.5501153E-1,2.8799328E-1,-1.9282006E-1,-5.303641E-2,6.6914305E-2,-5.795638E-2,1.4302284E-1,3.365846E-2,3.876044E-1,4.5136556E-2,2.5690505E-1,1.12671584E-1,3.5379785E-1,8.226127E-3,-2.541923E-1,-1.4580207E-1,-6.853938E-2,2.1944067E-1,5.299509E-2,3.6038738E-2,-1.4314707E-1,1.3391894E-3,4.5982014E-2,2.0838478E-1,2.0855503E-2,2.1051864E-1,2.4985937E-2,5.200373E-2,-5.4521947E-3,1.588425E-2,1.5272041E-2,3.496639E-2,3.1446066E-2,6.4604975E-2,2.4129288E-1,4.446934E-2,-3.125348E-2,-2.1352175E-1,-1.2564461E-1,-2.9624669E-2,-9.446804E-2,3.1023042E-2,5.2872635E-3,4.0103067E-2,4.141086E-2,2.85445E-2,-3.4880843E-2,-8.3494164E-2,8.906095E-2,-3.5563495E-2,1.4506294E-4,1.9869154E-2,2.389014E-2,8.347069E-4,-2.509561E-3,6.708727E-3,4.162992E-2,7.985606E-3,1.9280391E-3,2.0177111E-2,9.69119E-3,3.5464726E-2,-1.1200584E-2,-2.359384E-2,-1.5712177E-2,-2.6234423E-3,-1.5571329E-2,-5.0264583E-3,-1.35652665E-2,9.391655E-3,-1.5389298E-3,8.630741E-3,2.942375E-3,-1.228255E-2,1.5618823E-2,-0E0,-1.3522932E-2,2.0825838E-4],"categories":[],"categories_nodes":[],"categories_segments":[],"categories_sizes":[],"default_left":[0,0,0,0,0,0,0,0,0,0,0,0,0,0,0,0,0,0,0,0,0,0,0,0,0,0,0,0,0,0,0,0,0,0,0,0,0,0,0,0,0,0,0,0,0,0,0,0,0,0,0,0,0,0,0,0,0,0,0,0,0,0,0,0,0,0,0,0,0,0,0,0,0,0,0,0,0,0,0,0,0,0,0,0,0,0,0],"id":15,"left_children":[1,3,5,7,9,11,13,15,17,19,21,23,25,27,29,31,33,35,37,39,41,43,-1,45,47,49,51,53,-1,55,57,59,61,63,65,-1,-1,-1,-1,-1,-1,-1,67,69,-1,-1,71,73,-1,75,77,-1,-1,79,-1,-1,81,83,85,-1,-1,-1,-1,-1,-1,-1,-1,-1,-1,-1,-1,-1,-1,-1,-1,-1,-1,-1,-1,-1,-1,-1,-1,-1,-1,-1,-1],"loss_changes":[1.1586531E1,2.437594E0,4.782268E0,1.8340487E0,5.381942E-1,3.5741043E0,1.346317E0,1.2001413E0,1.3788519E0,3.5257053E-1,6.7188597E-1,7.828474E-1,2.0486894E0,1.0669993E0,6.458013E-1,7.388003E-1,1.335601E0,3.4033298E-1,2.683913E-1,1.572901E-1,6.3042915E-1,2.4337435E-1,0E0,1.820097E-1,4.4219327E-1,1.1967745E0,7.198304E-1,6.6907346E-1,0E0,5.6559765E-1,2.4806751E-1,3.2651624E-1,4.1280317E-1,1.2019205E0,9.9265337E-1,0E0,0E0,0E0,0E0,0E0,0E0,0E0,3.408075E-1,2.6416492E-1,0E0,0E0,1.1855507E-1,4.594319E-1,0E0,9.6242976E-1,1.0044342E0,0E0,0E0,6.561533E-1,0E0,0E0,1.994851E-1,1.3469929E-1,2.0870171E-1,0E0,0E0,0E0,0E0,0E0,0E0,0E0,0E0,0E0,0E0,0E0,0E0,0E0,0E0,0E0,0E0,0E0,0E0,0E0,0E0,0E0,0E0,0E0,0E0,0E0,0E0,0E0,0E0],"parents":[2147483647,0,0,1,1,2,2,3,3,4,4,5,5,6,6,7,7,8,8,9,9,10,10,11,11,12,12,13,13,14,14,15,15,16,16,17,17,18,18,19,19,20,20,21,21,23,23,24,24,25,25,26,26,27,27,29,29,30,30,31,31,32,32,33,33,34,34,42,42,43,43,46,46,47,47,49,49,50,50,53,53,56,56,57,57,58,58],"right_children":[2,4,6,8,10,12,14,16,18,20,22,24,26,28,30,32,34,36,38,40,42,44,-1,46,48,50,52,54,-1,56,58,60,62,64,66,-1,-1,-1,-1,-1,-1,-1,68,70,-1,-1,72,74,-1,76,78,-1,-1,80,-1,-1,82,84,86,-1,-1,-1,-1,-1,-1,-1,-1,-1,-1,-1,-1,-1,-1,-1,-1,-1,-1,-1,-1,-1,-1,-1,-1,-1,-1,-1,-1],"split_conditions":[1E0,1.5E0,1E0,2.6E1,1.3E1,6.1E1,2E0,7E0,1E0,3E0,5.1E1,1E0,3E0,6.4E1,1E0,2E0,7E0,3.4E1,1E0,3.3E1,7.3E-1,4E0,8.226127E-3,6E0,3E0,1E0,1E0,5E0,3.6038738E-2,2.3E1,1E0,4E0,5.6E1,1.7E1,1E0,2.4985937E-2,5.200373E-2,-5.4521947E-3,1.588425E-2,1.5272041E-2,3.496639E-2,3.1446066E-2,3E1,4.68E0,4.446934E-2,-3.125348E-2,4.18E0,2E0,-2.9624669E-2,9.4E-1,4.66E0,5.2872635E-3,4.0103067E-2,2.3E1,2.85445E-2,-3.4880843E-2,1E0,4.9E0,4.86E0,1.4506294E-4,1.9869154E-2,2.389014E-2,8.347069E-4,-2.509561E-3,6.708727E-3,4.162992E-2,7.985606E-3,1.9280391E-3,2.0177111E-2,9.69119E-3,3.5464726E-2,-1.1200584E-2,-2.359384E-2,-1.5712177E-2,-2.6234423E-3,-1.5571329E-2,-5.0264583E-3,-1.35652665E-2,9.391655E-3,-1.5389298E-3,8.630741E-3,2.942375E-3,-1.228255E-2,1.5618823E-2,-0E0,-1.3522932E-2,2.0825838E-4],"split_indices":[85,12,35,83,83,21,25,15,3,16,23,51,14,76,48,14,38,76,65,20,5,14,0,7,3,47,65,11,0,24,68,77,24,19,75,0,0,0,0,0,0,0,19,33,0,0,29,3,0,5,33,0,0,19,0,0,88,34,32,0,0,0,0,0,0,0,0,0,0,0,0,0,0,0,0,0,0,0,0,0,0,0,0,0,0,0,0],"split_type":[0,0,0,0,0,0,0,0,0,0,0,0,0,0,0,0,0,0,0,0,0,0,0,0,0,0,0,0,0,0,0,0,0,0,0,0,0,0,0,0,0,0,0,0,0,0,0,0,0,0,0,0,0,0,0,0,0,0,0,0,0,0,0,0,0,0,0,0,0,0,0,0,0,0,0,0,0,0,0,0,0,0,0,0,0,0,0],"sum_hessian":[2.102E3,9.22E2,1.18E3,7.72E2,1.5E2,7.81E2,3.99E2,7.22E2,5E1,9.6E1,5.4E1,2.97E2,4.84E2,2.75E2,1.24E2,1.21E2,6.01E2,2.9E1,2.1E1,2.6E1,7E1,4E1,1.4E1,1.26E2,1.71E2,4.59E2,2.5E1,2.64E2,1.1E1,5.1E1,7.3E1,5E1,7.1E1,5.62E2,3.9E1,1.6E1,1.3E1,1.1E1,1E1,1.4E1,1.2E1,1.2E1,5.8E1,2E1,2E1,4.8E1,7.8E1,1.53E2,1.8E1,3.65E2,9.4E1,1.4E1,1.1E1,2.53E2,1.1E1,1E1,4.1E1,2.2E1,5.1E1,4E1,1E1,6.1E1,1E1,2.81E2,2.81E2,1.4E1,2.5E1,4.5E1,1.3E1,1E1,1E1,1.6E1,6.2E1,1.15E2,3.8E1,1.51E2,2.14E2,2.5E1,6.9E1,1.11E2,1.42E2,1E1,3.1E1,1.2E1,1E1,1.4E1,3.7E1],"tree_param":{"num_deleted":"0","num_feature":"90","num_nodes":"87","size_leaf_vector":"1"}},{"base_weights":[1.3633347E-3,-5.1867597E-2,8.650965E-2,-1.2657714E-1,-1.8613579E-2,1.500951E-2,1.2013077E-1,-1.6799842E-1,-6.9413275E-2,-4.919014E-2,5.1363196E-2,-1.2465667E-1,6.0568277E-2,5.6989323E-2,1.6738716E-1,-5.9038885E-2,-1.7961739E-1,-9.3626715E-2,9.86243E-2,-7.097196E-2,4.2490516E-2,-1.01404406E-1,1.15138344E-1,-2.6082925E-2,-2.514186E-1,-2.5708904E-2,1.01732895E-1,1.7887074E-1,3.342063E-2,1.5344994E-1,3.910509E-2,2.4732924E-3,-1.693813E-2,-1.8597178E-1,-4.3284516E-3,-6.378855E-2,-2.1458934E-1,2.3875061E-2,-4.1376953E-3,-7.892484E-2,1.4037596E-2,-1.807022E-2,8.5472226E-2,-1.6637605E-1,6.92848E-3,2.0293333E-2,1.9408225E-1,5.7557218E-2,-1.926153E-2,-3.6092535E-2,-5.0233705E-3,-7.311478E-2,1.545533E-2,5.5539083E-2,2.0908365E-1,9.16742E-2,3.0843118E-2,-6.5160166E-3,1.16775855E-1,9.017573E-2,2.0305161E-1,-2.3311783E-2,-1.6702516E-2,-1.3218852E-3,-1.1415351E-2,-2.8241126E-2,-1.1945234E-2,-2.6451158E-3,-1.0534102E-2,-1.8483361E-2,1.2208119E-2,-2.8700447E-2,-7.305696E-3,1.1678294E-2,-4.88379E-3,7.7298763E-3,-5.074679E-3,4.8320737E-2,1.4583965E-2,-1.6279792E-3,1.4723728E-2,8.087742E-3,-1.1998457E-2,1.4273654E-2,9.510057E-4,3.28049E-2,1.1689495E-2,4.903919E-6,1.9086313E-2,-8.161666E-3,4.3947124E-3,1.7140158E-2,-5.4978007E-3,-8.899781E-3,1.2038919E-2,1.5017382E-2,2.8217426E-2],"categories":[],"categories_nodes":[],"categories_segments":[],"categories_sizes":[],"default_left":[0,0,0,0,0,0,0,0,0,0,0,0,0,0,0,0,0,0,0,0,0,0,0,0,0,0,0,0,0,0,0,0,0,0,0,0,0,0,0,0,0,0,0,0,0,0,0,0,0,0,0,0,0,0,0,0,0,0,0,0,0,0,0,0,0,0,0,0,0,0,0,0,0,0,0,0,0,0,0,0,0,0,0,0,0,0,0,0,0,0,0,0,0,0,0,0,0],"id":16,"left_children":[1,3,5,7,9,11,13,15,17,19,21,23,25,27,29,31,33,35,37,39,41,43,45,47,49,51,53,55,57,59,-1,-1,-1,61,-1,63,65,-1,-1,67,-1,-1,69,71,73,75,77,79,-1,-1,-1,81,-1,83,85,87,-1,89,91,93,95,-1,-1,-1,-1,-1,-1,-1,-1,-1,-1,-1,-1,-1,-1,-1,-1,-1,-1,-1,-1,-1,-1,-1,-1,-1,-1,-1,-1,-1,-1,-1,-1,-1,-1,-1,-1],"loss_changes":[9.385525E0,3.1457562E0,1.9006033E0,8.9040804E-1,1.8916196E0,1.6364372E0,1.5822787E0,2.503786E-1,6.882183E-1,1.2359983E0,2.624113E0,7.5290215E-1,7.0277345E-1,6.44978E-1,8.4565735E-1,2.4050009E-1,1.4402008E-1,4.8904133E-1,4.4159114E-1,8.436661E-1,1.13792E0,5.731442E-1,1.3972366E0,5.399574E-1,5.355933E-1,5.41522E-1,6.214647E-1,3.4971142E-1,6.7091465E-1,8.688102E-1,0E0,0E0,0E0,9.255409E-2,0E0,2.9138663E-1,1.0674548E-1,0E0,0E0,6.5216064E-1,0E0,0E0,1.0058511E0,5.0587296E-1,1.9628349E-1,3.62949E-1,1.3032839E0,1.8103546E-1,0E0,0E0,0E0,3.8171142E-1,0E0,3.6471117E-1,3.4488142E-1,1.9901623E-1,0E0,5.151889E-1,6.309073E-1,7.23016E-1,5.921707E-1,0E0,0E0,0E0,0E0,0E0,0E0,0E0,0E0,0E0,0E0,0E0,0E0,0E0,0E0,0E0,0E0,0E0,0E0,0E0,0E0,0E0,0E0,0E0,0E0,0E0,0E0,0E0,0E0,0E0,0E0,0E0,0E0,0E0,0E0,0E0,0E0],"parents":[2147483647,0,0,1,1,2,2,3,3,4,4,5,5,6,6,7,7,8,8,9,9,10,10,11,11,12,12,13,13,14,14,15,15,16,16,17,17,18,18,19,19,20,20,21,21,22,22,23,23,24,24,25,25,26,26,27,27,28,28,29,29,33,33,35,35,36,36,39,39,42,42,43,43,44,44,45,45,46,46,47,47,51,51,53,53,54,54,55,55,57,57,58,58,59,59,60,60],"right_children":[2,4,6,8,10,12,14,16,18,20,22,24,26,28,30,32,34,36,38,40,42,44,46,48,50,52,54,56,58,60,-1,-1,-1,62,-1,64,66,-1,-1,68,-1,-1,70,72,74,76,78,80,-1,-1,-1,82,-1,84,86,88,-1,90,92,94,96,-1,-1,-1,-1,-1,-1,-1,-1,-1,-1,-1,-1,-1,-1,-1,-1,-1,-1,-1,-1,-1,-1,-1,-1,-1,-1,-1,-1,-1,-1,-1,-1,-1,-1,-1,-1],"split_conditions":[2E0,2E0,9.2E-1,9.6E-1,4.86E0,4.7E0,2E0,7E0,1.19E2,4.94E0,1.8E1,4.3E1,1.2E1,4.72E0,2.6E1,1E0,6.5E1,6.5E1,1E0,7E0,6.8E-1,3E0,2.1E1,2E0,1.7E1,2E0,4.87E0,4.53E0,1E0,4.83E0,3.910509E-2,2.4732924E-3,-1.693813E-2,8.7E1,-4.3284516E-3,9.8E1,9.4E1,2.3875061E-2,-4.1376953E-3,2.8E1,1.4037596E-2,-1.807022E-2,1E0,6E1,1E0,1E2,1E0,4.49E0,-1.926153E-2,-3.6092535E-2,-5.0233705E-3,4.76E0,1.545533E-2,6.8E1,3.6E1,1E0,3.0843118E-2,6.2E1,1.55E2,1E0,1E0,-2.3311783E-2,-1.6702516E-2,-1.3218852E-3,-1.1415351E-2,-2.8241126E-2,-1.1945234E-2,-2.6451158E-3,-1.0534102E-2,-1.8483361E-2,1.2208119E-2,-2.8700447E-2,-7.305696E-3,1.1678294E-2,-4.88379E-3,7.7298763E-3,-5.074679E-3,4.8320737E-2,1.4583965E-2,-1.6279792E-3,1.4723728E-2,8.087742E-3,-1.1998457E-2,1.4273654E-2,9.510057E-4,3.28049E-2,1.1689495E-2,4.903919E-6,1.9086313E-2,-8.161666E-3,4.3947124E-3,1.7140158E-2,-5.4978007E-3,-8.899781E-3,1.2038919E-2,1.5017382E-2,2.8217426E-2],"split_indices":[14,11,5,5,33,28,13,15,79,30,82,82,23,31,83,25,23,82,68,38,5,23,19,1,83,12,33,33,74,30,0,0,0,22,0,27,79,0,0,16,0,0,41,79,52,79,46,34,0,0,0,34,0,79,82,50,0,21,23,38,74,0,0,0,0,0,0,0,0,0,0,0,0,0,0,0,0,0,0,0,0,0,0,0,0,0,0,0,0,0,0,0,0,0,0,0,0],"split_type":[0,0,0,0,0,0,0,0,0,0,0,0,0,0,0,0,0,0,0,0,0,0,0,0,0,0,0,0,0,0,0,0,0,0,0,0,0,0,0,0,0,0,0,0,0,0,0,0,0,0,0,0,0,0,0,0,0,0,0,0,0,0,0,0,0,0,0,0,0,0,0,0,0,0,0,0,0,0,0,0,0,0,0,0,0,0,0,0,0,0,0,0,0,0,0,0,0],"sum_hessian":[2.068E3,1.272E3,7.96E2,3.9E2,8.82E2,2.56E2,5.4E2,2.24E2,1.66E2,6.15E2,2.67E2,6.2E1,1.94E2,2.33E2,3.07E2,2.3E1,2.01E2,1.46E2,2E1,4.98E2,1.17E2,7.8E1,1.89E2,3.6E1,2.6E1,6.2E1,1.32E2,3.6E1,1.97E2,2.91E2,1.6E1,1.3E1,1E1,1.91E2,1E1,1.19E2,2.7E1,1E1,1E1,4.81E2,1.7E1,1.8E1,9.9E1,4.9E1,2.9E1,8.7E1,1.02E2,2.4E1,1.2E1,1.6E1,1E1,5E1,1.2E1,9.4E1,3.8E1,2.3E1,1.3E1,1.33E2,6.4E1,1.3E2,1.61E2,5E1,1.41E2,6.1E1,5.8E1,1.4E1,1.3E1,1.63E2,3.18E2,1.1E1,8.8E1,2E1,2.9E1,1E1,1.9E1,4.9E1,3.8E1,1.3E1,8.9E1,1.3E1,1.1E1,1.1E1,3.9E1,3.1E1,6.3E1,1.5E1,2.3E1,1.3E1,1E1,5.4E1,7.9E1,4.9E1,1.5E1,1.8E1,1.12E2,9.9E1,6.2E1],"tree_param":{"num_deleted":"0","num_feature":"90","num_nodes":"97","size_leaf_vector":"1"}},{"base_weights":[4.453566E-3,-3.2509606E-2,1.1016171E-1,-1.08776696E-1,-4.7385544E-3,8.060594E-2,1.8471453E-1,1.3886242E-2,-1.16863675E-1,-3.441582E-2,4.589757E-2,2.804553E-2,1.314404E-1,1.4609383E-1,3.056833E-1,-1.2423344E-1,8.648305E-3,-1.6747136E-1,-2.2446858E-2,-1.6263168E-2,9.151745E-2,1.5145588E-1,-1.5547193E-3,-0E0,1.4855844E-1,-7.159669E-4,1.662809E-1,1.860884E-1,4.460707E-2,-1.3807994E-1,-5.8148736E-3,-2.4264732E-1,-0E0,-2.9903617E-2,1.8925719E-1,-1.3068783E-1,3.6001667E-2,7.7187546E-2,3.502142E-2,2.1949026E-1,-5.9094746E-4,6.8449594E-2,-6.678361E-2,-7.600747E-3,8.193163E-3,1.20411195E-1,2.6214477E-1,2.7581623E-2,1.3737516E-1,6.842786E-3,2.777409E-2,-1.45525355E-2,9.077492E-3,-1.727926E-2,8.964655E-3,-3.0391285E-2,-1.4532762E-2,-3.8052727E-3,1.4454504E-2,3.223606E-2,1.7757363E-3,-1.8665235E-2,-0E0,9.408646E-3,-1.9177197E-3,9.828395E-3,-7.494669E-3,9.7781345E-3,2.7944956E-2,-6.0753105E-4,1.1257976E-2,-1.6279014E-2,6.046567E-4,9.888044E-3,2.8944632E-2,1.2829914E-2,3.9008707E-2,9.010069E-3,1.9644039E-2],"categories":[],"categories_nodes":[],"categories_segments":[],"categories_sizes":[],"default_left":[0,0,0,0,0,0,0,0,0,0,0,0,0,0,0,0,0,0,0,0,0,0,0,0,0,0,0,0,0,0,0,0,0,0,0,0,0,0,0,0,0,0,0,0,0,0,0,0,0,0,0,0,0,0,0,0,0,0,0,0,0,0,0,0,0,0,0,0,0,0,0,0,0,0,0,0,0,0,0],"id":17,"left_children":[1,3,5,7,9,11,13,-1,15,17,19,21,23,25,27,29,-1,31,33,35,37,39,41,43,45,-1,47,49,-1,51,53,55,-1,57,59,61,63,65,-1,67,-1,69,71,-1,-1,73,75,-1,77,-1,-1,-1,-1,-1,-1,-1,-1,-1,-1,-1,-1,-1,-1,-1,-1,-1,-1,-1,-1,-1,-1,-1,-1,-1,-1,-1,-1,-1,-1],"loss_changes":[8.1111965E0,3.2414079E0,1.1440434E0,8.331137E-1,1.6955239E0,1.0170543E0,6.156211E-1,0E0,6.0947037E-1,1.1127274E0,1.1886921E0,7.202501E-1,4.5390248E-1,3.7907028E-1,4.4141173E-1,6.1444473E-1,0E0,7.284026E-1,1.0253029E0,1.0667216E0,8.236389E-1,4.2949283E-1,7.167481E-1,1.4894347E-1,4.8648167E-1,0E0,2.500751E-1,1.7283952E-1,0E0,6.0313034E-1,6.9328195E-1,1.4940286E-1,0E0,8.975679E-1,4.6246248E-1,4.0228337E-1,3.9710665E-1,7.4788165E-1,0E0,1.3198662E-1,0E0,2.5799415E-1,5.900167E-1,0E0,0E0,4.493494E-1,4.6322274E-1,0E0,1.9099021E-1,0E0,0E0,0E0,0E0,0E0,0E0,0E0,0E0,0E0,0E0,0E0,0E0,0E0,0E0,0E0,0E0,0E0,0E0,0E0,0E0,0E0,0E0,0E0,0E0,0E0,0E0,0E0,0E0,0E0,0E0],"parents":[2147483647,0,0,1,1,2,2,3,3,4,4,5,5,6,6,8,8,9,9,10,10,11,11,12,12,13,13,14,14,15,15,17,17,18,18,19,19,20,20,21,21,22,22,23,23,24,24,26,26,27,27,29,29,30,30,31,31,33,33,34,34,35,35,36,36,37,37,39,39,41,41,42,42,45,45,46,46,48,48],"right_children":[2,4,6,8,10,12,14,-1,16,18,20,22,24,26,28,30,-1,32,34,36,38,40,42,44,46,-1,48,50,-1,52,54,56,-1,58,60,62,64,66,-1,68,-1,70,72,-1,-1,74,76,-1,78,-1,-1,-1,-1,-1,-1,-1,-1,-1,-1,-1,-1,-1,-1,-1,-1,-1,-1,-1,-1,-1,-1,-1,-1,-1,-1,-1,-1,-1,-1],"split_conditions":[4E0,2E0,1.5E0,3E1,1E0,1E0,5.5E1,1.3886242E-2,1E0,9E-1,6E1,1E0,4E0,1E0,3.8E1,1E0,8.648305E-3,1.03E2,7E0,4.91E0,6.6E1,4E0,3.3E1,2.7E2,4.98E0,-7.159669E-4,1E0,4.79E0,4.460707E-2,1.45E2,3.8E2,1E0,-0E0,1E0,2.28E2,1E0,1E0,4E0,3.502142E-2,2.9E1,-5.9094746E-4,4.8E1,4.73E0,-7.600747E-3,8.193163E-3,1.9E1,2.6E1,2.7581623E-2,2.8E1,6.842786E-3,2.777409E-2,-1.45525355E-2,9.077492E-3,-1.727926E-2,8.964655E-3,-3.0391285E-2,-1.4532762E-2,-3.8052727E-3,1.4454504E-2,3.223606E-2,1.7757363E-3,-1.8665235E-2,-0E0,9.408646E-3,-1.9177197E-3,9.828395E-3,-7.494669E-3,9.7781345E-3,2.7944956E-2,-6.0753105E-4,1.1257976E-2,-1.6279014E-2,6.046567E-4,9.888044E-3,2.8944632E-2,1.2829914E-2,3.9008707E-2,9.010069E-3,1.9644039E-2],"split_indices":[11,11,12,18,59,59,76,0,61,4,21,3,23,38,82,54,0,79,38,31,76,8,82,22,29,0,75,33,0,23,17,10,0,61,26,70,88,39,0,19,0,21,30,0,0,83,23,0,19,0,0,0,0,0,0,0,0,0,0,0,0,0,0,0,0,0,0,0,0,0,0,0,0,0,0,0,0,0,0],"split_type":[0,0,0,0,0,0,0,0,0,0,0,0,0,0,0,0,0,0,0,0,0,0,0,0,0,0,0,0,0,0,0,0,0,0,0,0,0,0,0,0,0,0,0,0,0,0,0,0,0,0,0,0,0,0,0,0,0,0,0,0,0,0,0,0,0,0,0,0,0,0,0,0,0,0,0,0,0,0,0],"sum_hessian":[2.072E3,1.535E3,5.37E2,4.08E2,1.127E3,3.87E2,1.5E2,1.2E1,3.96E2,7.12E2,4.15E2,1.92E2,1.95E2,1.16E2,3.4E1,3.83E2,1.3E1,5.7E1,6.55E2,1.75E2,2.4E2,3.7E1,1.55E2,2.2E1,1.73E2,1.3E1,1.03E2,2E1,1.4E1,3.42E2,4.1E1,3.9E1,1.8E1,6.34E2,2.1E1,5.5E1,1.2E2,2.29E2,1.1E1,2.6E1,1.1E1,7.4E1,8.1E1,1.2E1,1E1,1.41E2,3.2E1,1.9E1,8.4E1,1E1,1E1,3.32E2,1E1,1.5E1,2.6E1,2.2E1,1.7E1,6.07E2,2.7E1,1.1E1,1E1,3.8E1,1.7E1,5.9E1,6.1E1,2.02E2,2.7E1,1E1,1.6E1,2.7E1,4.7E1,3.5E1,4.6E1,1.27E2,1.4E1,1.7E1,1.5E1,4.9E1,3.5E1],"tree_param":{"num_deleted":"0","num_feature":"90","num_nodes":"79","size_leaf_vector":"1"}},{"base_weights":[-1.0844544E-3,-4.8601516E-2,6.94274E-2,3.056007E-2,-6.959839E-2,1.4229329E-2,1.10361844E-1,1.0907083E-2,2.5175607E-1,5.059804E-3,-9.844341E-2,-3.872906E-2,5.546443E-2,4.692612E-2,1.4008455E-1,-2.3724076E-3,3.002902E-2,3.844721E-2,8.706226E-3,-1.7647102E-2,1.1584166E-1,-3.1382468E-2,-1.1577328E-1,-7.316581E-2,1.0730662E-1,-4.2639825E-2,9.514257E-2,-5.376017E-2,7.6008186E-2,1.5650828E-1,-1.3600853E-2,-4.0236622E-2,6.794361E-2,-3.2777645E-2,1.947425E-2,1.4772749E-2,2.0423414E-1,-9.284088E-2,5.1090416E-2,-1.4204724E-1,-7.684584E-2,-1.4337415E-1,-1.9370832E-2,1.9745369E-2,3.068338E-3,-2.482437E-2,2.3455308E-3,2.208998E-1,5.1465455E-2,-1.5573082E-2,7.0813145E-3,1.0105144E-1,-5.301716E-3,1.2404646E-1,2.0453462E-1,-1.4949106E-2,1.2538254E-2,1.4447368E-3,-1.084671E-2,-3.3081386E-3,1.801521E-2,4.0629236E-3,-6.324424E-3,-8.386703E-3,1.1238079E-2,1.1187866E-2,2.6166497E-2,4.222814E-3,-1.2295566E-2,2.2737222E-2,-1.0323776E-3,-1.5630974E-2,-1.5677344E-3,-2.4647638E-2,-6.358467E-3,-2.0321576E-2,-3.9829165E-3,-1.18557755E-2,3.6808427E-3,-4.1909767E-3,9.399725E-3,1.3636968E-2,3.4288716E-2,1.7372671E-3,2.3307422E-2,1.2343338E-2,-4.450622E-3,1.5527554E-2,-0E0,2.2951828E-2,-2.4865621E-3],"categories":[],"categories_nodes":[],"categories_segments":[],"categories_sizes":[],"default_left":[0,0,0,0,0,0,0,0,0,0,0,0,0,0,0,0,0,0,0,0,0,0,0,0,0,0,0,0,0,0,0,0,0,0,0,0,0,0,0,0,0,0,0,0,0,0,0,0,0,0,0,0,0,0,0,0,0,0,0,0,0,0,0,0,0,0,0,0,0,0,0,0,0,0,0,0,0,0,0,0,0,0,0,0,0,0,0,0,0,0,0],"id":18,"left_children":[1,3,5,7,9,11,13,15,17,19,21,23,25,27,29,31,-1,-1,-1,33,35,37,39,41,43,45,47,49,51,53,55,57,59,61,-1,63,65,67,69,71,73,75,77,-1,-1,-1,79,81,83,-1,-1,85,-1,87,89,-1,-1,-1,-1,-1,-1,-1,-1,-1,-1,-1,-1,-1,-1,-1,-1,-1,-1,-1,-1,-1,-1,-1,-1,-1,-1,-1,-1,-1,-1,-1,-1,-1,-1,-1,-1],"loss_changes":[7.0373755E0,2.093686E0,1.8952503E0,1.1142915E0,2.1504326E0,7.9433715E-1,8.872981E-1,9.6431917E-1,3.78381E-1,7.086609E-1,8.160806E-1,7.990183E-1,8.072889E-1,4.66033E-1,8.443203E-1,6.2031645E-1,0E0,0E0,0E0,7.2930765E-1,4.0390128E-1,