{"learner":{"attributes":{"scikit_learn":"{\"_estimator_type\": \"regressor\"}"},"feature_names":["description","host_location","host_about","host_response_time","host_response_rate","host_acceptance_rate","host_is_superhost","host_listings_count","host_total_listings_count","host_has_profile_pic","neighbourhood","accommodates","bathrooms","bedrooms","beds","off_peak_min","peak_min","peak_max","off_peak_max","availability_30","availability_60","availability_90","availability_365","number_of_reviews","number_of_reviews_ltm","number_of_reviews_l30d","availability_eoy","estimated_occupancy_l365d","review_scores_rating","review_scores_accuracy","review_scores_cleanliness","review_scores_checkin","review_scores_communication","review_scores_location","review_scores_value","license","instant_bookable","calculated_host_listings_count","calculated_host_listings_count_entire_homes","calculated_host_listings_count_private_rooms","calculated_host_listings_count_shared_rooms","host_verifications_email","host_verifications_phone","host_verifications_work_email","has_self_checkin","has_wifi","has_kitchen","has_dryer","has_air_conditioning","has_heating","has_dedicated_workspace","has_hair_dryer","has_iron","has_gym","has_bbq_grill","has_breakfast","has_fireplace","has_smoking_allowed","has_pets_allowed","has_wine_glasses","has_crib","has_city_skyline_view","has_river_view","has_luggage_dropoff_allowed","has_long_term_stays_allowed","has_private_entrance","has_exterior_security_cameras","has_elevator","has_lock_on_bedroom_door","has_tub","has_washer","has_pool","has_alarm","has_garden_courtyard_view","has_outdoor","has_free_parking","amenities_count","count_appliances_expensive","has_ott","host_experience_months","host_category","host_non_exposure","hosting_period","recent_last_review","room_type_Hotel room","room_type_Private room","room_type_Shared room","property_grouped_Hospitality","property_grouped_House","property_grouped_Other"],"feature_types":["int","float","int","float","float","float","int","float","float","int","int","float","float","float","float","float","float","float","float","float","float","float","float","float","float","float","float","float","float","float","float","float","float","float","float","int","int","float","float","float","float","float","float","float","float","float","float","float","float","float","float","float","float","float","float","float","float","float","float","float","float","float","float","float","float","float","float","float","float","float","float","float","float","float","float","float","float","float","float","float","int","int","float","float","i","i","i","i","i","i"],"gradient_booster":{"model":{"cats":{"enc":[],"feature_segments":[],"sorted_idx":[]},"gbtree_model_param":{"num_parallel_tree":"1","num_trees":"500"},"iteration_indptr":[0,1,2,3,4,5,6,7,8,9,10,11,12,13,14,15,16,17,18,19,20,21,22,23,24,25,26,27,28,29,30,31,32,33,34,35,36,37,38,39,40,41,42,43,44,45,46,47,48,49,50,51,52,53,54,55,56,57,58,59,60,61,62,63,64,65,66,67,68,69,70,71,72,73,74,75,76,77,78,79,80,81,82,83,84,85,86,87,88,89,90,91,92,93,94,95,96,97,98,99,100,101,102,103,104,105,106,107,108,109,110,111,112,113,114,115,116,117,118,119,120,121,122,123,124,125,126,127,128,129,130,131,132,133,134,135,136,137,138,139,140,141,142,143,144,145,146,147,148,149,150,151,152,153,154,155,156,157,158,159,160,161,162,163,164,165,166,167,168,169,170,171,172,173,174,175,176,177,178,179,180,181,182,183,184,185,186,187,188,189,190,191,192,193,194,195,196,197,198,199,200,201,202,203,204,205,206,207,208,209,210,211,212,213,214,215,216,217,218,219,220,221,222,223,224,225,226,227,228,229,230,231,232,233,234,235,236,237,238,239,240,241,242,243,244,245,246,247,248,249,250,251,252,253,254,255,256,257,258,259,260,261,262,263,264,265,266,267,268,269,270,271,272,273,274,275,276,277,278,279,280,281,282,283,284,285,286,287,288,289,290,291,292,293,294,295,296,297,298,299,300,301,302,303,304,305,306,307,308,309,310,311,312,313,314,315,316,317,318,319,320,321,322,323,324,325,326,327,328,329,330,331,332,333,334,335,336,337,338,339,340,341,342,343,344,345,346,347,348,349,350,351,352,353,354,355,356,357,358,359,360,361,362,363,364,365,366,367,368,369,370,371,372,373,374,375,376,377,378,379,380,381,382,383,384,385,386,387,388,389,390,391,392,393,394,395,396,397,398,399,400,401,402,403,404,405,406,407,408,409,410,411,412,413,414,415,416,417,418,419,420,421,422,423,424,425,426,427,428,429,430,431,432,433,434,435,436,437,438,439,440,441,442,443,444,445,446,447,448,449,450,451,452,453,454,455,456,457,458,459,460,461,462,463,464,465,466,467,468,469,470,471,472,473,474,475,476,477,478,479,480,481,482,483,484,485,486,487,488,489,490,491,492,493,494,495,496,497,498,499,500],"tree_info":[0,0,0,0,0,0,0,0,0,0,0,0,0,0,0,0,0,0,0,0,0,0,0,0,0,0,0,0,0,0,0,0,0,0,0,0,0,0,0,0,0,0,0,0,0,0,0,0,0,0,0,0,0,0,0,0,0,0,0,0,0,0,0,0,0,0,0,0,0,0,0,0,0,0,0,0,0,0,0,0,0,0,0,0,0,0,0,0,0,0,0,0,0,0,0,0,0,0,0,0,0,0,0,0,0,0,0,0,0,0,0,0,0,0,0,0,0,0,0,0,0,0,0,0,0,0,0,0,0,0,0,0,0,0,0,0,0,0,0,0,0,0,0,0,0,0,0,0,0,0,0,0,0,0,0,0,0,0,0,0,0,0,0,0,0,0,0,0,0,0,0,0,0,0,0,0,0,0,0,0,0,0,0,0,0,0,0,0,0,0,0,0,0,0,0,0,0,0,0,0,0,0,0,0,0,0,0,0,0,0,0,0,0,0,0,0,0,0,0,0,0,0,0,0,0,0,0,0,0,0,0,0,0,0,0,0,0,0,0,0,0,0,0,0,0,0,0,0,0,0,0,0,0,0,0,0,0,0,0,0,0,0,0,0,0,0,0,0,0,0,0,0,0,0,0,0,0,0,0,0,0,0,0,0,0,0,0,0,0,0,0,0,0,0,0,0,0,0,0,0,0,0,0,0,0,0,0,0,0,0,0,0,0,0,0,0,0,0,0,0,0,0,0,0,0,0,0,0,0,0,0,0,0,0,0,0,0,0,0,0,0,0,0,0,0,0,0,0,0,0,0,0,0,0,0,0,0,0,0,0,0,0,0,0,0,0,0,0,0,0,0,0,0,0,0,0,0,0,0,0,0,0,0,0,0,0,0,0,0,0,0,0,0,0,0,0,0,0,0,0,0,0,0,0,0,0,0,0,0,0,0,0,0,0,0,0,0,0,0,0,0,0,0,0,0,0,0,0,0,0,0,0,0,0,0,0,0,0,0,0,0,0,0,0,0,0,0,0,0,0,0,0,0,0,0,0,0,0,0,0,0,0,0,0,0,0,0,0,0,0,0,0,0,0,0,0,0,0,0,0,0,0,0,0,0,0,0,0,0,0,0,0,0,0,0,0,0,0,0,0],"trees":[{"base_weights":[-5.701195E-3,-1.8056925E-1,3.9516985E-1,-6.644085E-1,-6.2231854E-2,2.5447947E-1,7.570972E-1,-5.8120453E-1,-1.0310436E0,-1.3863471E-1,3.3253378E-1,4.3333587E-1,1.2405838E-1,6.392319E-1,9.298885E-1,-5.2221924E-1,-4.9899682E-2,-5.7353802E-2,-3.1680152E-1,-5.2197304E-2,-3.422377E-1,2.1723424E-1,6.088453E-1,3.3251014E-1,6.851275E-1,2.1161383E-1,-2.0671919E-2,8.703879E-1,5.4005486E-1,1.6142981E-2,9.4884163E-1,-6.806475E-1,-1.609201E-1,-0E0,-2.2150656E-2,6.6188775E-2,-2.1388155E-1,-8.213308E-2,-5.455453E-1,-1.4910704E-1,2.4510628E-1,6.974126E-1,1.9970524E-1,2.2827166E-1,6.01374E-1,6.110188E-1,5.0087284E-2,2.275174E-1,-1.7762884E-2,-1.7994832E-1,3.7992995E-2,1.0548988E-1,9.520659E-1,9.3465224E-2,5.7777274E-1,9.6353906E-1,8.719178E-3,-1.2199244E-2,-3.6835104E-2,-3.8622294E-3,-2.0492213E-2,1.693759E-2,1.0188947E-3,-1.4700589E-2,8.967976E-3,-1.2440248E-2,1.0510749E-2,-3.8766462E-2,-1.9589346E-2,-0E0,-2.6034368E-2,1.9118657E-2,8.113979E-3,3.611566E-2,9.955153E-3,-0E0,1.9276567E-2,9.626292E-3,3.699199E-2,1.7315533E-2,3.6466736E-2,1.9686244E-2,3.3818763E-2,9.539197E-3,2.2768753E-2,-1.1596101E-2,1.3229705E-2,-2.1188066E-3,7.4080043E-3,-1.6816994E-2,3.1047357E-2,5.091964E-2,1.14635E-2,-0E0,6.9974433E-3,2.948301E-2,-0E0,4.922935E-2,1.6818628E-2],"categories":[],"categories_nodes":[],"categories_segments":[],"categories_sizes":[],"default_left":[0,0,0,0,0,0,0,0,0,0,0,0,0,0,0,0,0,0,0,0,0,0,0,0,0,0,0,0,0,0,0,0,0,0,0,0,0,0,0,0,0,0,0,0,0,0,0,0,0,0,0,0,0,0,0,0,0,0,0,0,0,0,0,0,0,0,0,0,0,0,0,0,0,0,0,0,0,0,0,0,0,0,0,0,0,0,0,0,0,0,0,0,0,0,0,0,0,0,0],"id":0,"left_children":[1,3,5,7,9,11,13,15,17,19,21,23,25,27,29,31,-1,-1,33,35,37,39,41,43,45,47,49,51,53,-1,55,57,59,-1,-1,61,63,65,67,69,71,73,75,77,79,81,-1,83,-1,85,87,89,91,93,95,97,-1,-1,-1,-1,-1,-1,-1,-1,-1,-1,-1,-1,-1,-1,-1,-1,-1,-1,-1,-1,-1,-1,-1,-1,-1,-1,-1,-1,-1,-1,-1,-1,-1,-1,-1,-1,-1,-1,-1,-1,-1,-1,-1],"loss_changes":[2.6664413E2,1.5139713E2,5.821495E1,1.4618729E1,6.42421E1,1.9177708E1,5.3358307E0,9.368286E0,6.841324E0,3.1273617E1,1.0528515E1,8.25061E0,6.2266364E0,3.459137E0,6.4611816E-1,2.1133316E1,0E0,0E0,6.534189E-1,2.4133677E1,2.7784065E1,2.5867739E0,3.1255226E0,6.6214275E0,1.0422935E0,2.7703733E0,1.7642152E0,2.9751587E0,2.0525627E0,0E0,7.654724E-1,5.8164673E0,2.2104826E0,0E0,0E0,8.90205E0,1.6893688E1,1.1518395E1,9.722755E0,9.776169E-1,2.335041E0,4.9268723E-1,6.887004E-1,2.8676052E0,1.5691948E0,4.8438263E-1,0E0,2.1405478E0,0E0,1.2266265E0,1.2173245E0,1.9169025E0,1.6644936E0,8.2292095E-2,7.4713516E-1,7.1128845E-1,0E0,0E0,0E0,0E0,0E0,0E0,0E0,0E0,0E0,0E0,0E0,0E0,0E0,0E0,0E0,0E0,0E0,0E0,0E0,0E0,0E0,0E0,0E0,0E0,0E0,0E0,0E0,0E0,0E0,0E0,0E0,0E0,0E0,0E0,0E0,0E0,0E0,0E0,0E0,0E0,0E0,0E0,0E0],"parents":[2147483647,0,0,1,1,2,2,3,3,4,4,5,5,6,6,7,7,8,8,9,9,10,10,11,11,12,12,13,13,14,14,15,15,18,18,19,19,20,20,21,21,22,22,23,23,24,24,25,25,26,26,27,27,28,28,30,30,31,31,32,32,35,35,36,36,37,37,38,38,39,39,40,40,41,41,42,42,43,43,44,44,45,45,47,47,49,49,50,50,51,51,52,52,53,53,54,54,55,55],"right_children":[2,4,6,8,10,12,14,16,18,20,22,24,26,28,30,32,-1,-1,34,36,38,40,42,44,46,48,50,52,54,-1,56,58,60,-1,-1,62,64,66,68,70,72,74,76,78,80,82,-1,84,-1,86,88,90,92,94,96,98,-1,-1,-1,-1,-1,-1,-1,-1,-1,-1,-1,-1,-1,-1,-1,-1,-1,-1,-1,-1,-1,-1,-1,-1,-1,-1,-1,-1,-1,-1,-1,-1,-1,-1,-1,-1,-1,-1,-1,-1,-1,-1,-1],"split_conditions":[4E0,2E0,1.5E0,7E0,1E0,1.5E1,1E0,9.1E1,1E0,1E0,1E0,2E0,1.5E0,8E0,2.4E1,1E0,-4.9899682E-2,-5.7353802E-2,1E1,1.2E1,8E0,8.1E1,9.8E1,1E0,7E0,1.2E1,4.66E0,2E0,6E0,1.6142981E-2,1E0,4E0,1E0,-0E0,-2.2150656E-2,7E0,3.98E2,1E0,4.73E0,1.26E2,6E1,1E0,1E1,5E-1,1E0,4.68E0,5.0087284E-2,1E0,-1.7762884E-2,3.55E2,1E0,1E0,1E1,7.1E-1,4.6E1,1E0,8.719178E-3,-1.2199244E-2,-3.6835104E-2,-3.8622294E-3,-2.0492213E-2,1.693759E-2,1.0188947E-3,-1.4700589E-2,8.967976E-3,-1.2440248E-2,1.0510749E-2,-3.8766462E-2,-1.9589346E-2,-0E0,-2.6034368E-2,1.9118657E-2,8.113979E-3,3.611566E-2,9.955153E-3,-0E0,1.9276567E-2,9.626292E-3,3.699199E-2,1.7315533E-2,3.6466736E-2,1.9686244E-2,3.3818763E-2,9.539197E-3,2.2768753E-2,-1.1596101E-2,1.3229705E-2,-2.1188066E-3,7.4080043E-3,-1.6816994E-2,3.1047357E-2,5.091964E-2,1.14635E-2,-0E0,6.9974433E-3,2.948301E-2,-0E0,4.922935E-2,1.6818628E-2],"split_indices":[11,11,12,39,53,15,60,8,35,85,60,13,24,16,76,38,0,0,37,38,15,26,27,53,77,39,28,13,79,0,85,15,85,0,0,16,8,87,33,79,27,66,24,74,81,33,0,60,0,8,59,10,11,5,15,62,0,0,0,0,0,0,0,0,0,0,0,0,0,0,0,0,0,0,0,0,0,0,0,0,0,0,0,0,0,0,0,0,0,0,0,0,0,0,0,0,0,0,0],"split_type":[0,0,0,0,0,0,0,0,0,0,0,0,0,0,0,0,0,0,0,0,0,0,0,0,0,0,0,0,0,0,0,0,0,0,0,0,0,0,0,0,0,0,0,0,0,0,0,0,0,0,0,0,0,0,0,0,0,0,0,0,0,0,0,0,0,0,0,0,0,0,0,0,0,0,0,0,0,0,0,0,0,0,0,0,0,0,0,0,0,0,0,0,0,0,0,0,0,0,0],"sum_hessian":[3.803E3,2.649E3,1.154E3,5.19E2,2.13E3,8.33E2,3.21E2,4.26E2,9.3E1,1.786E3,3.44E2,3.49E2,4.84E2,1.95E2,1.26E2,3.76E2,5E1,7.9E1,1.4E1,1.256E3,5.3E2,2.45E2,9.9E1,2.52E2,9.7E1,3.03E2,1.81E2,5.5E1,1.4E2,5E0,1.21E2,2.6E2,1.16E2,4E0,1E1,7.24E2,5.32E2,2.34E2,2.96E2,1.6E1,2.29E2,8E1,1.9E1,1.84E2,6.8E1,8.2E1,1.5E1,2.96E2,7E0,5E1,1.31E2,6E0,4.9E1,1.2E1,1.28E2,1.18E2,3E0,3.1E1,2.29E2,8.9E1,2.7E1,1.02E2,6.22E2,4.43E2,8.9E1,1.5E2,8.4E1,1.16E2,1.8E2,1.2E1,4E0,8.3E1,1.46E2,7.5E1,5E0,1E1,9E0,1.74E2,1E1,2.5E1,4.3E1,2.2E1,6E1,2.58E2,3.8E1,4.6E1,4E0,7.4E1,5.7E1,3E0,3E0,4.4E1,5E0,3E0,9E0,1.25E2,3E0,1.13E2,5E0],"tree_param":{"num_deleted":"0","num_feature":"90","num_nodes":"99","size_leaf_vector":"1"}},{"base_weights":[3.0925134E-3,-1.1156461E-1,3.9987904E-1,-1.9390401E-1,3.07718E-1,2.2373785E-1,6.752441E-1,-5.206951E-2,-4.405843E-1,-0E0,4.2586678E-1,6.6300374E-1,1.0523184E-1,2.9831582E-1,7.3982805E-1,6.737983E-2,-2.3362346E-1,-6.989254E-2,-6.4900637E-1,3.9750148E-2,-6.99579E-2,-4.4622347E-2,4.9876156E-1,5.897996E-1,4.807591E-2,6.5649495E-2,5.46918E-1,4.700313E-1,-1.1847007E-1,3.859757E-2,7.640853E-1,2.983022E-1,5.1533766E-3,-4.6473438E-1,-1.0620261E-1,-2.2623831E-1,2.1796004E-1,-8.018004E-1,-4.5985588E-1,3.367797E-2,-4.4447064E-1,1.5947236E-1,-2.3098624E-1,4.1219777E-1,6.5896124E-1,4.88077E-1,7.6131576E-1,-1.6053312E-2,2.1589391E-1,2.0879297E-2,3.6562804E-2,7.885307E-3,5.8345485E-1,-3.254241E-2,9.792636E-2,2.4819722E-2,-2.3677129E-1,7.777705E-1,7.9703204E-2,2.0891396E-2,9.3944585E-3,-2.8197353E-3,1.02059E-2,-1.3408038E-2,-3.7328284E-2,-9.275643E-3,1.0867935E-2,-1.8859072E-2,-4.35592E-3,3.3537026E-3,2.3760933E-2,-3.583753E-2,-5.295347E-2,-2.961183E-2,-1.2749347E-2,8.390932E-3,-7.3573664E-3,-2.6592791E-2,-0E0,-4.2461944E-3,1.1179178E-2,-1.7430646E-2,2.0155694E-2,1.2920282E-2,2.4646565E-2,3.3951305E-2,2.4942646E-3,-0E0,2.5963506E-2,1.7932704E-2,4.724235E-2,7.465318E-3,-5.259307E-3,1.7863953E-2,3.7895446E-3,7.41113E-3,-1.0160216E-3,3.9067335E-2,1.2451141E-2,-1.3107306E-3,2.1086337E-2,-0E0,-1.9211357E-2,3.1501994E-2,4.209049E-2,-0E0,9.987922E-3],"categories":[],"categories_nodes":[],"categories_segments":[],"categories_sizes":[],"default_left":[0,0,0,0,0,0,0,0,0,0,0,0,0,0,0,0,0,0,0,0,0,0,0,0,0,0,0,0,0,0,0,0,0,0,0,0,0,0,0,0,0,0,0,0,0,0,0,0,0,0,0,0,0,0,0,0,0,0,0,0,0,0,0,0,0,0,0,0,0,0,0,0,0,0,0,0,0,0,0,0,0,0,0,0,0,0,0,0,0,0,0,0,0,0,0,0,0,0,0,0,0,0,0,0,0,0,0],"id":1,"left_children":[1,3,5,7,9,11,13,15,17,19,21,23,25,27,29,31,33,35,37,-1,39,41,43,45,-1,47,49,51,53,55,57,59,61,63,65,67,69,71,73,75,77,79,81,83,85,87,89,91,93,-1,-1,95,97,-1,99,-1,101,103,105,-1,-1,-1,-1,-1,-1,-1,-1,-1,-1,-1,-1,-1,-1,-1,-1,-1,-1,-1,-1,-1,-1,-1,-1,-1,-1,-1,-1,-1,-1,-1,-1,-1,-1,-1,-1,-1,-1,-1,-1,-1,-1,-1,-1,-1,-1,-1,-1],"loss_changes":[1.728567E2,1.016858E2,4.081398E1,8.595488E1,1.756007E1,2.6795986E1,7.421753E0,3.40433E1,6.904686E1,7.5640903E0,1.2173283E1,1.2161407E0,6.9395366E0,3.8463068E0,4.4292145E0,1.3441872E1,1.8068588E1,1.4679096E1,1.5715836E1,0E0,5.0309052E0,1.8531281E0,3.5017624E0,7.3379517E-1,0E0,4.760326E0,2.1848679E-2,1.6983376E0,2.0129747E0,1.6080744E0,2.1331787E0,2.3054504E0,9.206036E0,1.1582043E1,1.0394922E1,4.2332487E0,4.176315E0,5.422989E0,6.5614777E0,2.4100533E0,1.2573786E0,4.1915923E-1,2.0579953E0,2.0677414E0,9.333267E-1,8.696146E-1,1.4306564E0,3.6238446E0,2.4936476E0,0E0,0E0,8.979765E-2,1.31254E0,0E0,6.1142606E-1,0E0,1.9809741E-1,1.3879395E0,1.1514552E-1,0E0,0E0,0E0,0E0,0E0,0E0,0E0,0E0,0E0,0E0,0E0,0E0,0E0,0E0,0E0,0E0,0E0,0E0,0E0,0E0,0E0,0E0,0E0,0E0,0E0,0E0,0E0,0E0,0E0,0E0,0E0,0E0,0E0,0E0,0E0,0E0,0E0,0E0,0E0,0E0,0E0,0E0,0E0,0E0,0E0,0E0,0E0,0E0],"parents":[2147483647,0,0,1,1,2,2,3,3,4,4,5,5,6,6,7,7,8,8,9,9,10,10,11,11,12,12,13,13,14,14,15,15,16,16,17,17,18,18,20,20,21,21,22,22,23,23,25,25,26,26,27,27,28,28,29,29,30,30,31,31,32,32,33,33,34,34,35,35,36,36,37,37,38,38,39,39,40,40,41,41,42,42,43,43,44,44,45,45,46,46,47,47,48,48,51,51,52,52,54,54,56,56,57,57,58,58],"right_children":[2,4,6,8,10,12,14,16,18,20,22,24,26,28,30,32,34,36,38,-1,40,42,44,46,-1,48,50,52,54,56,58,60,62,64,66,68,70,72,74,76,78,80,82,84,86,88,90,92,94,-1,-1,96,98,-1,100,-1,102,104,106,-1,-1,-1,-1,-1,-1,-1,-1,-1,-1,-1,-1,-1,-1,-1,-1,-1,-1,-1,-1,-1,-1,-1,-1,-1,-1,-1,-1,-1,-1,-1,-1,-1,-1,-1,-1,-1,-1,-1,-1,-1,-1,-1,-1,-1,-1,-1,-1],"split_conditions":[2E0,1E0,1.5E0,1E0,8.7E-1,1.5E1,1E0,1.5E1,8E0,5E0,3E0,7E0,2.56E2,2E0,2.3E-1,9E0,1E0,1E0,8.2E1,3.9750148E-2,1E0,2.5E1,4.96E0,1E0,4.807591E-2,1E0,1E0,2E0,1E0,4.76E0,3.5E1,4E0,8.7E1,1E0,3.98E2,4.83E0,4E0,2E0,4.87E0,4.6E2,7E0,1E0,1E0,2E0,1E0,1E0,7E0,5E0,9E0,2.0879297E-2,3.6562804E-2,4.8E0,1E0,-3.254241E-2,2E0,2.4819722E-2,8E0,1E0,3E0,2.0891396E-2,9.3944585E-3,-2.8197353E-3,1.02059E-2,-1.3408038E-2,-3.7328284E-2,-9.275643E-3,1.0867935E-2,-1.8859072E-2,-4.35592E-3,3.3537026E-3,2.3760933E-2,-3.583753E-2,-5.295347E-2,-2.961183E-2,-1.2749347E-2,8.390932E-3,-7.3573664E-3,-2.6592791E-2,-0E0,-4.2461944E-3,1.1179178E-2,-1.7430646E-2,2.0155694E-2,1.2920282E-2,2.4646565E-2,3.3951305E-2,2.4942646E-3,-0E0,2.5963506E-2,1.7932704E-2,4.724235E-2,7.465318E-3,-5.259307E-3,1.7863953E-2,3.7895446E-3,7.41113E-3,-1.0160216E-3,3.9067335E-2,1.2451141E-2,-1.3107306E-3,2.1086337E-2,-0E0,-1.9211357E-2,3.1501994E-2,4.209049E-2,-0E0,9.987922E-3],"split_indices":[13,53,12,85,5,15,51,38,15,15,8,77,7,39,5,15,51,87,21,0,85,82,30,67,0,47,65,20,48,28,15,37,21,75,8,31,83,1,28,17,7,48,62,83,66,38,19,8,23,0,0,28,52,0,3,0,23,70,1,0,0,0,0,0,0,0,0,0,0,0,0,0,0,0,0,0,0,0,0,0,0,0,0,0,0,0,0,0,0,0,0,0,0,0,0,0,0,0,0,0,0,0,0,0,0,0,0],"split_type":[0,0,0,0,0,0,0,0,0,0,0,0,0,0,0,0,0,0,0,0,0,0,0,0,0,0,0,0,0,0,0,0,0,0,0,0,0,0,0,0,0,0,0,0,0,0,0,0,0,0,0,0,0,0,0,0,0,0,0,0,0,0,0,0,0,0,0,0,0,0,0,0,0,0,0,0,0,0,0,0,0,0,0,0,0,0,0,0,0,0,0,0,0,0,0,0,0,0,0,0,0,0,0,0,0,0,0],"sum_hessian":[3.795E3,2.944E3,8.51E2,2.462E3,4.82E2,5.21E2,3.3E2,1.565E3,8.97E2,1.34E2,3.48E2,1.09E2,4.12E2,5E1,2.8E2,9.43E2,6.22E2,3.24E2,5.73E2,1E1,1.24E2,4.6E1,3.02E2,9.1E1,1.8E1,3.8E2,3.2E1,3.6E1,1.4E1,1E1,2.7E2,1.98E2,7.45E2,2.19E2,4.03E2,2.11E2,1.13E2,3.14E2,2.59E2,9.7E1,2.7E1,2.1E1,2.5E1,2E2,1.02E2,6.1E1,3E1,2.45E2,1.35E2,2.2E1,1E1,8E0,2.8E1,4E0,1E1,4E0,6E0,2.64E2,6E0,9.2E1,1.06E2,5.68E2,1.77E2,1.31E2,8.8E1,3.25E2,7.8E1,9.9E1,1.12E2,7.3E1,4E1,2.4E2,7.4E1,1.55E2,1.04E2,5.7E1,4E1,2.3E1,4E0,3E0,1.8E1,2.2E1,3E0,7.2E1,1.28E2,9.8E1,4E0,4E0,5.7E1,1.1E1,1.9E1,8.4E1,1.61E2,6.5E1,7E1,3E0,5E0,1.6E1,1.2E1,7E0,3E0,3E0,3E0,8.5E1,1.79E2,3E0,3E0],"tree_param":{"num_deleted":"0","num_feature":"90","num_nodes":"107","size_leaf_vector":"1"}},{"base_weights":[2.3378236E-3,-6.25909E-1,9.58374E-2,-5.653413E-1,-9.80716E-1,-5.1900875E-2,3.6311555E-1,-4.3534017E-1,-6.982015E-1,-1.8864453E-2,-5.177128E-2,-1.2429883E-1,3.071109E-1,2.3572628E-1,6.8596536E-1,-8.072866E-2,-5.534957E-1,-7.325093E-1,1.434513E-2,-8.869824E-2,-5.6776166E-1,2.1633933E-1,6.327216E-1,3.972866E-1,1.2699214E-1,6.070005E-1,8.994858E-1,2.235306E-1,-1.5873128E-1,-1.133307E-1,-6.180753E-1,-2.1141706E-1,-7.656426E-1,-8.779493E-3,1.1845006E-2,-1.153888E-1,3.0361155E-1,-9.0744823E-1,-4.2170003E-1,3.7398595E-1,8.9325786E-2,1.5164573E-1,3.328031E-2,3.0205274E-1,6.340103E-1,4.0965106E-2,2.677886E-1,5.1837057E-1,7.507936E-1,-0E0,9.4565624E-1,-0E0,1.7071534E-2,6.373919E-3,-1.0268143E-2,5.3238585E-3,-1.3216334E-2,-1.6312238E-2,-3.4013845E-2,6.3268724E-3,-1.9962631E-2,-3.942312E-2,-1.4727893E-2,3.5454158E-3,-7.89634E-3,8.495181E-3,2.5763681E-2,-5.3461164E-2,-0E0,-2.6962603E-2,-1.7403277E-3,1.50331305E-2,3.619502E-2,7.048043E-3,-7.7715376E-3,1.59915E-2,-0E0,9.909205E-3,2.7310157E-2,7.1815215E-3,3.2471105E-2,5.7126074E-3,-3.920731E-3,5.046383E-3,1.7829945E-2,3.4408715E-2,2.1283967E-2,4.736502E-2,3.2797277E-2,2.285277E-2,4.8969097E-2],"categories":[],"categories_nodes":[],"categories_segments":[],"categories_sizes":[],"default_left":[0,0,0,0,0,0,0,0,0,0,0,0,0,0,0,0,0,0,0,0,0,0,0,0,0,0,0,0,0,0,0,0,0,0,0,0,0,0,0,0,0,0,0,0,0,0,0,0,0,0,0,0,0,0,0,0,0,0,0,0,0,0,0,0,0,0,0,0,0,0,0,0,0,0,0,0,0,0,0,0,0,0,0,0,0,0,0,0,0,0,0],"id":2,"left_children":[1,3,5,7,9,11,13,15,17,-1,-1,19,21,23,25,27,29,31,33,35,37,39,41,43,45,47,49,51,53,55,57,59,61,-1,-1,63,65,67,69,71,73,75,-1,77,79,81,83,85,87,-1,89,-1,-1,-1,-1,-1,-1,-1,-1,-1,-1,-1,-1,-1,-1,-1,-1,-1,-1,-1,-1,-1,-1,-1,-1,-1,-1,-1,-1,-1,-1,-1,-1,-1,-1,-1,-1,-1,-1,-1,-1],"loss_changes":[2.2494273E2,9.486099E0,1.3191214E2,6.617752E0,1.3551788E0,5.582126E1,4.8370346E1,8.919479E0,5.38253E0,0E0,0E0,2.7946754E1,1.0163723E1,1.47597275E1,4.4997253E0,1.3623437E0,4.299202E0,2.8831406E0,4.8883116E-1,1.7331085E1,5.6348724E0,5.4678717E0,7.903023E-1,7.1441574E0,6.0912514E0,2.276497E0,3.8345566E0,3.8297403E-1,6.846144E-1,8.546572E-1,1.9530869E0,1.0483246E0,1.334053E0,0E0,0E0,1.2368925E1,2.6099768E0,5.292061E0,4.072218E0,2.5796394E0,2.0382051E0,2.481898E-1,0E0,5.857807E0,3.1503677E-1,2.8404675E0,2.6410599E0,1.7640648E0,4.3341064E-1,0E0,3.4549713E-1,0E0,0E0,0E0,0E0,0E0,0E0,0E0,0E0,0E0,0E0,0E0,0E0,0E0,0E0,0E0,0E0,0E0,0E0,0E0,0E0,0E0,0E0,0E0,0E0,0E0,0E0,0E0,0E0,0E0,0E0,0E0,0E0,0E0,0E0,0E0,0E0,0E0,0E0,0E0,0E0],"parents":[2147483647,0,0,1,1,2,2,3,3,4,4,5,5,6,6,7,7,8,8,11,11,12,12,13,13,14,14,15,15,16,16,17,17,18,18,19,19,20,20,21,21,22,22,23,23,24,24,25,25,26,26,27,27,28,28,29,29,30,30,31,31,32,32,35,35,36,36,37,37,38,38,39,39,40,40,41,41,43,43,44,44,45,45,46,46,47,47,48,48,50,50],"right_children":[2,4,6,8,10,12,14,16,18,-1,-1,20,22,24,26,28,30,32,34,36,38,40,42,44,46,48,50,52,54,56,58,60,62,-1,-1,64,66,68,70,72,74,76,-1,78,80,82,84,86,88,-1,90,-1,-1,-1,-1,-1,-1,-1,-1,-1,-1,-1,-1,-1,-1,-1,-1,-1,-1,-1,-1,-1,-1,-1,-1,-1,-1,-1,-1,-1,-1,-1,-1,-1,-1,-1,-1,-1,-1,-1,-1],"split_conditions":[2E0,1.1E1,4E0,1E0,5E-1,1E0,1.5E0,1E0,1E0,-1.8864453E-2,-5.177128E-2,1.5E1,2.68E2,1.5E1,8E0,1E0,8E0,5E0,2E0,1E0,1.1E1,3E1,2E0,2E0,1E0,1E0,3E0,1E0,5.3E1,3E0,1E0,1E0,2E0,-8.779493E-3,1.1845006E-2,3E1,1E0,1E0,7.6E1,2E0,1E0,4E0,3.328031E-2,1E0,2E0,1.5E0,8.2E-1,4E0,1.4E1,-0E0,3E0,-0E0,1.7071534E-2,6.373919E-3,-1.0268143E-2,5.3238585E-3,-1.3216334E-2,-1.6312238E-2,-3.4013845E-2,6.3268724E-3,-1.9962631E-2,-3.942312E-2,-1.4727893E-2,3.5454158E-3,-7.89634E-3,8.495181E-3,2.5763681E-2,-5.3461164E-2,-0E0,-2.6962603E-2,-1.7403277E-3,1.50331305E-2,3.619502E-2,7.048043E-3,-7.7715376E-3,1.59915E-2,-0E0,9.909205E-3,2.7310157E-2,7.1815215E-3,3.2471105E-2,5.7126074E-3,-3.920731E-3,5.046383E-3,1.7829945E-2,3.4408715E-2,2.1283967E-2,4.736502E-2,3.2797277E-2,2.285277E-2,4.8969097E-2],"split_indices":[11,39,11,75,12,53,12,85,56,0,0,39,7,15,11,3,15,16,20,60,76,16,77,13,70,60,79,48,22,24,3,48,14,0,0,16,70,87,7,15,85,23,0,53,82,24,5,8,27,0,82,0,0,0,0,0,0,0,0,0,0,0,0,0,0,0,0,0,0,0,0,0,0,0,0,0,0,0,0,0,0,0,0,0,0,0,0,0,0,0,0],"split_type":[0,0,0,0,0,0,0,0,0,0,0,0,0,0,0,0,0,0,0,0,0,0,0,0,0,0,0,0,0,0,0,0,0,0,0,0,0,0,0,0,0,0,0,0,0,0,0,0,0,0,0,0,0,0,0,0,0,0,0,0,0,0,0,0,0,0,0,0,0,0,0,0,0,0,0,0,0,0,0,0,0,0,0,0,0,0,0,0,0,0,0],"sum_hessian":[3.831E3,4.95E2,3.336E3,4.26E2,6.9E1,2.148E3,1.188E3,2.19E2,2.07E2,7E0,6.2E1,1.789E3,3.59E2,8.54E2,3.34E2,5.6E1,1.63E2,1.98E2,9E0,1.658E3,1.31E2,2.83E2,7.6E1,3.41E2,5.13E2,2.48E2,8.6E1,1E1,4.6E1,2.2E1,1.41E2,1.3E1,1.85E2,4E0,5E0,1.554E3,1.04E2,3.7E1,9.4E1,1.24E2,1.59E2,6E0,7E1,2.46E2,9.5E1,3.21E2,1.92E2,1.58E2,9E1,4E0,8.2E1,3E0,7E0,5E0,4.1E1,8E0,1.4E1,2.7E1,1.14E2,4E0,9E0,1.75E2,1E1,2.87E2,1.267E3,6.6E1,3.8E1,3.1E1,6E0,7.1E1,2.3E1,1.05E2,1.9E1,1.33E2,2.6E1,3E0,3E0,1.75E2,7.1E1,4E0,9.1E1,2.01E2,1.2E2,6.9E1,1.23E2,5.2E1,1.06E2,2.5E1,6.5E1,7E0,7.5E1],"tree_param":{"num_deleted":"0","num_feature":"90","num_nodes":"91","size_leaf_vector":"1"}},{"base_weights":[-7.1900897E-4,-5.9876126E-1,9.009397E-2,-5.309811E-1,-9.0321785E-1,-4.6968266E-2,3.4682202E-1,-4.805695E-1,-4.243021E-2,-4.9398705E-2,-1.9345237E-2,-1.1343824E-1,2.9015127E-1,2.5401548E-1,5.498084E-1,-6.202661E-1,-1.3869654E-1,-3.6184225E-2,-2.9734507E-1,1.8514906E-1,5.277939E-1,1.8840542E-1,4.926794E-1,4.556651E-1,7.4289215E-1,-7.6416594E-1,-5.2027845E-1,-3.833554E-1,-3.002406E-2,1.03641056E-1,-1.5598305E-1,-4.9259886E-1,-6.962334E-2,1.3414127E-1,3.747062E-1,6.2767684E-1,1.9008292E-1,1.07110225E-1,3.2175773E-1,5.38992E-1,2.1090162E-1,2.2507374E-1,5.212077E-1,-0E0,7.7134174E-1,-1.8299067E-2,-4.0686063E-2,-2.0240476E-2,-3.2440346E-2,-2.5806043E-2,-9.666619E-3,8.6028185E-3,-4.840723E-3,-3.3418343E-3,9.175408E-3,-1.3821766E-2,-1.4290729E-3,-1.856843E-2,-4.3309692E-2,-8.327329E-3,1.3488448E-2,1.3618574E-2,2.5026982E-3,-0E0,2.2508625E-2,2.4454033E-3,3.2580104E-2,1.5082637E-2,-0E0,4.3905943E-4,1.1323105E-2,5.0366526E-3,2.28045E-2,1.4461038E-2,2.9907823E-2,1.6850036E-2,-0E0,1.2723279E-2,-6.7666187E-3,3.6545407E-2,2.1404343E-2,3.2336984E-2,4.578354E-2],"categories":[],"categories_nodes":[],"categories_segments":[],"categories_sizes":[],"default_left":[0,0,0,0,0,0,0,0,0,0,0,0,0,0,0,0,0,0,0,0,0,0,0,0,0,0,0,0,0,0,0,0,0,0,0,0,0,0,0,0,0,0,0,0,0,0,0,0,0,0,0,0,0,0,0,0,0,0,0,0,0,0,0,0,0,0,0,0,0,0,0,0,0,0,0,0,0,0,0,0,0,0,0],"id":3,"left_children":[1,3,5,7,9,11,13,15,-1,-1,-1,17,19,21,23,25,27,29,31,33,35,37,39,41,43,45,47,49,51,53,55,57,59,61,63,65,67,69,71,73,75,77,79,-1,81,-1,-1,-1,-1,-1,-1,-1,-1,-1,-1,-1,-1,-1,-1,-1,-1,-1,-1,-1,-1,-1,-1,-1,-1,-1,-1,-1,-1,-1,-1,-1,-1,-1,-1,-1,-1,-1,-1],"loss_changes":[2.0924228E2,9.429871E0,1.176984E2,5.7695084E0,3.0062637E0,4.8767567E1,2.1466782E1,1.7042229E1,0E0,0E0,0E0,2.572776E1,8.550278E0,1.2193058E1,5.78051E0,2.8008041E0,2.6946084E0,2.1562016E1,2.3617733E1,2.173088E0,3.1965961E0,6.645439E0,1.8178978E0,3.3323364E0,2.6173325E0,1.2429962E0,1.6459541E0,4.2374754E-1,1.0258322E0,8.119349E0,1.0520088E1,1.2227104E1,8.227389E0,2.193701E0,1.5535345E0,8.233948E-1,6.6234773E-1,4.551273E0,6.768036E0,1.6147995E0,7.2973466E-1,6.964843E-1,2.9532623E0,0E0,7.970047E-1,0E0,0E0,0E0,0E0,0E0,0E0,0E0,0E0,0E0,0E0,0E0,0E0,0E0,0E0,0E0,0E0,0E0,0E0,0E0,0E0,0E0,0E0,0E0,0E0,0E0,0E0,0E0,0E0,0E0,0E0,0E0,0E0,0E0,0E0,0E0,0E0,0E0,0E0],"parents":[2147483647,0,0,1,1,2,2,3,3,4,4,5,5,6,6,7,7,11,11,12,12,13,13,14,14,15,15,16,16,17,17,18,18,19,19,20,20,21,21,22,22,23,23,24,24,25,25,26,26,27,27,28,28,29,29,30,30,31,31,32,32,33,33,34,34,35,35,36,36,37,37,38,38,39,39,40,40,41,41,42,42,44,44],"right_children":[2,4,6,8,10,12,14,16,-1,-1,-1,18,20,22,24,26,28,30,32,34,36,38,40,42,44,46,48,50,52,54,56,58,60,62,64,66,68,70,72,74,76,78,80,-1,82,-1,-1,-1,-1,-1,-1,-1,-1,-1,-1,-1,-1,-1,-1,-1,-1,-1,-1,-1,-1,-1,-1,-1,-1,-1,-1,-1,-1,-1,-1,-1,-1,-1,-1,-1,-1,-1,-1],"split_conditions":[2E0,7E0,4E0,8.6E1,1E0,1E0,6E0,1E0,-4.243021E-2,-4.9398705E-2,-1.9345237E-2,1E0,1E0,1E0,8E0,3E0,9.3E-1,4E0,1E0,3E0,8E0,1E0,7E0,2E0,3E0,4.5E1,2.46E2,4.7E1,1E0,4.83E0,1E0,1.2E1,4.93E0,6E1,1E0,3.69E2,1E0,4.72E0,2E0,2E0,2E0,1.34E2,3E0,-0E0,5.8E1,-1.8299067E-2,-4.0686063E-2,-2.0240476E-2,-3.2440346E-2,-2.5806043E-2,-9.666619E-3,8.6028185E-3,-4.840723E-3,-3.3418343E-3,9.175408E-3,-1.3821766E-2,-1.4290729E-3,-1.856843E-2,-4.3309692E-2,-8.327329E-3,1.3488448E-2,1.3618574E-2,2.5026982E-3,-0E0,2.2508625E-2,2.4454033E-3,3.2580104E-2,1.5082637E-2,-0E0,4.3905943E-4,1.1323105E-2,5.0366526E-3,2.28045E-2,1.4461038E-2,2.9907823E-2,1.6850036E-2,-0E0,1.2723279E-2,-6.7666187E-3,3.6545407E-2,2.1404343E-2,3.2336984E-2,4.578354E-2],"split_indices":[11,39,11,37,35,53,11,38,0,0,0,85,60,53,11,19,4,38,35,11,23,47,77,13,79,26,22,82,3,33,4,37,30,27,13,18,85,30,13,16,3,79,15,0,79,0,0,0,0,0,0,0,0,0,0,0,0,0,0,0,0,0,0,0,0,0,0,0,0,0,0,0,0,0,0,0,0,0,0,0,0,0,0],"split_type":[0,0,0,0,0,0,0,0,0,0,0,0,0,0,0,0,0,0,0,0,0,0,0,0,0,0,0,0,0,0,0,0,0,0,0,0,0,0,0,0,0,0,0,0,0,0,0,0,0,0,0,0,0,0,0,0,0,0,0,0,0,0,0,0,0,0,0,0,0,0,0,0,0,0,0,0,0,0,0,0,0,0,0],"sum_hessian":[3.847E3,5.07E2,3.34E3,4.18E2,8.9E1,2.177E3,1.163E3,3.64E2,5.4E1,7.5E1,1.4E1,1.82E3,3.57E2,8.01E2,3.62E2,2.57E2,1.07E2,1.284E3,5.36E2,2.5E2,1.07E2,6.31E2,1.7E2,2.47E2,1.15E2,1.01E2,1.56E2,3.1E1,7.6E1,5.91E2,6.93E2,2.87E2,2.49E2,2E2,5E1,8.1E1,2.6E1,3.95E2,2.36E2,1.44E2,2.6E1,5.7E1,1.9E2,4E0,1.11E2,1.3E1,8.8E1,8.6E1,7E1,1.6E1,1.5E1,1.7E1,5.9E1,1.87E2,4.04E2,3.54E2,3.39E2,2.19E2,6.8E1,1.95E2,5.4E1,7.3E1,1.27E2,8E0,4.2E1,4E0,7.7E1,1.7E1,9E0,2.19E2,1.76E2,9.1E1,1.45E2,3E1,1.14E2,1.6E1,1E1,5.4E1,3E0,5.5E1,1.35E2,6.4E1,4.7E1],"tree_param":{"num_deleted":"0","num_feature":"90","num_nodes":"83","size_leaf_vector":"1"}},{"base_weights":[-7.907778E-3,-5.631584E-1,7.947682E-2,-5.1003534E-1,-8.8180023E-1,-4.9383022E-2,3.2016638E-1,-4.6259525E-1,-4.04903E-2,-1.8383665E-2,-4.7617104E-2,-1.1897945E-1,2.9303178E-1,1.9836381E-1,6.186695E-1,-1.3559826E-1,-5.5138725E-1,-2.604848E-1,-2.9697713E-2,1.9924654E-1,5.1476353E-1,3.4209552E-1,9.337258E-2,2.999388E-1,6.765009E-1,-3.88377E-2,-4.1419822E-1,-2.4533923E-1,-5.9745777E-1,-1.5923339E-1,-4.231326E-1,6.5585054E-2,-2.0810823E-1,3.3572906E-1,1.124482E-1,5.5255693E-1,-0E0,2.5893608E-1,5.449674E-1,1.7025305E-1,-2.399756E-2,6.0309225E-1,1.3354146E-1,6.8552685E-1,-8.834195E-4,-1.27454875E-2,1.3701774E-3,-0E0,-2.5022412E-2,6.757421E-3,-1.6709408E-2,-2.5193322E-2,-3.7386097E-2,-9.12323E-3,8.285071E-3,-5.517987E-3,-2.9421175E-2,1.22263385E-2,6.3049904E-4,-1.4173143E-2,8.053778E-3,1.044956E-2,2.328795E-2,2.9730175E-3,1.9788815E-2,3.1025855E-2,1.5528708E-2,-1.4689455E-3,1.0869019E-4,8.006848E-3,2.587404E-2,2.3904318E-2,3.96717E-2,4.1238735E-3,1.501962E-2,-2.8559307E-3,9.935105E-3,6.861621E-3,3.4891065E-2,-9.460132E-3,1.1424425E-2,4.1101526E-2,3.0936537E-2],"categories":[],"categories_nodes":[],"categories_segments":[],"categories_sizes":[],"default_left":[0,0,0,0,0,0,0,0,0,0,0,0,0,0,0,0,0,0,0,0,0,0,0,0,0,0,0,0,0,0,0,0,0,0,0,0,0,0,0,0,0,0,0,0,0,0,0,0,0,0,0,0,0,0,0,0,0,0,0,0,0,0,0,0,0,0,0,0,0,0,0,0,0,0,0,0,0,0,0,0,0,0,0],"id":4,"left_children":[1,3,5,7,9,11,13,15,-1,-1,-1,17,19,21,23,25,27,29,31,33,35,37,39,41,43,45,47,49,51,53,55,57,59,61,63,65,67,69,71,73,75,77,79,81,-1,-1,-1,-1,-1,-1,-1,-1,-1,-1,-1,-1,-1,-1,-1,-1,-1,-1,-1,-1,-1,-1,-1,-1,-1,-1,-1,-1,-1,-1,-1,-1,-1,-1,-1,-1,-1,-1,-1],"loss_changes":[1.8587709E2,7.812607E0,1.0266044E2,5.515938E0,1.7330971E0,5.1273056E1,4.150811E1,1.1032051E1,0E0,0E0,0E0,2.2503407E1,7.160473E0,1.21983185E1,5.544594E0,2.121043E0,3.8449326E0,1.1079285E1,1.8787052E1,2.839363E0,2.1385574E0,5.3577194E0,4.3758073E0,2.3487806E0,2.0335846E0,1.0426381E0,6.5486E-1,1.5784357E0,2.8494186E0,3.2753E0,1.3252258E1,6.6908283E0,1.08052025E1,1.2477722E0,2.211457E0,1.0629177E0,4.334503E-3,5.9809933E0,7.405987E-1,3.1461859E0,1.3414129E0,3.6456347E-1,1.1927581E0,1.4407349E0,0E0,0E0,0E0,0E0,0E0,0E0,0E0,0E0,0E0,0E0,0E0,0E0,0E0,0E0,0E0,0E0,0E0,0E0,0E0,0E0,0E0,0E0,0E0,0E0,0E0,0E0,0E0,0E0,0E0,0E0,0E0,0E0,0E0,0E0,0E0,0E0,0E0,0E0,0E0],"parents":[2147483647,0,0,1,1,2,2,3,3,4,4,5,5,6,6,7,7,11,11,12,12,13,13,14,14,15,15,16,16,17,17,18,18,19,19,20,20,21,21,22,22,23,23,24,24,25,25,26,26,27,27,28,28,29,29,30,30,31,31,32,32,33,33,34,34,35,35,36,36,37,37,38,38,39,39,40,40,41,41,42,42,43,43],"right_children":[2,4,6,8,10,12,14,16,-1,-1,-1,18,20,22,24,26,28,30,32,34,36,38,40,42,44,46,48,50,52,54,56,58,60,62,64,66,68,70,72,74,76,78,80,82,-1,-1,-1,-1,-1,-1,-1,-1,-1,-1,-1,-1,-1,-1,-1,-1,-1,-1,-1,-1,-1,-1,-1,-1,-1,-1,-1,-1,-1,-1,-1,-1,-1,-1,-1,-1,-1,-1,-1],"split_conditions":[2E0,1.1E1,4E0,9.1E1,5E-1,1E0,1.5E0,1E0,-4.04903E-2,-1.8383665E-2,-4.7617104E-2,4.82E0,1E0,8E0,1E0,1E0,8E0,1E0,1.5E1,8E0,6.4E1,2E0,1.5E0,5E0,1E0,9.7E-1,1.8E2,3E0,1.5E0,3.55E2,4E0,3E1,3.66E2,4.74E0,5.5E1,3E0,3.36E2,1E0,7E0,1E0,5.1E1,2E0,1.8E2,1.5E1,-8.834195E-4,-1.27454875E-2,1.3701774E-3,-0E0,-2.5022412E-2,6.757421E-3,-1.6709408E-2,-2.5193322E-2,-3.7386097E-2,-9.12323E-3,8.285071E-3,-5.517987E-3,-2.9421175E-2,1.22263385E-2,6.3049904E-4,-1.4173143E-2,8.053778E-3,1.044956E-2,2.328795E-2,2.9730175E-3,1.9788815E-2,3.1025855E-2,1.5528708E-2,-1.4689455E-3,1.0869019E-4,8.006848E-3,2.587404E-2,2.3904318E-2,3.96717E-2,4.1238735E-3,1.501962E-2,-2.8559307E-3,9.935105E-3,6.861621E-3,3.4891065E-2,-9.460132E-3,1.1424425E-2,4.1101526E-2,3.0936537E-2],"split_indices":[11,39,11,8,12,53,12,85,0,0,0,33,60,15,51,66,15,85,37,16,76,13,24,8,68,4,22,24,24,8,16,16,8,28,76,24,22,53,77,47,76,12,17,16,0,0,0,0,0,0,0,0,0,0,0,0,0,0,0,0,0,0,0,0,0,0,0,0,0,0,0,0,0,0,0,0,0,0,0,0,0,0,0],"split_type":[0,0,0,0,0,0,0,0,0,0,0,0,0,0,0,0,0,0,0,0,0,0,0,0,0,0,0,0,0,0,0,0,0,0,0,0,0,0,0,0,0,0,0,0,0,0,0,0,0,0,0,0,0,0,0,0,0,0,0,0,0,0,0,0,0,0,0,0,0,0,0,0,0,0,0,0,0,0,0,0,0,0,0],"sum_hessian":[3.825E3,5.2E2,3.305E3,4.49E2,7.1E1,2.152E3,1.153E3,3.91E2,5.8E1,1E1,6.1E1,1.79E3,3.62E2,8.21E2,3.32E2,8.5E1,3.06E2,6.9E2,1.1E3,2.57E2,1.05E2,3.44E2,4.77E2,5.3E1,2.79E2,6.5E1,2E1,4.2E1,2.64E2,4.28E2,2.62E2,7.16E2,3.84E2,9.7E1,1.6E2,9.8E1,7E0,2.47E2,9.7E1,2.9E2,1.87E2,1.7E1,3.6E1,2.76E2,3E0,1.6E1,4.9E1,4E0,1.6E1,7E0,3.5E1,1.67E2,9.7E1,4.01E2,2.7E1,9.2E1,1.7E2,1.61E2,5.55E2,3.2E2,6.4E1,5.2E1,4.5E1,1.37E2,2.3E1,7.4E1,2.4E1,4E0,3E0,1.81E2,6.6E1,8E1,1.7E1,1.76E2,1.14E2,1.65E2,2.2E1,4E0,1.3E1,7E0,2.9E1,8.5E1,1.91E2],"tree_param":{"num_deleted":"0","num_feature":"90","num_nodes":"83","size_leaf_vector":"1"}},{"base_weights":[2.4979117E-3,-5.426555E-1,8.737188E-2,-4.5879975E-1,-7.0827496E-1,-3.3667833E-2,3.085998E-1,-5.515303E-1,-1.4252983E-1,-7.597001E-1,-0E0,-7.241624E-2,3.1444237E-1,2.121239E-1,6.1915296E-1,-9.24718E-2,-5.9901184E-1,1.6037568E-1,-2.510296E-1,-1.800493E-2,-7.844315E-1,-2.0962057E-3,3.1886997E-5,-1.8098743E-1,1.8385105E-2,3.757415E-1,-2.7894643E-1,3.456986E-1,1.2317677E-1,3.012702E-1,6.6829646E-1,-2.5300974E-1,2.1227181E-1,-7.0377564E-1,-4.8233154E-1,2.3939867E-1,-6.7660823E-3,-3.1874496E-1,-4.933485E-2,-4.1345023E-2,-4.8736286E-1,4.8710905E-2,-2.3290163E-1,1.1815644E-1,-1.3691144E-1,5.8186877E-1,2.6754296E-1,-4.0028083E-1,2.1069919E-4,2.522879E-1,5.4951817E-1,2.1127841E-1,-2.2302324E-2,4.409387E-1,-2.8034614E-2,5.29652E-1,7.3924506E-1,-2.2246072E-2,-3.532555E-3,-0E0,1.51485205E-2,-3.7455253E-2,-2.4006015E-2,-2.578769E-2,-1.3226753E-3,1.4333676E-2,-0E0,-2.1614244E-2,-4.4729486E-3,3.71838E-4,-9.837631E-3,-7.456181E-3,-3.2070965E-2,-4.362705E-3,1.4398617E-2,-6.4122574E-3,-2.5723875E-2,1.3987451E-2,3.2664877E-3,-1.5496286E-2,-4.4465187E-4,3.0177994E-2,9.478256E-6,4.8517482E-3,1.769852E-2,-2.6268696E-2,-6.25605E-3,1.4409579E-2,-8.728071E-3,2.4414524E-2,3.8335364E-2,5.0220676E-3,1.5408704E-2,-4.6524596E-3,3.8568235E-3,3.0580545E-2,5.74261E-3,2.0777679E-3,-1.0688582E-2,3.317171E-2,1.571518E-2,3.0091349E-2,4.3620497E-2],"categories":[],"categories_nodes":[],"categories_segments":[],"categories_sizes":[],"default_left":[0,0,0,0,0,0,0,0,0,0,0,0,0,0,0,0,0,0,0,0,0,0,0,0,0,0,0,0,0,0,0,0,0,0,0,0,0,0,0,0,0,0,0,0,0,0,0,0,0,0,0,0,0,0,0,0,0,0,0,0,0,0,0,0,0,0,0,0,0,0,0,0,0,0,0,0,0,0,0,0,0,0,0,0,0,0,0,0,0,0,0,0,0,0,0,0,0,0,0,0,0,0,0],"id":5,"left_children":[1,3,5,7,9,11,13,15,17,19,21,23,25,27,29,31,33,35,37,-1,39,-1,-1,41,43,45,47,49,51,53,55,57,59,61,63,65,-1,67,69,-1,71,73,75,77,79,81,83,85,-1,87,89,91,93,95,97,99,101,-1,-1,-1,-1,-1,-1,-1,-1,-1,-1,-1,-1,-1,-1,-1,-1,-1,-1,-1,-1,-1,-1,-1,-1,-1,-1,-1,-1,-1,-1,-1,-1,-1,-1,-1,-1,-1,-1,-1,-1,-1,-1,-1,-1,-1,-1],"loss_changes":[1.7726192E2,6.3744965E0,8.899442E1,9.820549E0,5.907707E0,2.8859253E1,3.4740204E1,5.4877625E0,2.7386003E0,8.2118225E-1,1.5820717E-2,1.9114817E1,7.927614E0,1.0450966E1,3.7380905E0,1.3909205E0,2.1320572E0,5.647311E-1,6.7017055E-1,0E0,9.2588043E-1,0E0,0E0,1.0602522E1,1.6293018E1,3.8535824E0,8.4725547E-1,6.3375397E0,7.0399046E0,2.017264E0,1.4420166E0,4.2727518E-1,1.4521262E-1,3.9564514E-1,1.582613E0,2.0111465E-1,0E0,8.98087E-1,2.2783414E-1,0E0,7.3450613E-1,5.375465E0,2.09239E1,5.3240623E0,8.9508095E0,5.7850647E-1,1.7157412E0,1.9037604E-1,0E0,3.8964767E0,5.864029E-1,3.4570732E0,1.4486792E0,1.2531328E0,2.328751E-1,1.878025E0,1.6850586E0,0E0,0E0,0E0,0E0,0E0,0E0,0E0,0E0,0E0,0E0,0E0,0E0,0E0,0E0,0E0,0E0,0E0,0E0,0E0,0E0,0E0,0E0,0E0,0E0,0E0,0E0,0E0,0E0,0E0,0E0,0E0,0E0,0E0,0E0,0E0,0E0,0E0,0E0,0E0,0E0,0E0,0E0,0E0,0E0,0E0,0E0],"parents":[2147483647,0,0,1,1,2,2,3,3,4,4,5,5,6,6,7,7,8,8,9,9,10,10,11,11,12,12,13,13,14,14,15,15,16,16,17,17,18,18,20,20,23,23,24,24,25,25,26,26,27,27,28,28,29,29,30,30,31,31,32,32,33,33,34,34,35,35,37,37,38,38,40,40,41,41,42,42,43,43,44,44,45,45,46,46,47,47,49,49,50,50,51,51,52,52,53,53,54,54,55,55,56,56],"right_children":[2,4,6,8,10,12,14,16,18,20,22,24,26,28,30,32,34,36,38,-1,40,-1,-1,42,44,46,48,50,52,54,56,58,60,62,64,66,-1,68,70,-1,72,74,76,78,80,82,84,86,-1,88,90,92,94,96,98,100,102,-1,-1,-1,-1,-1,-1,-1,-1,-1,-1,-1,-1,-1,-1,-1,-1,-1,-1,-1,-1,-1,-1,-1,-1,-1,-1,-1,-1,-1,-1,-1,-1,-1,-1,-1,-1,-1,-1,-1,-1,-1,-1,-1,-1,-1,-1],"split_conditions":[2E0,9E0,4E0,1E0,3.1E1,1E0,2E0,4E0,1E0,3E0,4.74E0,4.87E0,1E0,1.5E1,1E0,3E0,1.2E1,1E0,2E0,-1.800493E-2,1E0,-2.0962057E-3,3.1886997E-5,4E0,1.6E1,2E0,4.93E0,2E0,1.5E0,2E0,1E0,4.86E0,8E0,1.42E2,4.9E1,4E0,-6.7660823E-3,1.19E2,1E0,-4.1345023E-2,8.1E-1,2.7E1,1E0,3E1,2.7E1,1E0,4.81E0,4.8E0,2.1069919E-4,1E0,7E0,3.1E1,4.88E0,4.92E0,9.6E-1,6E0,1E0,-2.2246072E-2,-3.532555E-3,-0E0,1.51485205E-2,-3.7455253E-2,-2.4006015E-2,-2.578769E-2,-1.3226753E-3,1.4333676E-2,-0E0,-2.1614244E-2,-4.4729486E-3,3.71838E-4,-9.837631E-3,-7.456181E-3,-3.2070965E-2,-4.362705E-3,1.4398617E-2,-6.4122574E-3,-2.5723875E-2,1.3987451E-2,3.2664877E-3,-1.5496286E-2,-4.4465187E-4,3.0177994E-2,9.478256E-6,4.8517482E-3,1.769852E-2,-2.6268696E-2,-6.25605E-3,1.4409579E-2,-8.728071E-3,2.4414524E-2,3.8335364E-2,5.0220676E-3,1.5408704E-2,-4.6524596E-3,3.8568235E-3,3.0580545E-2,5.74261E-3,2.0777679E-3,-1.0688582E-2,3.317171E-2,1.571518E-2,3.0091349E-2,4.3620497E-2],"split_indices":[11,37,11,38,15,60,12,16,3,15,34,33,68,15,51,83,19,66,38,0,43,0,0,16,8,23,28,13,24,39,47,29,19,79,76,1,0,79,47,0,4,19,85,16,76,61,33,33,0,68,77,76,28,28,4,15,60,0,0,0,0,0,0,0,0,0,0,0,0,0,0,0,0,0,0,0,0,0,0,0,0,0,0,0,0,0,0,0,0,0,0,0,0,0,0,0,0,0,0,0,0,0,0],"split_type":[0,0,0,0,0,0,0,0,0,0,0,0,0,0,0,0,0,0,0,0,0,0,0,0,0,0,0,0,0,0,0,0,0,0,0,0,0,0,0,0,0,0,0,0,0,0,0,0,0,0,0,0,0,0,0,0,0,0,0,0,0,0,0,0,0,0,0,0,0,0,0,0,0,0,0,0,0,0,0,0,0,0,0,0,0,0,0,0,0,0,0,0,0,0,0,0,0,0,0,0,0,0,0],"sum_hessian":[3.833E3,5.15E2,3.318E3,3.46E2,1.69E2,2.144E3,1.174E3,2.66E2,8E1,1.57E2,1.2E1,1.931E3,2.13E2,8.98E2,2.76E2,2.6E1,2.4E2,2E1,6E1,1.1E1,1.46E2,8E0,4E0,8.81E2,1.05E3,1.94E2,1.9E1,3.56E2,5.42E2,3.9E1,2.37E2,1.8E1,8E0,1.22E2,1.18E2,1.7E1,3E0,4.3E1,1.7E1,1.25E2,2.1E1,1.61E2,7.2E2,6.41E2,4.09E2,6.4E1,1.3E2,1.4E1,5E0,2.47E2,1.09E2,3.39E2,2.03E2,2.8E1,1.1E1,8.5E1,1.52E2,7E0,1.1E1,3E0,5E0,9.8E1,2.4E1,1.09E2,9E0,1.4E1,3E0,2.7E1,1.6E1,1.1E1,6E0,8E0,1.3E1,1.02E2,5.9E1,5.27E2,1.93E2,1.55E2,4.86E2,1.72E2,2.37E2,6.1E1,3E0,4.6E1,8.4E1,8E0,6E0,2.29E2,1.8E1,8.9E1,2E1,1.61E2,1.78E2,1.21E2,8.2E1,1.7E1,1.1E1,7E0,4E0,5E1,3.5E1,7.9E1,7.3E1],"tree_param":{"num_deleted":"0","num_feature":"90","num_nodes":"103","size_leaf_vector":"1"}},{"base_weights":[1.8876028E-3,-1.3695052E-1,3.155301E-1,-5.080146E-1,-4.7323592E-2,2.072319E-1,5.962367E-1,-6.393633E-1,-3.8452095E-1,-8.690764E-2,3.2767007E-1,3.465815E-1,1.08472705E-1,5.011696E-1,7.5323373E-1,-3.989972E-2,-5.497151E-1,-3.1332728E-1,-6.014174E-1,-2.1374263E-1,-1.02141E-2,3.81971E-1,-3.0584535E-1,2.2121727E-1,4.419125E-1,8.074794E-2,2.119334E-2,6.880672E-1,4.0795544E-1,7.732835E-1,9.004177E-3,-3.893633E-1,-6.661504E-1,-2.056224E-1,-4.6881247E-1,-1.0052114E-2,-6.9168866E-1,-1.34238945E-2,-2.6873723E-1,7.7355444E-2,-1.2961102E-1,5.6552166E-1,2.6991296E-1,-4.3115067E-1,-0E0,1.2037938E-1,3.9509743E-1,2.7384084E-1,5.405202E-1,2.6291223E-2,2.0551378E-1,7.435818E-1,-0E0,4.6086708E-1,2.0709974E-1,5.4869205E-1,4.176875E-2,-2.923193E-2,-1.1321857E-2,-1.6948111E-2,-3.683521E-2,-1.8196393E-2,-5.351325E-3,-1.5699375E-2,-3.3319466E-2,-1.9293932E-2,-3.8781345E-2,1.8174063E-2,-5.3497357E-3,-1.6551793E-2,-2.2197855E-3,1.3047777E-2,7.1479386E-4,-9.559659E-3,7.875252E-3,2.946186E-2,-0E0,4.405235E-3,1.8816646E-2,-3.9369E-3,-2.4771424E-2,8.470887E-3,-1.5140573E-2,2.6364658E-2,1.2701228E-2,3.9589047E-3,1.887056E-2,-0E0,2.8352013E-2,5.681777E-3,-3.0450977E-3,-0E0,1.303421E-2,2.8778387E-3,3.855885E-2,2.5870807E-3,2.4426326E-2,-0E0,1.607614E-2,3.6766615E-2,4.0271217E-3],"categories":[],"categories_nodes":[],"categories_segments":[],"categories_sizes":[],"default_left":[0,0,0,0,0,0,0,0,0,0,0,0,0,0,0,0,0,0,0,0,0,0,0,0,0,0,0,0,0,0,0,0,0,0,0,0,0,0,0,0,0,0,0,0,0,0,0,0,0,0,0,0,0,0,0,0,0,0,0,0,0,0,0,0,0,0,0,0,0,0,0,0,0,0,0,0,0,0,0,0,0,0,0,0,0,0,0,0,0,0,0,0,0,0,0,0,0,0,0,0,0],"id":6,"left_children":[1,3,5,7,9,11,13,15,17,19,21,23,25,27,29,-1,31,33,35,37,39,41,43,45,47,49,-1,51,53,55,-1,57,59,61,63,-1,65,67,69,71,73,75,77,79,-1,81,83,85,87,89,91,93,-1,95,97,99,-1,-1,-1,-1,-1,-1,-1,-1,-1,-1,-1,-1,-1,-1,-1,-1,-1,-1,-1,-1,-1,-1,-1,-1,-1,-1,-1,-1,-1,-1,-1,-1,-1,-1,-1,-1,-1,-1,-1,-1,-1,-1,-1,-1,-1],"loss_changes":[1.6641505E2,8.778601E1,3.521427E1,7.6820374E0,3.1608776E1,1.1464371E1,3.9714508E0,2.5206146E0,3.5994682E0,1.8701618E1,7.1305714E0,3.81987E0,4.136041E0,2.8871422E0,8.468857E-1,0E0,2.3430557E0,3.0836086E0,1.8169594E0,7.8814697E0,1.2650758E1,3.3800297E0,7.340288E-1,2.4639726E0,2.774582E0,3.0408587E0,0E0,2.4809418E0,1.1464901E0,5.777664E-1,0E0,1.8338995E0,1.4206963E0,1.723702E0,1.9069748E0,0E0,5.4522705E-1,5.5438004E0,7.7735977E0,7.932701E0,9.114057E0,8.4801674E-1,2.1028318E0,3.152132E-3,0E0,2.093955E0,5.792351E-1,1.3197408E0,1.6248741E0,2.503158E0,1.5107183E0,7.789078E-1,0E0,1.0033951E0,7.5553524E-1,2.1483154E0,0E0,0E0,0E0,0E0,0E0,0E0,0E0,0E0,0E0,0E0,0E0,0E0,0E0,0E0,0E0,0E0,0E0,0E0,0E0,0E0,0E0,0E0,0E0,0E0,0E0,0E0,0E0,0E0,0E0,0E0,0E0,0E0,0E0,0E0,0E0,0E0,0E0,0E0,0E0,0E0,0E0,0E0,0E0,0E0,0E0],"parents":[2147483647,0,0,1,1,2,2,3,3,4,4,5,5,6,6,7,7,8,8,9,9,10,10,11,11,12,12,13,13,14,14,16,16,17,17,18,18,19,19,20,20,21,21,22,22,23,23,24,24,25,25,27,27,28,28,29,29,31,31,32,32,33,33,34,34,36,36,37,37,38,38,39,39,40,40,41,41,42,42,43,43,45,45,46,46,47,47,48,48,49,49,50,50,51,51,53,53,54,54,55,55],"right_children":[2,4,6,8,10,12,14,16,18,20,22,24,26,28,30,-1,32,34,36,38,40,42,44,46,48,50,-1,52,54,56,-1,58,60,62,64,-1,66,68,70,72,74,76,78,80,-1,82,84,86,88,90,92,94,-1,96,98,100,-1,-1,-1,-1,-1,-1,-1,-1,-1,-1,-1,-1,-1,-1,-1,-1,-1,-1,-1,-1,-1,-1,-1,-1,-1,-1,-1,-1,-1,-1,-1,-1,-1,-1,-1,-1,-1,-1,-1,-1,-1,-1,-1,-1,-1],"split_conditions":[4E0,2E0,1.5E0,3E0,1E0,1.5E1,1E0,4.78E0,9E0,4.82E0,1E0,4.67E0,2.56E2,1.5E1,1E0,-3.989972E-2,1E0,2.64E2,8.1E-1,4E0,1.4E1,2E0,4.9E0,6E0,1.8E1,5E0,2.119334E-2,2.88E2,3.2E1,1E0,9.004177E-3,7E0,2E0,7.2E-1,1E0,-1.0052114E-2,1E0,3.81E0,3E0,3E1,3.66E2,1.29E2,4.8E0,3E0,-0E0,1E0,1E0,2E0,1E0,7E0,4E0,2E0,-0E0,6E0,4.87E0,4.77E0,4.176875E-2,-2.923193E-2,-1.1321857E-2,-1.6948111E-2,-3.683521E-2,-1.8196393E-2,-5.351325E-3,-1.5699375E-2,-3.3319466E-2,-1.9293932E-2,-3.8781345E-2,1.8174063E-2,-5.3497357E-3,-1.6551793E-2,-2.2197855E-3,1.3047777E-2,7.1479386E-4,-9.559659E-3,7.875252E-3,2.946186E-2,-0E0,4.405235E-3,1.8816646E-2,-3.9369E-3,-2.4771424E-2,8.470887E-3,-1.5140573E-2,2.6364658E-2,1.2701228E-2,3.9589047E-3,1.887056E-2,-0E0,2.8352013E-2,5.681777E-3,-3.0450977E-3,-0E0,1.303421E-2,2.8778387E-3,3.855885E-2,2.5870807E-3,2.4426326E-2,-0E0,1.607614E-2,3.6766615E-2,4.0271217E-3],"split_indices":[11,11,12,19,60,15,60,33,37,33,68,30,7,15,62,0,75,22,4,15,8,23,33,11,20,11,0,26,37,70,0,23,37,5,68,0,81,34,11,16,8,79,33,7,0,68,2,16,49,37,83,14,0,79,33,34,0,0,0,0,0,0,0,0,0,0,0,0,0,0,0,0,0,0,0,0,0,0,0,0,0,0,0,0,0,0,0,0,0,0,0,0,0,0,0,0,0,0,0,0,0],"split_type":[0,0,0,0,0,0,0,0,0,0,0,0,0,0,0,0,0,0,0,0,0,0,0,0,0,0,0,0,0,0,0,0,0,0,0,0,0,0,0,0,0,0,0,0,0,0,0,0,0,0,0,0,0,0,0,0,0,0,0,0,0,0,0,0,0,0,0,0,0,0,0,0,0,0,0,0,0,0,0,0,0,0,0,0,0,0,0,0,0,0,0,0,0,0,0,0,0,0,0,0,0],"sum_hessian":[3.818E3,2.646E3,1.172E3,5.13E2,2.133E3,8.48E2,3.24E2,2.45E2,2.68E2,1.931E3,2.02E2,3.49E2,4.99E2,2.06E2,1.18E2,8.4E1,1.61E2,2.05E2,6.3E1,7.25E2,1.206E3,1.87E2,1.5E1,1.54E2,1.95E2,4.61E2,3.8E1,6.5E1,1.41E2,1.13E2,5E0,7.1E1,9E1,1.24E2,8.1E1,1.3E1,5E1,1.58E2,5.67E2,6.94E2,5.12E2,6.8E1,1.19E2,1.1E1,4E0,1E2,5.4E1,7.5E1,1.2E2,3.24E2,1.37E2,6E1,5E0,1.09E2,3.2E1,2.8E1,8.5E1,3E1,4.1E1,1.8E1,7.2E1,4.5E1,7.9E1,4.8E1,3.3E1,1.3E1,3.7E1,3E1,1.28E2,4.42E2,1.25E2,1.75E2,5.19E2,4.23E2,8.9E1,6.5E1,3E0,4.6E1,7.3E1,3E0,8E0,9.1E1,9E0,2.5E1,2.9E1,2.8E1,4.7E1,6E0,1.14E2,1.64E2,1.6E2,3E1,1.07E2,3E0,5.7E1,8E0,1.01E2,1.2E1,2E1,1.9E1,9E0],"tree_param":{"num_deleted":"0","num_feature":"90","num_nodes":"101","size_leaf_vector":"1"}},{"base_weights":[-3.2182198E-3,-4.77501E-1,7.024141E-2,-4.258967E-1,-7.7129847E-1,-3.7856493E-2,2.7529493E-1,-3.5695618E-1,-6.308335E-1,-1.6779657E-2,-4.1350663E-2,-7.682965E-2,3.089528E-1,2.2671545E-1,6.1436594E-1,-4.7516376E-1,-1.09461926E-1,-6.826862E-1,-2.0164105E-1,-9.655427E-3,-2.314097E-1,5.727037E-1,1.7674465E-1,1.3353309E-1,3.4663993E-1,3.2247034E-1,6.822826E-1,-6.191757E-2,-5.3126967E-1,1.9822434E-1,-1.714714E-1,-3.502525E-2,-1.4945923E-2,-2.934695E-1,6.486885E-5,1.0499916E-1,-1.0600271E-1,4.4479584E-3,-4.1496664E-1,1.12489145E-2,3.0026799E-2,2.3376523E-1,-2.5622484E-1,2.6652566E-1,3.358242E-2,1.7080127E-1,4.393265E-1,-2.253617E-3,3.797926E-1,7.550535E-1,4.1752005E-1,6.2245238E-3,-1.2307738E-2,-3.170769E-2,-2.1705257E-2,1.872672E-2,-0E0,-1.4777469E-2,-2.8939308E-3,-1.8025203E-2,-0E0,-4.4034063E-3,7.447003E-3,-1.0878431E-2,6.0647615E-4,1.585315E-2,-5.1823356E-3,-3.048778E-2,-1.5289604E-2,1.4146896E-2,-2.7554866E-3,-2.0691432E-2,-0E0,8.469547E-3,2.4098927E-2,3.551411E-3,-1.1869284E-2,1.2893215E-2,-1.0157765E-3,1.9492334E-2,3.467572E-2,-0E0,2.3518696E-2,3.9591704E-2,1.9629244E-2,2.4162706E-2,7.138909E-3],"categories":[],"categories_nodes":[],"categories_segments":[],"categories_sizes":[],"default_left":[0,0,0,0,0,0,0,0,0,0,0,0,0,0,0,0,0,0,0,0,0,0,0,0,0,0,0,0,0,0,0,0,0,0,0,0,0,0,0,0,0,0,0,0,0,0,0,0,0,0,0,0,0,0,0,0,0,0,0,0,0,0,0,0,0,0,0,0,0,0,0,0,0,0,0,0,0,0,0,0,0,0,0,0,0,0,0],"id":7,"left_children":[1,3,5,7,9,11,13,15,17,-1,-1,19,21,23,25,27,29,31,33,35,37,39,41,43,45,47,49,51,53,55,57,-1,-1,59,-1,61,63,65,67,-1,-1,69,71,73,75,77,79,-1,81,83,85,-1,-1,-1,-1,-1,-1,-1,-1,-1,-1,-1,-1,-1,-1,-1,-1,-1,-1,-1,-1,-1,-1,-1,-1,-1,-1,-1,-1,-1,-1,-1,-1,-1,-1,-1,-1],"loss_changes":[1.3454195E2,7.046135E0,7.4117195E1,5.652733E0,1.0780602E0,2.9477415E1,1.8532845E1,9.544052E0,1.9343872E0,0E0,0E0,2.0326262E1,7.270405E0,1.1070587E1,2.2129974E0,4.9697685E0,2.1411095E0,4.7309875E-2,3.7814677E-1,1.5189641E1,2.5882284E1,2.3150444E-1,3.7294497E0,7.4877234E0,6.8519783E0,7.830572E-1,1.412159E0,1.0752652E0,1.2767487E0,5.552122E-1,1.166393E0,0E0,0E0,9.233761E-2,0E0,5.348167E0,9.95628E0,8.904155E0,6.57143E0,0E0,0E0,1.9959574E0,7.677258E-1,4.7642307E0,3.2987018E0,2.6793346E0,2.893364E0,0E0,9.72991E-1,3.752365E-1,1.8626642E-1,0E0,0E0,0E0,0E0,0E0,0E0,0E0,0E0,0E0,0E0,0E0,0E0,0E0,0E0,0E0,0E0,0E0,0E0,0E0,0E0,0E0,0E0,0E0,0E0,0E0,0E0,0E0,0E0,0E0,0E0,0E0,0E0,0E0,0E0,0E0,0E0],"parents":[2147483647,0,0,1,1,2,2,3,3,4,4,5,5,6,6,7,7,8,8,11,11,12,12,13,13,14,14,15,15,16,16,17,17,18,18,19,19,20,20,21,21,22,22,23,23,24,24,25,25,26,26,27,27,28,28,29,29,30,30,33,33,35,35,36,36,37,37,38,38,41,41,42,42,43,43,44,44,45,45,46,46,48,48,49,49,50,50],"right_children":[2,4,6,8,10,12,14,16,18,-1,-1,20,22,24,26,28,30,32,34,36,38,40,42,44,46,48,50,52,54,56,58,-1,-1,60,-1,62,64,66,68,-1,-1,70,72,74,76,78,80,-1,82,84,86,-1,-1,-1,-1,-1,-1,-1,-1,-1,-1,-1,-1,-1,-1,-1,-1,-1,-1,-1,-1,-1,-1,-1,-1,-1,-1,-1,-1,-1,-1,-1,-1,-1,-1,-1,-1],"split_conditions":[2E0,1.1E1,4E0,4E0,2E0,1E0,7E0,1E0,1.7E1,-1.6779657E-2,-4.1350663E-2,1E0,2E0,1E0,4.41E0,4E0,1E0,8E0,4.9E0,4E0,6E0,6E0,1E0,1.5E1,2E0,7E0,1.1E1,2.3E1,4.86E0,1E0,4.96E0,-3.502525E-2,-1.4945923E-2,1E0,6.486885E-5,4.7E0,1E0,5E0,4.73E0,1.12489145E-2,3.0026799E-2,8.6E1,4.85E0,2E0,2E0,4E1,7E0,-2.253617E-3,1E0,4.87E0,2E0,6.2245238E-3,-1.2307738E-2,-3.170769E-2,-2.1705257E-2,1.872672E-2,-0E0,-1.4777469E-2,-2.8939308E-3,-1.8025203E-2,-0E0,-4.4034063E-3,7.447003E-3,-1.0878431E-2,6.0647615E-4,1.585315E-2,-5.1823356E-3,-3.048778E-2,-1.5289604E-2,1.4146896E-2,-2.7554866E-3,-2.0691432E-2,-0E0,8.469547E-3,2.4098927E-2,3.551411E-3,-1.1869284E-2,1.2893215E-2,-1.0157765E-3,1.9492334E-2,3.467572E-2,-0E0,2.3518696E-2,3.9591704E-2,1.9629244E-2,2.4162706E-2,7.138909E-3],"split_indices":[11,39,11,1,15,60,11,38,23,0,0,85,23,70,30,15,3,39,33,38,16,82,68,15,13,82,38,24,33,64,33,0,0,44,0,33,4,24,33,0,0,82,34,13,39,7,24,0,14,34,1,0,0,0,0,0,0,0,0,0,0,0,0,0,0,0,0,0,0,0,0,0,0,0,0,0,0,0,0,0,0,0,0,0,0,0,0],"split_type":[0,0,0,0,0,0,0,0,0,0,0,0,0,0,0,0,0,0,0,0,0,0,0,0,0,0,0,0,0,0,0,0,0,0,0,0,0,0,0,0,0,0,0,0,0,0,0,0,0,0,0,0,0,0,0,0,0,0,0,0,0,0,0,0,0,0,0,0,0,0,0,0,0,0,0,0,0,0,0,0,0,0,0,0,0,0,0],"sum_hessian":[3.855E3,5.17E2,3.338E3,4.43E2,7.4E1,2.185E3,1.153E3,3.35E2,1.08E2,1E1,6.4E1,1.966E3,2.19E2,1.011E3,1.42E2,2.25E2,1.1E2,9.5E1,1.3E1,1.373E3,5.93E2,7.1E1,1.48E2,5.72E2,4.39E2,2.9E1,1.13E2,2.8E1,1.97E2,1.7E1,9.3E1,8.9E1,6E0,1E1,3E0,6.25E2,7.48E2,2.59E2,3.34E2,7E0,6.4E1,1.32E2,1.6E1,2.43E2,3.29E2,1.54E2,2.85E2,3E0,2.6E1,8.6E1,2.7E1,1.3E1,1.5E1,9.1E1,1.06E2,8E0,9E0,4.2E1,5.1E1,7E0,3E0,1.14E2,5.11E2,3.86E2,3.62E2,6.7E1,1.92E2,1.17E2,2.17E2,1.14E2,1.8E1,1E1,6E0,1.7E2,7.3E1,2.91E2,3.8E1,1.07E2,4.7E1,2.42E2,4.3E1,5E0,2.1E1,7.6E1,1E1,2E1,7E0],"tree_param":{"num_deleted":"0","num_feature":"90","num_nodes":"87","size_leaf_vector":"1"}},{"base_weights":[-2.7781113E-3,-4.6466818E-1,6.998867E-2,-2.20619E-1,-5.052288E-1,8.846236E-3,3.86192E-1,2.1542123E-1,-3.6168808E-1,-2.0668565E-1,-5.4120994E-1,-9.9485755E-2,1.4664899E-1,4.1362584E-1,-2.0191698E-1,-0E0,2.6293793E-1,-6.302788E-1,-2.3154107E-1,-2.5907373E-2,-3.6412987E-1,-5.6881124E-1,-1.831939E-1,-1.3744608E-1,1.5605393E-1,9.182805E-2,3.9748073E-1,3.4105384E-1,6.463331E-1,-3.146104E-1,5.9568487E-2,1.6530618E-2,-0E0,-5.470009E-3,-3.502473E-2,-7.4692786E-2,-4.0468138E-1,-1.4138702E-1,1.2529633E-2,-4.3079942E-1,-3.2241996E-3,-4.854877E-1,-6.8011236E-1,-5.144995E-2,-2.8519733E-2,-2.539283E-2,-2.300753E-1,2.9512554E-1,7.304399E-2,5.3289875E-2,3.306089E-1,-2.2117853E-2,4.2103934E-1,2.624937E-1,5.470482E-1,6.597059E-1,6.340924E-3,-0E0,-3.546865E-1,8.831061E-3,-0E0,-1.584289E-2,4.0603867E-3,-2.4647757E-2,-0E0,-1.1577568E-2,9.984693E-5,-2.6181553E-2,-6.322528E-3,-2.805522E-2,-1.0760908E-2,-3.6059625E-2,-2.3939635E-3,-0E0,-8.603601E-3,-8.1229955E-3,5.567455E-3,-1.4163197E-3,-1.4667304E-2,1.6685467E-2,-1.0817787E-2,-1.1066637E-3,9.135271E-3,7.939795E-3,-1.1662506E-3,-0E0,1.8209238E-2,3.3442926E-2,1.5990615E-2,1.8396504E-2,3.3270398E-3,2.9715812E-2,8.101547E-3,2.4055455E-2,3.6004923E-2,-2.2581382E-2,-3.3668408E-3],"categories":[],"categories_nodes":[],"categories_segments":[],"categories_sizes":[],"default_left":[0,0,0,0,0,0,0,0,0,0,0,0,0,0,0,0,0,0,0,0,0,0,0,0,0,0,0,0,0,0,0,0,0,0,0,0,0,0,0,0,0,0,0,0,0,0,0,0,0,0,0,0,0,0,0,0,0,0,0,0,0,0,0,0,0,0,0,0,0,0,0,0,0,0,0,0,0,0,0,0,0,0,0,0,0,0,0,0,0,0,0,0,0,0,0,0,0],"id":8,"left_children":[1,3,5,7,9,11,13,15,17,19,21,23,25,27,29,-1,31,33,35,37,39,41,43,45,47,49,51,53,55,57,59,-1,-1,-1,-1,61,63,65,-1,67,-1,69,71,73,-1,75,77,79,81,83,85,-1,87,89,91,93,-1,-1,95,-1,-1,-1,-1,-1,-1,-1,-1,-1,-1,-1,-1,-1,-1,-1,-1,-1,-1,-1,-1,-1,-1,-1,-1,-1,-1,-1,-1,-1,-1,-1,-1,-1,-1,-1,-1,-1,-1],"loss_changes":[1.2962347E2,4.7950516E0,6.416092E1,4.934342E0,4.401367E0,4.1683823E1,8.848343E0,2.2446197E-1,1.6067142E0,1.2861388E0,3.527916E0,1.51562805E1,1.6681303E1,8.081947E0,8.279821E-1,0E0,2.0547259E-1,2.5773764E-1,9.457643E-1,8.219315E-1,2.9351544E-1,2.6164017E0,1.3032675E0,1.4018337E1,2.1515846E0,9.141427E0,4.5107307E0,5.941036E0,4.3540955E-1,1.05403066E-1,9.994139E-2,0E0,0E0,0E0,0E0,1.0638325E0,7.765031E-1,3.508465E-1,0E0,2.3881793E-1,0E0,3.983078E0,3.6315842E0,1.4108402E-1,0E0,1.1640337E1,9.347279E0,1.5597878E0,1.4146817E0,7.1227245E0,1.6510649E0,0E0,4.7590294E0,5.793293E0,1.5484581E0,4.242363E-1,0E0,0E0,1.7984319E-1,0E0,0E0,0E0,0E0,0E0,0E0,0E0,0E0,0E0,0E0,0E0,0E0,0E0,0E0,0E0,0E0,0E0,0E0,0E0,0E0,0E0,0E0,0E0,0E0,0E0,0E0,0E0,0E0,0E0,0E0,0E0,0E0,0E0,0E0,0E0,0E0,0E0,0E0],"parents":[2147483647,0,0,1,1,2,2,3,3,4,4,5,5,6,6,7,7,8,8,9,9,10,10,11,11,12,12,13,13,14,14,16,16,17,17,18,18,19,19,20,20,21,21,22,22,23,23,24,24,25,25,26,26,27,27,28,28,29,29,30,30,35,35,36,36,37,37,39,39,41,41,42,42,43,43,45,45,46,46,47,47,48,48,49,49,50,50,52,52,53,53,54,54,55,55,58,58],"right_children":[2,4,6,8,10,12,14,16,18,20,22,24,26,28,30,-1,32,34,36,38,40,42,44,46,48,50,52,54,56,58,60,-1,-1,-1,-1,62,64,66,-1,68,-1,70,72,74,-1,76,78,80,82,84,86,-1,88,90,92,94,-1,-1,96,-1,-1,-1,-1,-1,-1,-1,-1,-1,-1,-1,-1,-1,-1,-1,-1,-1,-1,-1,-1,-1,-1,-1,-1,-1,-1,-1,-1,-1,-1,-1,-1,-1,-1,-1,-1,-1,-1],"split_conditions":[2E0,1E0,1E0,1E0,3E1,3E0,1E0,1E0,4.71E0,1E0,3.1E1,1E0,1.5E0,1.5E0,1E0,-0E0,6.7E1,4.04E0,2E0,1E0,4.94E0,7E0,1E0,3E0,6E1,1E0,1E0,2.6E1,1E0,3E0,1E0,1.6530618E-2,-0E0,-5.470009E-3,-3.502473E-2,8.8E1,3E0,1E0,1.2529633E-2,1.3E2,-3.2241996E-3,1E0,1E0,1E0,-2.8519733E-2,4.92E0,2.8E1,1.24E2,1E0,9E0,3.8E-1,-2.2117853E-2,1.5E1,1.1E1,9.8E1,1E0,6.340924E-3,-0E0,4E0,8.831061E-3,-0E0,-1.584289E-2,4.0603867E-3,-2.4647757E-2,-0E0,-1.1577568E-2,9.984693E-5,-2.6181553E-2,-6.322528E-3,-2.805522E-2,-1.0760908E-2,-3.6059625E-2,-2.3939635E-3,-0E0,-8.603601E-3,-8.1229955E-3,5.567455E-3,-1.4163197E-3,-1.4667304E-2,1.6685467E-2,-1.0817787E-2,-1.1066637E-3,9.135271E-3,7.939795E-3,-1.1662506E-3,-0E0,1.8209238E-2,3.3442926E-2,1.5990615E-2,1.8396504E-2,3.3270398E-3,2.9715812E-2,8.101547E-3,2.4055455E-2,3.6004923E-2,-2.2581382E-2,-3.3668408E-3],"split_indices":[11,3,60,85,16,11,68,14,33,25,16,53,12,12,88,0,82,33,7,5,33,37,68,37,27,53,45,7,62,7,5,0,0,0,0,79,7,81,0,79,0,38,53,70,0,33,16,82,35,8,5,0,16,16,27,47,0,0,11,0,0,0,0,0,0,0,0,0,0,0,0,0,0,0,0,0,0,0,0,0,0,0,0,0,0,0,0,0,0,0,0,0,0,0,0,0,0],"split_type":[0,0,0,0,0,0,0,0,0,0,0,0,0,0,0,0,0,0,0,0,0,0,0,0,0,0,0,0,0,0,0,0,0,0,0,0,0,0,0,0,0,0,0,0,0,0,0,0,0,0,0,0,0,0,0,0,0,0,0,0,0,0,0,0,0,0,0,0,0,0,0,0,0,0,0,0,0,0,0,0,0,0,0,0,0,0,0,0,0,0,0,0,0,0,0,0,0],"sum_hessian":[3.85E3,5.24E2,3.326E3,7.7E1,4.47E2,2.789E3,5.37E2,1.8E1,5.9E1,5E1,3.97E2,1.56E3,1.229E3,5.14E2,2.3E1,3E0,1.5E1,1.7E1,4.2E1,2.5E1,2.5E1,3.67E2,3E1,1.36E3,2E2,1.011E3,2.18E2,3.95E2,1.19E2,1.7E1,6E0,1.1E1,4E0,3E0,1.4E1,2.4E1,1.8E1,1.9E1,6E0,1.9E1,6E0,2.15E2,1.52E2,2.4E1,6E0,6.18E2,7.42E2,7.2E1,1.28E2,8.73E2,1.38E2,5E0,2.13E2,2.89E2,1.06E2,1.15E2,4E0,3E0,1.4E1,3E0,3E0,1E1,1.4E1,1.5E1,3E0,1.3E1,6E0,1.3E1,6E0,1.66E2,4.9E1,1.42E2,1E1,1.8E1,6E0,3.1E2,3.08E2,1.79E2,5.63E2,6.8E1,4E0,6.7E1,6.1E1,3.69E2,5.04E2,1.2E1,1.26E2,5.9E1,1.54E2,1.86E2,1.03E2,9.3E1,1.3E1,3.3E1,8.2E1,9E0,5E0],"tree_param":{"num_deleted":"0","num_feature":"90","num_nodes":"97","size_leaf_vector":"1"}},{"base_weights":[5.185597E-3,-1.0805819E-1,2.5936112E-1,-4.358253E-1,-3.308259E-2,1.6547883E-1,4.9659008E-1,-3.965298E-1,-6.913894E-1,-8.795639E-2,2.453538E-1,2.8068608E-1,8.519686E-2,5.055124E-1,-1.3293929E-2,-4.685488E-1,-2.7398333E-1,-1.1850408E-2,-7.368119E-1,-6.1005108E-2,-4.5341906E-1,3.8071522E-1,1.4015356E-1,1.7315857E-1,3.8800585E-1,1.6272524E-1,-5.109102E-2,6.459937E-1,4.346812E-1,-1.6551532E-1,-5.0579995E-1,-5.7808965E-1,-9.3789384E-2,-3.887694E-2,-1.9664468E-2,-1.691422E-1,1.1680316E-2,-5.438615E-1,-0E0,4.1366142E-1,-1.4794175E-1,2.0231915E-1,-8.222121E-3,2.167481E-1,-9.708923E-2,4.0235877E-1,-1.0590901E-2,3.2555267E-2,2.1725668E-1,-1.7134851E-1,-0E0,6.715399E-1,-3.985239E-3,3.3499238E-1,6.028318E-1,-2.0174894E-2,-1.2979982E-4,-2.9787576E-2,-1.7790655E-2,-3.1330794E-2,-3.200886E-3,-1.0943515E-2,1.5106834E-3,-6.3886777E-3,-1.734221E-2,9.996298E-3,-1.5926425E-3,7.3348857E-3,-2.9995477E-2,-4.510737E-3,4.7889017E-3,2.6155913E-3,2.199745E-2,8.842301E-4,-1.5018451E-2,1.2197672E-2,-0E0,-2.239021E-2,1.2308325E-3,8.827622E-3,2.1585757E-2,1.1608257E-2,-8.711434E-3,9.809831E-3,2.2606464E-2,6.202731E-3,-2.758994E-3,6.1049717E-3,1.7266374E-2,-4.589806E-4,-1.5945192E-2,3.4724583E-3,-7.0062517E-3,1.8436575E-2,3.5134044E-2,5.65857E-3,1.8957255E-2,9.687637E-3,3.2931674E-2],"categories":[],"categories_nodes":[],"categories_segments":[],"categories_sizes":[],"default_left":[0,0,0,0,0,0,0,0,0,0,0,0,0,0,0,0,0,0,0,0,0,0,0,0,0,0,0,0,0,0,0,0,0,0,0,0,0,0,0,0,0,0,0,0,0,0,0,0,0,0,0,0,0,0,0,0,0,0,0,0,0,0,0,0,0,0,0,0,0,0,0,0,0,0,0,0,0,0,0,0,0,0,0,0,0,0,0,0,0,0,0,0,0,0,0,0,0,0,0],"id":9,"left_children":[1,3,5,7,9,11,13,15,17,19,21,23,25,27,-1,29,31,-1,33,35,37,39,41,43,45,47,49,51,53,55,57,59,61,-1,-1,63,65,67,69,71,73,75,77,79,81,83,-1,85,87,89,91,93,-1,95,97,-1,-1,-1,-1,-1,-1,-1,-1,-1,-1,-1,-1,-1,-1,-1,-1,-1,-1,-1,-1,-1,-1,-1,-1,-1,-1,-1,-1,-1,-1,-1,-1,-1,-1,-1,-1,-1,-1,-1,-1,-1,-1,-1,-1],"loss_changes":[1.1053198E2,6.501884E1,2.6022575E1,4.241638E0,3.2991524E1,7.7006874E0,2.5024567E0,3.3784714E0,7.3610497E-1,1.7574808E1,4.7935143E0,3.7126675E0,5.388888E0,2.5805283E0,0E0,2.6730347E0,8.663924E0,0E0,9.346008E-3,1.3316903E1,5.178459E0,2.832323E0,1.9517462E0,2.153963E0,1.6336193E0,2.1928692E0,1.1691042E0,2.2739105E0,3.194542E0,1.0772176E0,2.6048927E0,1.1803894E0,1.7106693E0,0E0,0E0,4.7647114E0,8.325891E0,4.2558517E0,1.9146818E-1,1.1574364E0,3.455994E-1,1.14679E0,1.0319831E0,1.011147E0,6.268391E-1,1.3757763E0,0E0,8.2913846E-1,2.525096E0,1.205857E0,1.2246532E0,2.9302597E-1,0E0,1.180294E0,1.3804436E0,0E0,0E0,0E0,0E0,0E0,0E0,0E0,0E0,0E0,0E0,0E0,0E0,0E0,0E0,0E0,0E0,0E0,0E0,0E0,0E0,0E0,0E0,0E0,0E0,0E0,0E0,0E0,0E0,0E0,0E0,0E0,0E0,0E0,0E0,0E0,0E0,0E0,0E0,0E0,0E0,0E0,0E0,0E0,0E0],"parents":[2147483647,0,0,1,1,2,2,3,3,4,4,5,5,6,6,7,7,8,8,9,9,10,10,11,11,12,12,13,13,15,15,16,16,18,18,19,19,20,20,21,21,22,22,23,23,24,24,25,25,26,26,27,27,28,28,29,29,30,30,31,31,32,32,35,35,36,36,37,37,38,38,39,39,40,40,41,41,42,42,43,43,44,44,45,45,47,47,48,48,49,49,50,50,51,51,53,53,54,54],"right_children":[2,4,6,8,10,12,14,16,18,20,22,24,26,28,-1,30,32,-1,34,36,38,40,42,44,46,48,50,52,54,56,58,60,62,-1,-1,64,66,68,70,72,74,76,78,80,82,84,-1,86,88,90,92,94,-1,96,98,-1,-1,-1,-1,-1,-1,-1,-1,-1,-1,-1,-1,-1,-1,-1,-1,-1,-1,-1,-1,-1,-1,-1,-1,-1,-1,-1,-1,-1,-1,-1,-1,-1,-1,-1,-1,-1,-1,-1,-1,-1,-1,-1,-1],"split_conditions":[4E0,2E0,1.5E0,1.1E1,1E0,1.5E1,4.5E1,1E0,2E0,1.5E1,5.1E1,4.71E0,1.5E0,1.5E1,-1.3293929E-2,7E0,1.5E1,-1.1850408E-2,3E0,4.82E0,2.2E1,1.24E2,4E1,2.87E2,4.5E1,1E0,4.74E0,1E0,1E0,4.72E0,2.7E1,3E0,4.88E0,-3.887694E-2,-1.9664468E-2,1E0,9E0,5.7E-1,1.8E1,2.1E1,1E0,2E0,9.4E1,7E0,7E0,1.6E1,-1.0590901E-2,1E0,1E0,3.6E1,3E1,4.31E0,-3.985239E-3,4.37E0,1E0,-2.0174894E-2,-1.2979982E-4,-2.9787576E-2,-1.7790655E-2,-3.1330794E-2,-3.200886E-3,-1.0943515E-2,1.5106834E-3,-6.3886777E-3,-1.734221E-2,9.996298E-3,-1.5926425E-3,7.3348857E-3,-2.9995477E-2,-4.510737E-3,4.7889017E-3,2.6155913E-3,2.199745E-2,8.842301E-4,-1.5018451E-2,1.2197672E-2,-0E0,-2.239021E-2,1.2308325E-3,8.827622E-3,2.1585757E-2,1.1608257E-2,-8.711434E-3,9.809831E-3,2.2606464E-2,6.202731E-3,-2.758994E-3,6.1049717E-3,1.7266374E-2,-4.589806E-4,-1.5945192E-2,3.4724583E-3,-7.0062517E-3,1.8436575E-2,3.5134044E-2,5.65857E-3,1.8957255E-2,9.687637E-3,3.2931674E-2],"split_indices":[11,11,12,39,53,15,39,38,15,39,27,30,24,15,0,15,82,0,12,33,38,82,82,26,39,4,33,68,60,30,19,77,29,0,0,68,15,4,76,76,52,3,22,11,24,21,0,24,70,82,7,30,0,33,47,0,0,0,0,0,0,0,0,0,0,0,0,0,0,0,0,0,0,0,0,0,0,0,0,0,0,0,0,0,0,0,0,0,0,0,0,0,0,0,0,0,0,0,0],"split_type":[0,0,0,0,0,0,0,0,0,0,0,0,0,0,0,0,0,0,0,0,0,0,0,0,0,0,0,0,0,0,0,0,0,0,0,0,0,0,0,0,0,0,0,0,0,0,0,0,0,0,0,0,0,0,0,0,0,0,0,0,0,0,0,0,0,0,0,0,0,0,0,0,0,0,0,0,0,0,0,0,0,0,0,0,0,0,0,0,0,0,0,0,0,0,0,0,0,0,0],"sum_hessian":[3.836E3,2.653E3,1.183E3,4.92E2,2.161E3,8.5E2,3.33E2,4.3E2,6.2E1,1.807E3,3.54E2,3.46E2,5.04E2,3.3E2,3E0,2.67E2,1.63E2,7E0,5.5E1,1.685E3,1.22E2,1.52E2,2.02E2,1.76E2,1.7E2,3.23E2,1.81E2,1.06E2,2.24E2,3.1E1,2.36E2,5.9E1,1.04E2,4.7E1,8E0,6.79E2,1.006E3,1.02E2,2E1,1.44E2,8E0,1.44E2,5.8E1,1.53E2,2.3E1,1.67E2,3E0,9.8E1,2.25E2,5.5E1,1.26E2,1.03E2,3E0,1.44E2,8E1,1.1E1,2E1,1.44E2,9.2E1,5.3E1,6E0,5.3E1,5.1E1,5.54E2,1.25E2,1.9E2,8.16E2,7E0,9.5E1,9E0,1.1E1,1.1E1,1.33E2,3E0,5E0,1.18E2,2.6E1,4E0,5.4E1,1.32E2,2.1E1,3E0,2E1,3.5E1,1.32E2,5E1,4.8E1,1.32E2,9.3E1,2.8E1,2.7E1,8.6E1,4E1,1.2E1,9.1E1,2.6E1,1.18E2,1.1E1,6.9E1],"tree_param":{"num_deleted":"0","num_feature":"90","num_nodes":"99","size_leaf_vector":"1"}},{"base_weights":[3.7943516E-3,-4.217253E-1,6.834797E-2,-3.646586E-1,-6.4801264E-1,-2.9103199E-2,2.5083846E-1,-3.245378E-1,-3.052702E-2,-3.6506135E-2,-1.9030459E-1,-7.943489E-2,2.2222216E-1,1.6346386E-1,4.8296767E-1,-6.5107174E-2,-4.059963E-1,-0E0,-1.3585736E-2,-5.2215975E-2,-4.3946183E-1,1.6463515E-1,4.2504442E-1,1.18883364E-1,3.804731E-1,4.9223393E-1,-1.2795414E-2,-2.732814E-1,1.3432543E-2,-4.7891548E-1,-2.935714E-1,-1.8988159E-2,-2.6946402E-1,-5.2118737E-1,-0E0,6.619568E-2,2.8454557E-1,4.359008E-2,2.3142109E-2,3.588011E-2,2.4007654E-1,1.6452311E-1,4.4645166E-1,4.254955E-1,6.1834425E-1,-2.0617425E-2,-5.299473E-3,1.294958E-2,-1.2802813E-3,-1.1421732E-2,-2.6420593E-2,-1.6180117E-2,1.5808375E-3,-6.892197E-3,2.01765E-3,-1.5756883E-2,4.1697877E-3,6.9020214E-3,-2.8306073E-2,-4.1735373E-3,6.156552E-3,-1.1655605E-2,5.5831512E-3,9.724279E-3,2.749597E-2,-2.2323178E-3,1.3252362E-2,5.127845E-4,1.8906984E-2,1.8245861E-2,8.5765105E-3,1.37796765E-2,-1.1208171E-3,1.2213128E-2,2.6649088E-2,1.1580513E-2,2.3465699E-2,1.3992493E-2,3.410136E-2],"categories":[],"categories_nodes":[],"categories_segments":[],"categories_sizes":[],"default_left":[0,0,0,0,0,0,0,0,0,0,0,0,0,0,0,0,0,0,0,0,0,0,0,0,0,0,0,0,0,0,0,0,0,0,0,0,0,0,0,0,0,0,0,0,0,0,0,0,0,0,0,0,0,0,0,0,0,0,0,0,0,0,0,0,0,0,0,0,0,0,0,0,0,0,0,0,0,0,0],"id":10,"left_children":[1,3,5,7,9,11,13,15,-1,-1,17,19,21,23,25,27,29,-1,-1,31,33,35,37,39,41,43,-1,45,47,49,51,53,55,57,59,61,63,65,-1,67,69,71,73,75,77,-1,-1,-1,-1,-1,-1,-1,-1,-1,-1,-1,-1,-1,-1,-1,-1,-1,-1,-1,-1,-1,-1,-1,-1,-1,-1,-1,-1,-1,-1,-1,-1,-1,-1],"loss_changes":[1.042965E2,5.815361E0,5.8818474E1,3.403408E0,3.1759644E0,2.7182539E1,2.3007278E1,7.181614E0,0E0,0E0,3.4410638E-1,1.737056E1,3.8755627E0,7.871832E0,2.3634872E0,1.5137055E0,1.7228584E0,0E0,0E0,1.19419155E1,4.652607E0,3.1695728E0,8.8744736E-1,6.9125433E0,1.6911373E0,1.9284439E0,0E0,3.3058047E-1,6.943289E-1,1.5230293E0,1.1914864E0,1.0285573E1,3.6645832E0,3.389286E0,2.2825357E-1,2.1276295E0,2.5827332E0,2.7585906E-1,0E0,3.5067084E0,2.1360054E0,8.549326E-1,1.4134331E0,1.378048E0,1.6446838E0,0E0,0E0,0E0,0E0,0E0,0E0,0E0,0E0,0E0,0E0,0E0,0E0,0E0,0E0,0E0,0E0,0E0,0E0,0E0,0E0,0E0,0E0,0E0,0E0,0E0,0E0,0E0,0E0,0E0,0E0,0E0,0E0,0E0,0E0],"parents":[2147483647,0,0,1,1,2,2,3,3,4,4,5,5,6,6,7,7,10,10,11,11,12,12,13,13,14,14,15,15,16,16,19,19,20,20,21,21,22,22,23,23,24,24,25,25,27,27,28,28,29,29,30,30,31,31,32,32,33,33,34,34,35,35,36,36,37,37,39,39,40,40,41,41,42,42,43,43,44,44],"right_children":[2,4,6,8,10,12,14,16,-1,-1,18,20,22,24,26,28,30,-1,-1,32,34,36,38,40,42,44,-1,46,48,50,52,54,56,58,60,62,64,66,-1,68,70,72,74,76,78,-1,-1,-1,-1,-1,-1,-1,-1,-1,-1,-1,-1,-1,-1,-1,-1,-1,-1,-1,-1,-1,-1,-1,-1,-1,-1,-1,-1,-1,-1,-1,-1,-1,-1],"split_conditions":[2E0,7E0,4E0,9.1E1,1E0,1E0,1.5E0,1E0,-3.052702E-2,-3.6506135E-2,9.6E-1,1.5E1,9.83E2,1E0,4.5E1,9.3E-1,2.4E1,-0E0,-1.3585736E-2,1E0,2.2E1,1E0,2E0,5E0,8.8E-1,7E0,-1.2795414E-2,6.1E1,2.1E1,8E0,2E0,1E0,1E0,5.7E-1,1.5E0,1E0,4.91E0,1.5E1,2.3142109E-2,3.98E2,2.1E1,1E0,1.3E1,2E0,7.2E-1,-2.0617425E-2,-5.299473E-3,1.294958E-2,-1.2802813E-3,-1.1421732E-2,-2.6420593E-2,-1.6180117E-2,1.5808375E-3,-6.892197E-3,2.01765E-3,-1.5756883E-2,4.1697877E-3,6.9020214E-3,-2.8306073E-2,-4.1735373E-3,6.156552E-3,-1.1655605E-2,5.5831512E-3,9.724279E-3,2.749597E-2,-2.2323178E-3,1.3252362E-2,5.127845E-4,1.8906984E-2,1.8245861E-2,8.5765105E-3,1.37796765E-2,-1.1208171E-3,1.2213128E-2,2.6649088E-2,1.1580513E-2,2.3465699E-2,1.3992493E-2,3.410136E-2],"split_indices":[11,39,11,8,35,53,12,85,0,0,4,39,8,53,39,4,19,0,0,68,38,35,77,11,5,11,0,21,82,15,14,4,88,4,24,38,29,82,0,8,82,65,82,12,5,0,0,0,0,0,0,0,0,0,0,0,0,0,0,0,0,0,0,0,0,0,0,0,0,0,0,0,0,0,0,0,0,0,0],"split_type":[0,0,0,0,0,0,0,0,0,0,0,0,0,0,0,0,0,0,0,0,0,0,0,0,0,0,0,0,0,0,0,0,0,0,0,0,0,0,0,0,0,0,0,0,0,0,0,0,0,0,0,0,0,0,0,0,0,0,0,0,0,0,0,0,0,0,0,0,0,0,0,0,0,0,0,0,0,0,0],"sum_hessian":[3.8E3,4.99E2,3.301E3,4.02E2,9.7E1,2.151E3,1.15E3,3.49E2,5.3E1,8.1E1,1.6E1,1.794E3,3.57E2,8.38E2,3.12E2,8.5E1,2.64E2,4E0,1.2E1,1.67E3,1.24E2,2.81E2,7.6E1,6.98E2,1.4E2,3.09E2,3E0,2.4E1,6.1E1,1.56E2,1.08E2,1.451E3,2.19E2,1.05E2,1.9E1,1.57E2,1.24E2,8E0,6.8E1,4.17E2,2.81E2,3.5E1,1.05E2,2.07E2,1.02E2,1.1E1,1.3E1,9E0,5.2E1,2.8E1,1.28E2,1E2,8E0,4.85E2,9.66E2,1.95E2,2.4E1,6E0,9.9E1,1E1,9E0,1.9E1,1.38E2,9.5E1,2.9E1,5E0,3E0,3.9E2,2.7E1,9.6E1,1.85E2,2.3E1,1.2E1,3.4E1,7.1E1,4.1E1,1.66E2,1.8E1,8.4E1],"tree_param":{"num_deleted":"0","num_feature":"90","num_nodes":"79","size_leaf_vector":"1"}},{"base_weights":[-6.000406E-3,-3.921172E-1,5.4913685E-2,-3.396105E-1,-6.168644E-1,-3.6154103E-2,2.232036E-1,-3.0282772E-1,-2.8504452E-2,-6.9531703E-1,-2.1605219E-1,-8.9232236E-2,2.1175255E-1,1.4035961E-1,4.4442275E-1,-3.765067E-2,-3.8744724E-1,-6.8186657E-3,-3.5516154E-2,-0E0,-1.3810958E-2,-2.598374E-2,-2.3207115E-1,3.2041332E-1,9.5673494E-2,1.0030449E-1,3.3877826E-1,1.7018694E-1,4.9543357E-1,-2.0819084E-1,3.780736E-2,-8.489786E-2,-4.1781852E-1,8.707655E-2,-1.1290321E-1,-3.762324E-1,-5.7211496E-2,9.206638E-2,3.8300967E-1,1.4870879E-1,-1.02876425E-1,3.0237652E-2,1.9957219E-1,1.293303E-1,4.00966E-1,3.5508385E-1,-0E0,4.2202234E-1,5.841726E-1,1.3831238E-3,-1.6481787E-2,7.666398E-3,-2.0990546E-3,-1.1243929E-2,9.557952E-3,-2.3974884E-2,-1.3799374E-2,1.578386E-2,2.4538792E-3,-1.0489119E-2,-6.4262486E-4,-3.7722684E-2,-1.507117E-2,-6.8272683E-3,1.5559566E-2,3.0650417E-4,8.342378E-3,7.04899E-3,2.1257577E-2,1.1893756E-2,1.0855605E-3,-0E0,-1.1622024E-2,5.421709E-3,-3.4779012E-3,1.579922E-2,6.9593424E-3,1.3488683E-2,-0E0,1.082886E-2,2.4158886E-2,-0E0,2.2105582E-2,-5.1234565E-3,1.5598843E-2,1.7376095E-2,2.9501146E-2,-0E0,3.0207062E-2],"categories":[],"categories_nodes":[],"categories_segments":[],"categories_sizes":[],"default_left":[0,0,0,0,0,0,0,0,0,0,0,0,0,0,0,0,0,0,0,0,0,0,0,0,0,0,0,0,0,0,0,0,0,0,0,0,0,0,0,0,0,0,0,0,0,0,0,0,0,0,0,0,0,0,0,0,0,0,0,0,0,0,0,0,0,0,0,0,0,0,0,0,0,0,0,0,0,0,0,0,0,0,0,0,0,0,0,0,0],"id":11,"left_children":[1,3,5,7,9,11,13,15,-1,17,19,21,23,25,27,29,31,-1,-1,-1,-1,33,35,37,39,41,43,45,47,49,51,53,55,57,59,61,63,65,67,69,71,73,75,77,79,81,83,85,87,-1,-1,-1,-1,-1,-1,-1,-1,-1,-1,-1,-1,-1,-1,-1,-1,-1,-1,-1,-1,-1,-1,-1,-1,-1,-1,-1,-1,-1,-1,-1,-1,-1,-1,-1,-1,-1,-1,-1,-1],"loss_changes":[8.9908554E1,5.556099E0,5.0596695E1,3.0896683E0,2.5039215E0,2.8102592E1,2.0944336E1,8.140297E0,0E0,2.2706985E-1,3.0424142E-1,1.58183E1,4.5454884E0,6.514126E0,4.041973E0,1.2599381E0,2.3363075E0,0E0,0E0,0E0,0E0,1.2058409E1,1.3392202E1,2.5190945E0,1.98171E0,4.8194904E0,1.5595379E0,1.7720915E0,1.0642776E0,9.892031E-1,6.3165987E-1,1.1384695E0,1.7787209E0,4.4511833E0,6.644767E0,7.6687775E0,7.1624312E0,2.125485E-1,1.2333508E0,1.5669386E0,4.6228194E-1,3.285029E0,1.8125324E0,7.2457945E-1,1.2222977E0,8.26519E-1,8.1497556E-1,1.2973557E0,1.2451591E0,0E0,0E0,0E0,0E0,0E0,0E0,0E0,0E0,0E0,0E0,0E0,0E0,0E0,0E0,0E0,0E0,0E0,0E0,0E0,0E0,0E0,0E0,0E0,0E0,0E0,0E0,0E0,0E0,0E0,0E0,0E0,0E0,0E0,0E0,0E0,0E0,0E0,0E0,0E0,0E0],"parents":[2147483647,0,0,1,1,2,2,3,3,4,4,5,5,6,6,7,7,9,9,10,10,11,11,12,12,13,13,14,14,15,15,16,16,21,21,22,22,23,23,24,24,25,25,26,26,27,27,28,28,29,29,30,30,31,31,32,32,33,33,34,34,35,35,36,36,37,37,38,38,39,39,40,40,41,41,42,42,43,43,44,44,45,45,46,46,47,47,48,48],"right_children":[2,4,6,8,10,12,14,16,-1,18,20,22,24,26,28,30,32,-1,-1,-1,-1,34,36,38,40,42,44,46,48,50,52,54,56,58,60,62,64,66,68,70,72,74,76,78,80,82,84,86,88,-1,-1,-1,-1,-1,-1,-1,-1,-1,-1,-1,-1,-1,-1,-1,-1,-1,-1,-1,-1,-1,-1,-1,-1,-1,-1,-1,-1,-1,-1,-1,-1,-1,-1,-1,-1,-1,-1,-1,-1],"split_conditions":[2E0,7E0,4E0,8.6E1,1E0,1E0,1.5E0,1E0,-2.8504452E-2,1E0,9.6E-1,1E0,5E0,1E0,1E0,4.67E0,4E0,-6.8186657E-3,-3.5516154E-2,-0E0,-1.3810958E-2,3E0,1E0,1E0,2.8E1,5E0,8.8E-1,1.7E1,1E0,1E0,2E0,3.69E2,2.9E1,3E1,1E0,9E0,4.95E0,1E0,2E0,1E0,2E0,1.2E1,2.1E1,3.4E1,1E0,1.1E1,2.5E0,7E0,2.4E1,1.3831238E-3,-1.6481787E-2,7.666398E-3,-2.0990546E-3,-1.1243929E-2,9.557952E-3,-2.3974884E-2,-1.3799374E-2,1.578386E-2,2.4538792E-3,-1.0489119E-2,-6.4262486E-4,-3.7722684E-2,-1.507117E-2,-6.8272683E-3,1.5559566E-2,3.0650417E-4,8.342378E-3,7.04899E-3,2.1257577E-2,1.1893756E-2,1.0855605E-3,-0E0,-1.1622024E-2,5.421709E-3,-3.4779012E-3,1.579922E-2,6.9593424E-3,1.3488683E-2,-0E0,1.082886E-2,2.4158886E-2,-0E0,2.2105582E-2,-5.1234565E-3,1.5598843E-2,1.7376095E-2,2.9501146E-2,-0E0,3.0207062E-2],"split_indices":[11,39,11,7,35,53,12,85,0,13,4,85,23,53,51,28,15,0,0,0,0,38,35,4,38,11,5,37,60,2,7,17,19,15,4,76,28,39,7,85,3,7,82,82,81,82,12,11,76,0,0,0,0,0,0,0,0,0,0,0,0,0,0,0,0,0,0,0,0,0,0,0,0,0,0,0,0,0,0,0,0,0,0,0,0,0,0,0,0],"split_type":[0,0,0,0,0,0,0,0,0,0,0,0,0,0,0,0,0,0,0,0,0,0,0,0,0,0,0,0,0,0,0,0,0,0,0,0,0,0,0,0,0,0,0,0,0,0,0,0,0,0,0,0,0,0,0,0,0,0,0,0,0,0,0,0,0,0,0,0,0,0,0,0,0,0,0,0,0,0,0,0,0,0,0,0,0,0,0,0,0],"sum_hessian":[3.815E3,5.2E2,3.295E3,4.25E2,9.5E1,2.137E3,1.158E3,3.7E2,5.5E1,7.8E1,1.7E1,1.762E3,3.75E2,8.45E2,3.13E2,9.1E1,2.79E2,3E0,7.5E1,3E0,1.4E1,1.224E3,5.38E2,1.91E2,1.84E2,7.06E2,1.39E2,5.1E1,2.62E2,2.9E1,6.2E1,2.7E1,2.52E2,5.3E2,6.94E2,2.93E2,2.45E2,4.3E1,1.48E2,1.47E2,3.7E1,4.17E2,2.89E2,3.4E1,1.05E2,2.5E1,2.6E1,1.49E2,1.13E2,9E0,2E1,2.7E1,3.5E1,1.9E1,8E0,1.72E2,8E1,7.3E1,4.57E2,3.5E2,3.44E2,4.6E1,2.47E2,2.03E2,4.2E1,2.3E1,2E1,2.4E1,1.24E2,8.4E1,6.3E1,2.2E1,1.5E1,2.36E2,1.81E2,9.5E1,1.94E2,1.7E1,1.7E1,3.5E1,7E1,5E0,2E1,2.1E1,5E0,1.07E2,4.2E1,4E0,1.09E2],"tree_param":{"num_deleted":"0","num_feature":"90","num_nodes":"89","size_leaf_vector":"1"}},{"base_weights":[-1.2625346E-3,-3.7705773E-1,5.7785686E-2,-3.3602983E-1,-6.076025E-1,-2.9180838E-2,2.1820235E-1,-2.3275746E-1,-4.4018537E-1,-6.468338E-1,-1.2199622E-2,-5.019964E-2,3.4569E-1,1.424965E-1,4.1556448E-1,3.7688112E-3,-3.177209E-1,-5.232108E-1,-3.0609962E-1,-3.4007754E-2,-1.7444335E-2,-1.0007874E-1,9.472721E-2,-9.531863E-4,3.66457E-1,6.8533085E-2,2.5151405E-1,3.606454E-1,5.715001E-1,2.1691479E-1,-5.712159E-2,-3.548568E-1,-6.1905824E-2,-5.3529793E-1,-0E0,-3.5515812E-1,1.1954266E-1,-3.772464E-2,-3.3156446E-1,-5.460595E-4,3.4322894E-1,2.1757479E-1,4.3534523E-1,1.500121E-1,-5.32546E-2,1.7457692E-1,4.0645972E-1,3.7090406E-1,-1.212345E-2,1.5056744E-1,3.224781E-2,1.6812794E-2,-0E0,1.5598947E-4,-1.1180523E-2,-1.3677229E-2,-2.7008224E-2,-0E0,-1.6967556E-2,-8.298866E-5,-2.7240792E-2,-1.9243212E-2,-0E0,-3.9352234E-3,1.8694064E-2,-8.684366E-3,1.5672157E-3,-2.5014708E-2,-9.933993E-3,1.2352065E-2,-4.83402E-3,1.1867016E-2,2.6883865E-2,1.5643047E-4,1.2259284E-2,1.29310815E-2,2.4146888E-2,5.996551E-3,1.876844E-2,-5.729478E-4,-1.0869438E-2,5.682792E-3,1.5464093E-2,-3.8086188E-3,2.1222083E-2,1.4688211E-2,2.260904E-2,-4.0445453E-3,3.3168532E-2],"categories":[],"categories_nodes":[],"categories_segments":[],"categories_sizes":[],"default_left":[0,0,0,0,0,0,0,0,0,0,0,0,0,0,0,0,0,0,0,0,0,0,0,0,0,0,0,0,0,0,0,0,0,0,0,0,0,0,0,0,0,0,0,0,0,0,0,0,0,0,0,0,0,0,0,0,0,0,0,0,0,0,0,0,0,0,0,0,0,0,0,0,0,0,0,0,0,0,0,0,0,0,0,0,0,0,0,0,0],"id":12,"left_children":[1,3,5,7,9,11,13,15,17,19,-1,21,23,25,27,29,31,33,35,-1,-1,37,39,-1,41,43,45,47,49,51,53,55,57,59,-1,61,63,65,67,69,71,73,75,77,79,81,83,85,-1,87,-1,-1,-1,-1,-1,-1,-1,-1,-1,-1,-1,-1,-1,-1,-1,-1,-1,-1,-1,-1,-1,-1,-1,-1,-1,-1,-1,-1,-1,-1,-1,-1,-1,-1,-1,-1,-1,-1,-1],"loss_changes":[8.511516E1,4.3463974E0,4.6245438E1,4.4257164E0,5.699806E-1,1.6800333E1,1.7124374E1,4.708685E0,1.9461517E0,1.6262054E-2,0E0,1.4707814E1,1.0018988E0,6.6682415E0,2.1700249E0,8.550204E-1,1.4168129E0,8.292084E-1,1.9742641E0,0E0,0E0,2.170741E1,1.2424883E1,0E0,7.517853E-1,5.077725E0,3.7378693E0,1.6385918E0,2.0582886E0,3.1183177E-1,5.502517E-1,1.726656E0,4.8381987E-1,4.3571472E-1,0E0,8.699322E-1,6.012939E-1,1.1293779E1,6.7959213E0,8.889357E0,2.5479126E0,1.24907136E-1,1.756401E-1,1.8312278E0,1.2917085E0,1.6831393E0,1.1262913E0,1.0672417E0,0E0,1.9483483E0,0E0,0E0,0E0,0E0,0E0,0E0,0E0,0E0,0E0,0E0,0E0,0E0,0E0,0E0,0E0,0E0,0E0,0E0,0E0,0E0,0E0,0E0,0E0,0E0,0E0,0E0,0E0,0E0,0E0,0E0,0E0,0E0,0E0,0E0,0E0,0E0,0E0,0E0,0E0],"parents":[2147483647,0,0,1,1,2,2,3,3,4,4,5,5,6,6,7,7,8,8,9,9,11,11,12,12,13,13,14,14,15,15,16,16,17,17,18,18,21,21,22,22,24,24,25,25,26,26,27,27,28,28,29,29,30,30,31,31,32,32,33,33,35,35,36,36,37,37,38,38,39,39,40,40,41,41,42,42,43,43,44,44,45,45,46,46,47,47,49,49],"right_children":[2,4,6,8,10,12,14,16,18,20,-1,22,24,26,28,30,32,34,36,-1,-1,38,40,-1,42,44,46,48,50,52,54,56,58,60,-1,62,64,66,68,70,72,74,76,78,80,82,84,86,-1,88,-1,-1,-1,-1,-1,-1,-1,-1,-1,-1,-1,-1,-1,-1,-1,-1,-1,-1,-1,-1,-1,-1,-1,-1,-1,-1,-1,-1,-1,-1,-1,-1,-1,-1,-1,-1,-1,-1,-1],"split_conditions":[2E0,1.1E1,4E0,1E0,1E0,1.02E3,1.5E0,1E0,1.8E1,3E0,-1.2199622E-2,1E0,7.4E1,1E0,8E0,1E0,1E0,1E0,4.98E0,-3.4007754E-2,-1.7444335E-2,1E0,3E0,-9.531863E-4,2.85E1,6.4E1,4.77E0,4.5E1,2.2E1,3.9E1,1E0,6.4E1,8.4E1,4.2E1,-0E0,1.4E1,1E0,1E0,8.1E1,1E0,4.97E0,4.03E0,1E0,2.56E2,9.2E1,6.3E1,1E0,1E0,-1.212345E-2,2E0,3.224781E-2,1.6812794E-2,-0E0,1.5598947E-4,-1.1180523E-2,-1.3677229E-2,-2.7008224E-2,-0E0,-1.6967556E-2,-8.298866E-5,-2.7240792E-2,-1.9243212E-2,-0E0,-3.9352234E-3,1.8694064E-2,-8.684366E-3,1.5672157E-3,-2.5014708E-2,-9.933993E-3,1.2352065E-2,-4.83402E-3,1.1867016E-2,2.6883865E-2,1.5643047E-4,1.2259284E-2,1.29310815E-2,2.4146888E-2,5.996551E-3,1.876844E-2,-5.729478E-4,-1.0869438E-2,5.682792E-3,1.5464093E-2,-3.8086188E-3,2.1222083E-2,1.4688211E-2,2.260904E-2,-4.0445453E-3,3.3168532E-2],"split_indices":[11,39,11,75,35,8,12,85,23,12,0,35,37,35,11,3,35,61,28,0,0,85,83,0,76,27,28,39,76,82,47,27,21,17,0,8,44,13,21,39,33,31,13,7,82,79,49,67,0,23,0,0,0,0,0,0,0,0,0,0,0,0,0,0,0,0,0,0,0,0,0,0,0,0,0,0,0,0,0,0,0,0,0,0,0,0,0,0,0],"split_type":[0,0,0,0,0,0,0,0,0,0,0,0,0,0,0,0,0,0,0,0,0,0,0,0,0,0,0,0,0,0,0,0,0,0,0,0,0,0,0,0,0,0,0,0,0,0,0,0,0,0,0,0,0,0,0,0,0,0,0,0,0,0,0,0,0,0,0,0,0,0,0,0,0,0,0,0,0,0,0,0,0,0,0,0,0,0,0,0,0],"sum_hessian":[3.828E3,5.2E2,3.308E3,4.45E2,7.5E1,2.144E3,1.164E3,2.27E2,2.18E2,6.6E1,9E0,2.032E3,1.12E2,8.44E2,3.2E2,5.9E1,1.68E2,1.31E2,8.7E1,5.7E1,9E0,1.514E3,5.18E2,5E0,1.07E2,5.06E2,3.38E2,2.41E2,7.9E1,1.4E1,4.5E1,1.45E2,2.3E1,1.28E2,3E0,7.9E1,8E0,1.195E3,3.19E2,3.74E2,1.44E2,3.7E1,7E1,3.05E2,2.01E2,2.29E2,1.09E2,2.38E2,3E0,1.3E1,6.6E1,8E0,6E0,3.2E1,1.3E1,1.04E2,4.1E1,1.9E1,4E0,3E0,1.25E2,7.3E1,6E0,4E0,4E0,4.04E2,7.91E2,1.38E2,1.81E2,1.03E2,2.71E2,9.6E1,4.8E1,6E0,3.1E1,1.8E1,5.2E1,2.72E2,3.3E1,1.63E2,3.8E1,1.61E2,6.8E1,3E0,1.06E2,1.27E2,1.11E2,9E0,4E0],"tree_param":{"num_deleted":"0","num_feature":"90","num_nodes":"89","size_leaf_vector":"1"}},{"base_weights":[-3.2441504E-3,-3.629519E-1,5.3145964E-2,-3.15039E-1,-5.6197447E-1,1.3344353E-3,3.1876454E-1,-2.621623E-1,-4.7495332E-1,-1.7297672E-1,-6.095907E-1,-4.7191396E-2,2.3339237E-1,2.3228242E-1,4.5334768E-1,-3.560915E-1,-5.510801E-2,-4.9518278E-1,2.2232246E-3,-0E0,-1.1145168E-2,-4.3347988E-1,-6.6810364E-1,-2.3787066E-2,-3.5849735E-1,1.8169375E-1,4.1978535E-1,2.7664375E-1,5.3388596E-2,1.766909E-2,4.7555476E-1,-4.551299E-1,-2.5295514E-1,-2.4613886E-1,4.147243E-3,-5.388372E-1,-3.2841218E-1,-2.579591E-2,-8.799716E-3,-7.1204364E-1,-1.45333875E-2,-1.1866097E-1,4.0535543E-2,-4.252747E-1,3.7458982E-2,2.2116154E-1,-1.0384107E-2,8.517821E-2,2.3160456E-2,4.465863E-1,2.4067901E-1,-1.1083743E-1,1.852234E-1,-6.749011E-3,1.0156503E-2,5.596576E-1,3.7118548E-1,-2.5057837E-2,-1.0967157E-2,-1.6936803E-2,-5.690933E-3,-0E0,-1.4177377E-2,-2.9478502E-3,7.4003967E-3,-2.7589306E-2,-3.5523903E-3,-8.533692E-4,-2.1316016E-2,-3.9538577E-2,-2.4640383E-2,-3.95694E-3,-1.6441215E-2,-8.498053E-4,8.244525E-3,-2.6465354E-2,-7.488174E-3,-4.2177443E-3,7.518234E-3,7.361166E-3,1.6444972E-2,5.2875956E-3,-7.1162432E-3,-5.507923E-3,1.0716436E-2,2.5403846E-2,-0E0,1.0390516E-2,2.5592873E-2,-9.924674E-3,7.4194334E-3,1.7332625E-2,3.4791324E-3,2.3295982E-2,3.3269938E-2,9.6291965E-3,2.3679512E-2],"categories":[],"categories_nodes":[],"categories_segments":[],"categories_sizes":[],"default_left":[0,0,0,0,0,0,0,0,0,0,0,0,0,0,0,0,0,0,0,0,0,0,0,0,0,0,0,0,0,0,0,0,0,0,0,0,0,0,0,0,0,0,0,0,0,0,0,0,0,0,0,0,0,0,0,0,0,0,0,0,0,0,0,0,0,0,0,0,0,0,0,0,0,0,0,0,0,0,0,0,0,0,0,0,0,0,0,0,0,0,0,0,0,0,0,0,0],"id":13,"left_children":[1,3,5,7,9,11,13,15,17,19,21,23,25,27,29,31,33,35,-1,-1,-1,37,39,41,43,45,47,49,51,53,55,57,59,61,63,65,67,-1,-1,69,-1,71,73,75,77,79,81,83,-1,85,87,89,91,-1,-1,93,95,-1,-1,-1,-1,-1,-1,-1,-1,-1,-1,-1,-1,-1,-1,-1,-1,-1,-1,-1,-1,-1,-1,-1,-1,-1,-1,-1,-1,-1,-1,-1,-1,-1,-1,-1,-1,-1,-1,-1,-1],"loss_changes":[7.78105E1,4.430748E0,4.5424103E1,3.1574173E0,1.3967419E0,3.1300446E1,5.8938828E0,6.0782948E0,1.2740726E0,1.0788679E-1,1.559658E-1,1.6537857E1,4.3181763E0,2.487959E0,1.806736E0,1.8488216E0,1.2637343E0,1.9688797E-1,0E0,0E0,0E0,1.8433046E-1,4.036045E-1,1.3058874E1,4.375164E0,2.9673452E0,1.2232399E0,1.2311611E0,1.5441828E0,3.9440432E-1,1.149147E0,7.8479767E-1,1.1171727E0,2.7398932E-1,7.524476E-1,1.6596413E-1,5.774481E-1,0E0,0E0,1.1648178E-2,0E0,6.995577E0,9.14798E0,3.5758057E0,3.5541794E-1,2.286334E0,1.010357E0,4.1846788E-1,0E0,1.23351E0,1.5845108E0,7.311783E-1,5.560961E-1,0E0,0E0,2.7820587E-1,1.3432617E0,0E0,0E0,0E0,0E0,0E0,0E0,0E0,0E0,0E0,0E0,0E0,0E0,0E0,0E0,0E0,0E0,0E0,0E0,0E0,0E0,0E0,0E0,0E0,0E0,0E0,0E0,0E0,0E0,0E0,0E0,0E0,0E0,0E0,0E0,0E0,0E0,0E0,0E0,0E0,0E0],"parents":[2147483647,0,0,1,1,2,2,3,3,4,4,5,5,6,6,7,7,8,8,9,9,10,10,11,11,12,12,13,13,14,14,15,15,16,16,17,17,21,21,22,22,23,23,24,24,25,25,26,26,27,27,28,28,29,29,30,30,31,31,32,32,33,33,34,34,35,35,36,36,39,39,41,41,42,42,43,43,44,44,45,45,46,46,47,47,49,49,50,50,51,51,52,52,55,55,56,56],"right_children":[2,4,6,8,10,12,14,16,18,20,22,24,26,28,30,32,34,36,-1,-1,-1,38,40,42,44,46,48,50,52,54,56,58,60,62,64,66,68,-1,-1,70,-1,72,74,76,78,80,82,84,-1,86,88,90,92,-1,-1,94,96,-1,-1,-1,-1,-1,-1,-1,-1,-1,-1,-1,-1,-1,-1,-1,-1,-1,-1,-1,-1,-1,-1,-1,-1,-1,-1,-1,-1,-1,-1,-1,-1,-1,-1,-1,-1,-1,-1,-1,-1],"split_conditions":[2E0,7E0,5E0,3E0,2E0,1E0,2E0,1E0,1E0,1E1,1.7E1,1.5E1,2.68E2,1.23E2,2E0,4.86E0,4.88E0,1.8E1,2.2232246E-3,-0E0,-1.1145168E-2,2E0,1E0,4.82E0,2.2E1,3.8E1,2E0,1.9E1,4.83E0,2E0,4.98E0,7E0,3.2E1,2E1,1.16E2,2.9E1,1E0,-2.579591E-2,-8.799716E-3,1E0,-1.45333875E-2,1E0,1E0,1E0,1.5E0,3E0,4E0,4.51E0,2.3160456E-2,2.2E1,1E0,3.02E2,2.5E0,-6.749011E-3,1.0156503E-2,8E0,1E0,-2.5057837E-2,-1.0967157E-2,-1.6936803E-2,-5.690933E-3,-0E0,-1.4177377E-2,-2.9478502E-3,7.4003967E-3,-2.7589306E-2,-3.5523903E-3,-8.533692E-4,-2.1316016E-2,-3.9538577E-2,-2.4640383E-2,-3.95694E-3,-1.6441215E-2,-8.498053E-4,8.244525E-3,-2.6465354E-2,-7.488174E-3,-4.2177443E-3,7.518234E-3,7.361166E-3,1.6444972E-2,5.2875956E-3,-7.1162432E-3,-5.507923E-3,1.0716436E-2,2.5403846E-2,-0E0,1.0390516E-2,2.5592873E-2,-9.924674E-3,7.4194334E-3,1.7332625E-2,3.4791324E-3,2.3295982E-2,3.3269938E-2,9.6291965E-3,2.3679512E-2],"split_indices":[11,39,11,1,15,53,12,38,60,37,79,39,7,79,14,33,31,19,0,0,0,1,87,33,38,38,77,79,29,3,31,8,23,79,79,23,39,0,0,47,0,68,70,87,24,11,23,33,0,19,53,26,14,0,0,11,2,0,0,0,0,0,0,0,0,0,0,0,0,0,0,0,0,0,0,0,0,0,0,0,0,0,0,0,0,0,0,0,0,0,0,0,0,0,0,0,0],"split_type":[0,0,0,0,0,0,0,0,0,0,0,0,0,0,0,0,0,0,0,0,0,0,0,0,0,0,0,0,0,0,0,0,0,0,0,0,0,0,0,0,0,0,0,0,0,0,0,0,0,0,0,0,0,0,0,0,0,0,0,0,0,0,0,0,0,0,0,0,0,0,0,0,0,0,0,0,0,0,0,0,0,0,0,0,0,0,0,0,0,0,0,0,0,0,0,0,0],"sum_hessian":[3.828E3,5.19E2,3.309E3,4.22E2,9.7E1,2.771E3,5.38E2,3.21E2,1.01E2,1.2E1,8.5E1,2.291E3,4.8E2,3.31E2,2.07E2,2.19E2,1.02E2,9.8E1,3E0,3E0,9E0,2.5E1,6E1,2.133E3,1.58E2,3.79E2,1.01E2,2.63E2,6.8E1,1.1E1,1.96E2,1.08E2,1.11E2,2.5E1,7.7E1,7.4E1,2.4E1,1.7E1,8E0,5.2E1,8E0,8.64E2,1.269E3,1.36E2,2.2E1,3.16E2,6.3E1,1.3E1,8.8E1,4.2E1,2.21E2,2.9E1,3.9E1,5E0,6E0,1.04E2,9.2E1,8.8E1,2E1,6.6E1,4.5E1,3E0,2.2E1,5.2E1,2.5E1,7.1E1,3E0,7E0,1.7E1,3.5E1,1.7E1,7.3E2,1.34E2,8.66E2,4.03E2,9.7E1,3.9E1,9E0,1.3E1,1.91E2,1.25E2,3.2E1,3.1E1,4E0,9E0,3.7E1,5E0,2E2,2.1E1,2.3E1,6E0,1.4E1,2.5E1,6E1,4.4E1,3.6E1,5.6E1],"tree_param":{"num_deleted":"0","num_feature":"90","num_nodes":"97","size_leaf_vector":"1"}},{"base_weights":[1.8062977E-3,-4.8967943E-2,3.188207E-1,2.9143661E-2,-2.1754168E-1,3.4197444E-1,-1.4934275E-1,2.5913003E-1,-1.275121E-2,-7.1794395E-3,-3.5981783E-1,2.3394293E-1,4.3751636E-1,-2.3140298E-1,3.9606206E-3,1.5886037E-1,4.600412E-1,-8.051485E-2,1.2143402E-1,-1.4053686E-1,1.5316342E-1,-4.6835837E-1,-2.3629344E-1,2.9740128E-1,8.2497545E-2,3.7237823E-1,5.7755727E-1,-3.0594787E-1,-0E0,-4.3607866E-3,1.0847046E-2,7.095581E-2,3.577505E-1,3.568728E-2,4.8351148E-1,6.7933E-2,-1.4298357E-1,2.1281935E-1,2.2201344E-2,-2.1612507E-1,1.1556088E-1,6.602178E-2,3.5802743E-1,-5.0544566E-1,-1.28836E-1,-3.3825302E-1,-1.22834615E-1,5.964724E-1,2.3605636E-1,-2.5361883E-2,2.584654E-1,3.9534417E-1,-0E0,2.9963125E-2,2.3892936E-3,-3.9392227E-4,-1.7729042E-2,6.2791747E-4,1.12413475E-2,2.3995942E-2,9.068022E-3,1.0795201E-2,-1.7811785E-3,1.1824718E-2,2.5977626E-2,5.5347555E-3,-7.4423025E-3,-9.738297E-3,-1.4776895E-3,7.012602E-3,1.7342469E-2,-1.138953E-2,6.262562E-3,-1.1854048E-2,1.43745905E-2,-2.3494354E-3,1.9227033E-2,5.2402886E-3,-7.402205E-3,-1.8305492E-3,1.943017E-2,-3.052333E-2,-2.2137476E-2,-0E0,-1.5528984E-2,-1.8610498E-2,3.0627255E-3,-1.39848385E-2,-3.9555943E-3,3.713078E-2,1.7559696E-2,9.09922E-3,1.9313943E-2,-6.8563367E-3,4.7586863E-3,2.321206E-2,3.6634076E-3,2.1563623E-2,1.0328349E-2,-1.0319697E-2,4.934128E-3],"categories":[],"categories_nodes":[],"categories_segments":[],"categories_sizes":[],"default_left":[0,0,0,0,0,0,0,0,0,0,0,0,0,0,0,0,0,0,0,0,0,0,0,0,0,0,0,0,0,0,0,0,0,0,0,0,0,0,0,0,0,0,0,0,0,0,0,0,0,0,0,0,0,0,0,0,0,0,0,0,0,0,0,0,0,0,0,0,0,0,0,0,0,0,0,0,0,0,0,0,0,0,0,0,0,0,0,0,0,0,0,0,0,0,0,0,0,0,0,0,0],"id":14,"left_children":[1,3,5,7,9,11,13,15,17,19,21,23,25,27,29,31,33,35,37,39,41,43,45,47,49,51,53,55,-1,-1,-1,57,59,61,63,65,67,69,71,73,75,77,79,81,83,85,87,89,91,93,95,97,99,-1,-1,-1,-1,-1,-1,-1,-1,-1,-1,-1,-1,-1,-1,-1,-1,-1,-1,-1,-1,-1,-1,-1,-1,-1,-1,-1,-1,-1,-1,-1,-1,-1,-1,-1,-1,-1,-1,-1,-1,-1,-1,-1,-1,-1,-1,-1,-1],"loss_changes":[6.2125977E1,4.379802E1,5.905712E0,2.1954601E1,3.1366413E1,4.882725E0,4.063962E-1,6.750355E0,1.7433554E1,9.146976E0,8.013908E0,2.1588497E0,1.8405266E0,2.530011E-1,2.2616084E-1,3.9466867E0,9.2043114E-1,1.1881799E1,5.7231855E0,4.6143246E0,3.2522144E0,3.8491058E0,3.209776E0,2.6267452E0,1.5232811E0,1.7341194E0,6.439476E-1,4.0670753E-2,0E0,0E0,0E0,1.4028317E0,1.1784487E0,1.8261473E-1,5.362091E-1,3.4959798E0,5.196686E0,2.985611E0,7.999386E0,1.9793291E0,2.470385E0,1.143942E0,8.307452E-1,1.2639999E0,7.694814E-1,2.236353E0,8.219652E-1,2.6950932E-1,8.639617E-1,6.4952767E-1,8.9425564E-1,8.56266E-1,2.8116E-1,0E0,0E0,0E0,0E0,0E0,0E0,0E0,0E0,0E0,0E0,0E0,0E0,0E0,0E0,0E0,0E0,0E0,0E0,0E0,0E0,0E0,0E0,0E0,0E0,0E0,0E0,0E0,0E0,0E0,0E0,0E0,0E0,0E0,0E0,0E0,0E0,0E0,0E0,0E0,0E0,0E0,0E0,0E0,0E0,0E0,0E0,0E0,0E0],"parents":[2147483647,0,0,1,1,2,2,3,3,4,4,5,5,6,6,7,7,8,8,9,9,10,10,11,11,12,12,13,13,14,14,15,15,16,16,17,17,18,18,19,19,20,20,21,21,22,22,23,23,24,24,25,25,26,26,27,27,31,31,32,32,33,33,34,34,35,35,36,36,37,37,38,38,39,39,40,40,41,41,42,42,43,43,44,44,45,45,46,46,47,47,48,48,49,49,50,50,51,51,52,52],"right_children":[2,4,6,8,10,12,14,16,18,20,22,24,26,28,30,32,34,36,38,40,42,44,46,48,50,52,54,56,-1,-1,-1,58,60,62,64,66,68,70,72,74,76,78,80,82,84,86,88,90,92,94,96,98,100,-1,-1,-1,-1,-1,-1,-1,-1,-1,-1,-1,-1,-1,-1,-1,-1,-1,-1,-1,-1,-1,-1,-1,-1,-1,-1,-1,-1,-1,-1,-1,-1,-1,-1,-1,-1,-1,-1,-1,-1,-1,-1,-1,-1,-1,-1,-1,-1],"split_conditions":[1E0,1E0,1E0,1.5E1,8E0,1E0,4.92E0,2E0,1E0,1E0,8.1E1,8E0,2E0,6.9E1,7E0,4.92E0,3E0,1.3E1,7E0,4.93E0,4E0,5E-1,1.6E1,2.6E1,1E0,3E0,1E0,1.9E1,-0E0,-4.3607866E-3,1.0847046E-2,5E-1,5E0,3E0,1E0,1E0,1E0,7.8E1,1E0,4E0,2E0,2.06E2,1E0,4.71E0,6.2E1,1E0,4.67E0,2E0,4.83E0,1E0,1E0,1E0,5E-1,2.9963125E-2,2.3892936E-3,-3.9392227E-4,-1.7729042E-2,6.2791747E-4,1.12413475E-2,2.3995942E-2,9.068022E-3,1.0795201E-2,-1.7811785E-3,1.1824718E-2,2.5977626E-2,5.5347555E-3,-7.4423025E-3,-9.738297E-3,-1.4776895E-3,7.012602E-3,1.7342469E-2,-1.138953E-2,6.262562E-3,-1.1854048E-2,1.43745905E-2,-2.3494354E-3,1.9227033E-2,5.2402886E-3,-7.402205E-3,-1.8305492E-3,1.943017E-2,-3.052333E-2,-2.2137476E-2,-0E0,-1.5528984E-2,-1.8610498E-2,3.0627255E-3,-1.39848385E-2,-3.9555943E-3,3.713078E-2,1.7559696E-2,9.09922E-3,1.9313943E-2,-6.8563367E-3,4.7586863E-3,2.321206E-2,3.6634076E-3,2.1563623E-2,1.0328349E-2,-1.0319697E-2,4.934128E-3],"split_indices":[60,85,68,16,15,70,28,13,70,87,21,15,12,23,83,33,82,27,37,30,83,74,83,27,58,3,62,82,0,0,0,69,37,8,48,66,59,21,2,14,14,23,21,33,27,56,33,16,28,6,6,66,50,0,0,0,0,0,0,0,0,0,0,0,0,0,0,0,0,0,0,0,0,0,0,0,0,0,0,0,0,0,0,0,0,0,0,0,0,0,0,0,0,0,0,0,0,0,0,0,0],"split_type":[0,0,0,0,0,0,0,0,0,0,0,0,0,0,0,0,0,0,0,0,0,0,0,0,0,0,0,0,0,0,0,0,0,0,0,0,0,0,0,0,0,0,0,0,0,0,0,0,0,0,0,0,0,0,0,0,0,0,0,0,0,0,0,0,0,0,0,0,0,0,0,0,0,0,0,0,0,0,0,0,0,0,0,0,0,0,0,0,0,0,0,0,0,0,0,0,0,0,0,0,0],"sum_hessian":[3.851E3,3.319E3,5.32E2,2.267E3,1.052E3,5.08E2,2.4E1,3.5E2,1.917E3,4.26E2,6.26E2,2.42E2,2.66E2,1.7E1,7E0,2.36E2,1.14E2,1.276E3,6.41E2,2.34E2,1.92E2,3.3E2,2.96E2,1.68E2,7.4E1,1.86E2,8E1,1.2E1,5E0,4E0,3E0,1.66E2,7E1,7E0,1.07E2,3.76E2,9E2,3.31E2,3.1E2,1.82E2,5.2E1,1.37E2,5.5E1,2.96E2,3.4E1,1.53E2,1.43E2,2.6E1,1.42E2,4.5E1,2.9E1,1.76E2,1E1,7.6E1,4E0,3E0,9E0,1.23E2,4.3E1,3.9E1,3.1E1,3E0,4E0,1.6E1,9.1E1,3.16E2,6E1,6.15E2,2.85E2,2.18E2,1.13E2,8.9E1,2.21E2,1.76E2,6E0,3.2E1,2E1,1.18E2,1.9E1,3E0,5.2E1,1.05E2,1.91E2,2.1E1,1.3E1,1.42E2,1.1E1,2.8E1,1.15E2,1.4E1,1.2E1,1.08E2,3.4E1,2.5E1,2E1,1.2E1,1.7E1,1.45E2,3.1E1,4E0,6E0],"tree_param":{"num_deleted":"0","num_feature":"90","num_nodes":"101","size_leaf_vector":"1"}},{"base_weights":[3.0708555E-3,-4.6282414E-2,2.9910442E-1,2.9740656E-2,-2.1290292E-1,3.2018232E-1,-1.7946792E-1,2.3950301E-1,-1.2282727E-2,-3.5344067E-1,4.2083776E-3,2.1448582E-1,4.2003644E-1,-1.2966052E-2,3.9933785E-3,1.4886408E-1,4.3456453E-1,-1.411993E-1,5.7198178E-2,-4.4993353E-1,-2.3237695E-1,-1.2596346E-1,1.6341457E-1,2.3770483E-1,-7.0720552E-3,3.4637654E-1,5.7250124E-1,8.099221E-2,3.7308657E-1,-1.2528509E-4,4.5343107E-1,2.9277615E-2,-2.2170915E-1,-8.4511325E-2,9.997046E-2,-4.830757E-1,-1.3021085E-1,-4.0901262E-1,-1.546394E-1,-1.8808416E-1,1.600922E-1,4.306947E-2,3.1775844E-1,2.0461681E-1,4.3807617E-1,-8.299567E-2,1.4664747E-2,3.7065932E-1,-1.2549633E-3,5.873661E-1,1.4181565E-3,1.4438299E-3,9.251978E-3,-5.6076255E-3,2.1375021E-2,2.3254465E-2,-0E0,1.3573661E-2,-5.077606E-4,-1.5017328E-2,-3.9476426E-3,-8.625944E-3,4.004284E-3,1.0207019E-2,1.9085624E-3,-2.980048E-2,-2.0112945E-2,-3.581793E-4,-1.8083137E-2,-2.5844712E-2,-1.3051187E-2,-9.531202E-3,1.6809996E-3,-5.979591E-3,-1.6048757E-2,-0E0,2.0685233E-2,-6.277613E-4,9.229696E-3,-8.596354E-3,1.944442E-2,1.1908286E-2,-0E0,-0E0,2.6516175E-2,4.513227E-3,-9.249203E-3,1.9138353E-2,-0E0,-1.1315805E-2,4.4782558E-3,7.637621E-3,3.0138243E-2],"categories":[],"categories_nodes":[],"categories_segments":[],"categories_sizes":[],"default_left":[0,0,0,0,0,0,0,0,0,0,0,0,0,0,0,0,0,0,0,0,0,0,0,0,0,0,0,0,0,0,0,0,0,0,0,0,0,0,0,0,0,0,0,0,0,0,0,0,0,0,0,0,0,0,0,0,0,0,0,0,0,0,0,0,0,0,0,0,0,0,0,0,0,0,0,0,0,0,0,0,0,0,0,0,0,0,0,0,0,0,0,0,0],"id":15,"left_children":[1,3,5,7,9,11,13,15,17,19,21,23,25,-1,-1,27,29,31,33,35,37,39,41,43,45,47,49,51,53,-1,55,57,59,61,63,65,67,69,71,73,75,77,79,81,83,85,-1,87,89,91,-1,-1,-1,-1,-1,-1,-1,-1,-1,-1,-1,-1,-1,-1,-1,-1,-1,-1,-1,-1,-1,-1,-1,-1,-1,-1,-1,-1,-1,-1,-1,-1,-1,-1,-1,-1,-1,-1,-1,-1,-1,-1,-1],"loss_changes":[5.6115963E1,4.16907E1,5.651676E0,1.9971483E1,3.1599396E1,5.2181816E0,5.6879395E-1,6.3850403E0,1.6863375E1,6.9469986E0,8.428851E0,1.4314651E0,2.4439316E0,0E0,0E0,3.7601538E0,1.1545353E0,9.14201E0,7.403283E0,3.3581085E0,3.5834942E0,3.9862428E0,3.259696E0,1.2245693E0,4.8754123E-1,1.709898E0,4.1648674E-1,1.0098562E0,1.731905E0,0E0,5.71825E-1,2.1224306E0,4.876259E0,4.121294E0,5.9402065E0,2.2085495E0,8.466618E-1,8.9499474E-1,1.4173245E0,1.4601569E0,1.7388737E0,9.0559226E-1,2.9053183E0,1.37327E0,1.081842E0,4.2566633E-1,0E0,8.54723E-1,3.2025126E-1,1.4781189E-1,0E0,0E0,0E0,0E0,0E0,0E0,0E0,0E0,0E0,0E0,0E0,0E0,0E0,0E0,0E0,0E0,0E0,0E0,0E0,0E0,0E0,0E0,0E0,0E0,0E0,0E0,0E0,0E0,0E0,0E0,0E0,0E0,0E0,0E0,0E0,0E0,0E0,0E0,0E0,0E0,0E0,0E0,0E0],"parents":[2147483647,0,0,1,1,2,2,3,3,4,4,5,5,6,6,7,7,8,8,9,9,10,10,11,11,12,12,15,15,16,16,17,17,18,18,19,19,20,20,21,21,22,22,23,23,24,24,25,25,26,26,27,27,28,28,30,30,31,31,32,32,33,33,34,34,35,35,36,36,37,37,38,38,39,39,40,40,41,41,42,42,43,43,44,44,45,45,47,47,48,48,49,49],"right_children":[2,4,6,8,10,12,14,16,18,20,22,24,26,-1,-1,28,30,32,34,36,38,40,42,44,46,48,50,52,54,-1,56,58,60,62,64,66,68,70,72,74,76,78,80,82,84,86,-1,88,90,92,-1,-1,-1,-1,-1,-1,-1,-1,-1,-1,-1,-1,-1,-1,-1,-1,-1,-1,-1,-1,-1,-1,-1,-1,-1,-1,-1,-1,-1,-1,-1,-1,-1,-1,-1,-1,-1,-1,-1,-1,-1,-1,-1],"split_conditions":[1E0,1E0,1E0,3E1,1E0,1E0,4.92E0,2E0,1E0,8.1E1,1E0,1.3E2,2E0,-1.2966052E-2,3.9933785E-3,4.95E0,1E0,2.1E1,1E0,5E-1,4.68E0,4.95E0,3E0,5E1,5E-1,3E0,1E0,3.3E1,1E0,-1.2528509E-4,1.06E2,4.4E0,1E0,2.6E1,1E0,4.74E0,1.5E0,1E0,3.8E1,3.4E1,2E0,4.6E0,8E0,4.85E0,4.84E0,1E0,1.4664747E-2,5E0,4.1E1,2.85E1,1.4181565E-3,1.4438299E-3,9.251978E-3,-5.6076255E-3,2.1375021E-2,2.3254465E-2,-0E0,1.3573661E-2,-5.077606E-4,-1.5017328E-2,-3.9476426E-3,-8.625944E-3,4.004284E-3,1.0207019E-2,1.9085624E-3,-2.980048E-2,-2.0112945E-2,-3.581793E-4,-1.8083137E-2,-2.5844712E-2,-1.3051187E-2,-9.531202E-3,1.6809996E-3,-5.979591E-3,-1.6048757E-2,-0E0,2.0685233E-2,-6.277613E-4,9.229696E-3,-8.596354E-3,1.944442E-2,1.1908286E-2,-0E0,-0E0,2.6516175E-2,4.513227E-3,-9.249203E-3,1.9138353E-2,-0E0,-1.1315805E-2,4.4782558E-3,7.637621E-3,3.0138243E-2],"split_indices":[60,85,68,15,35,70,30,13,4,21,87,79,12,0,0,33,38,38,13,74,33,28,83,76,74,3,62,76,38,0,82,32,58,7,24,33,24,52,83,24,14,34,79,34,28,10,0,25,76,76,0,0,0,0,0,0,0,0,0,0,0,0,0,0,0,0,0,0,0,0,0,0,0,0,0,0,0,0,0,0,0,0,0,0,0,0,0,0,0,0,0,0,0],"split_type":[0,0,0,0,0,0,0,0,0,0,0,0,0,0,0,0,0,0,0,0,0,0,0,0,0,0,0,0,0,0,0,0,0,0,0,0,0,0,0,0,0,0,0,0,0,0,0,0,0,0,0,0,0,0,0,0,0,0,0,0,0,0,0,0,0,0,0,0,0,0,0,0,0,0,0,0,0,0,0,0,0,0,0,0,0,0,0,0,0,0,0,0,0],"sum_hessian":[3.832E3,3.284E3,5.48E2,2.254E3,1.03E3,5.26E2,2.2E1,3.77E2,1.877E3,6.26E2,4.04E2,2.59E2,2.67E2,1.8E1,4E0,2.6E2,1.17E2,6.59E2,1.218E3,3.45E2,2.81E2,2.21E2,1.83E2,2.36E2,2.3E1,1.84E2,8.3E1,2.02E2,5.8E1,4E0,1.13E2,2.1E2,4.49E2,2.8E2,9.38E2,3.11E2,3.4E1,8.3E1,1.98E2,1.83E2,3.8E1,1.05E2,7.8E1,2.06E2,3E1,2E1,3E0,1.73E2,1.1E1,8E1,3E0,1.38E2,6.4E1,5E0,5.3E1,1.1E2,3E0,3E1,1.8E2,2.87E2,1.62E2,1.84E2,9.6E1,3.46E2,5.92E2,1.25E2,1.86E2,2.4E1,1E1,4.5E1,3.8E1,1.68E2,3E1,1.24E2,5.9E1,2.3E1,1.5E1,7.4E1,3.1E1,9E0,6.9E1,1.76E2,3E1,6E0,2.4E1,6E0,1.4E1,1.68E2,5E0,4E0,7E0,4E0,7.6E1],"tree_param":{"num_deleted":"0","num_feature":"90","num_nodes":"93","size_leaf_vector":"1"}},{"base_weights":[4.268808E-3,-1.0038015E-1,1.5106645E-1,-3.159799E-1,-3.9415292E-2,1.0069431E-1,3.7445128E-1,-2.679708E-1,-4.641818E-1,-7.293866E-2,2.517942E-1,6.492281E-2,2.9343385E-1,-1.2209473E-2,4.0003896E-1,-3.3289286E-1,-1.4244378E-1,-4.8210835E-1,-0E0,-1.0752922E-1,1.7145538E-1,9.238974E-2,3.413326E-1,1.1010259E-1,-4.4356078E-2,1.3913496E-1,3.5526928E-1,-3.2192025E-1,2.970994E-2,2.2148721E-1,4.5623425E-1,-5.5652842E-2,-3.6543837E-1,-3.4213096E-1,-1.0017979E-2,-0E0,-4.9363258E-1,3.363281E-2,-1.545473E-1,1.16900206E-1,2.8286177E-1,1.3012578E-1,-1.607811E-2,3.6314377E-1,-0E0,2.0308755E-1,6.0989544E-2,-1.380236E-1,2.0241277E-1,-0E0,2.2830626E-1,4.8968545E-1,2.3851627E-1,3.2446755E-3,-2.4222687E-2,4.271586E-1,1.07616365E-1,3.4937292E-1,5.0965476E-1,7.3732333E-3,-1.3409282E-2,-1.2961199E-2,-2.2403186E-2,-2.5323305E-2,-9.844042E-3,4.837006E-3,-7.5199488E-3,-1.2298866E-2,-2.6464699E-2,-1.773976E-3,1.1233455E-2,-3.4536116E-3,-1.1420201E-2,3.4845357E-3,1.8007465E-2,1.9641982E-2,6.4428523E-3,-0E0,1.1584224E-2,-0E0,1.8889379E-2,-2.7452898E-3,3.1878147E-3,-0E0,1.2521594E-2,2.5721604E-3,3.970028E-2,-9.068378E-3,9.228862E-3,5.5797687E-3,1.5565604E-2,-3.0875306E-3,5.3834654E-3,1.6162232E-2,-3.453891E-3,2.0928234E-2,3.923845E-2,3.5480976E-3,1.8392086E-2,-0E0,2.5807176E-2,1.0853368E-2,-0E0,2.1611547E-2,3.2859605E-3,2.6067978E-2,1.4040241E-3],"categories":[],"categories_nodes":[],"categories_segments":[],"categories_sizes":[],"default_left":[0,0,0,0,0,0,0,0,0,0,0,0,0,0,0,0,0,0,0,0,0,0,0,0,0,0,0,0,0,0,0,0,0,0,0,0,0,0,0,0,0,0,0,0,0,0,0,0,0,0,0,0,0,0,0,0,0,0,0,0,0,0,0,0,0,0,0,0,0,0,0,0,0,0,0,0,0,0,0,0,0,0,0,0,0,0,0,0,0,0,0,0,0,0,0,0,0,0,0,0,0,0,0,0,0,0,0],"id":16,"left_children":[1,3,5,7,9,11,13,15,17,19,21,23,25,27,29,31,33,35,-1,37,39,41,43,45,47,49,51,53,-1,55,57,59,61,63,65,-1,67,69,71,73,75,77,-1,79,81,83,85,87,89,91,93,95,97,-1,-1,99,101,103,105,-1,-1,-1,-1,-1,-1,-1,-1,-1,-1,-1,-1,-1,-1,-1,-1,-1,-1,-1,-1,-1,-1,-1,-1,-1,-1,-1,-1,-1,-1,-1,-1,-1,-1,-1,-1,-1,-1,-1,-1,-1,-1,-1,-1,-1,-1,-1,-1],"loss_changes":[5.850405E1,2.9038227E1,1.7618496E1,3.0548935E0,1.6874687E1,8.77988E0,3.0292053E0,2.8022022E0,1.0380764E0,1.3155321E1,2.3355389E0,5.4472857E0,1.6705761E0,3.4629743E0,2.3670807E0,2.0037937E0,3.319842E0,5.2838135E-1,0E0,9.119933E0,9.7396517E-1,1.0118697E0,7.978153E-1,3.4395008E0,7.3756204E0,7.99832E-1,1.8047047E0,1.0165744E0,0E0,1.3560987E0,6.485863E-1,1.2965721E0,1.4965515E0,8.3630276E-1,1.2499446E0,0E0,5.2235603E-1,4.5726542E0,6.348591E0,1.3302925E0,7.5692797E-1,7.582805E-1,0E0,5.683613E-1,3.238291E-2,2.5129137E0,3.21775E0,3.2901835E0,6.5652156E-1,1.5756479E-1,1.1968555E0,5.123434E-1,1.5102296E0,0E0,0E0,8.64995E-1,4.9228096E-1,1.5116339E0,5.096359E-1,0E0,0E0,0E0,0E0,0E0,0E0,0E0,0E0,0E0,0E0,0E0,0E0,0E0,0E0,0E0,0E0,0E0,0E0,0E0,0E0,0E0,0E0,0E0,0E0,0E0,0E0,0E0,0E0,0E0,0E0,0E0,0E0,0E0,0E0,0E0,0E0,0E0,0E0,0E0,0E0,0E0,0E0,0E0,0E0,0E0,0E0,0E0,0E0],"parents":[2147483647,0,0,1,1,2,2,3,3,4,4,5,5,6,6,7,7,8,8,9,9,10,10,11,11,12,12,13,13,14,14,15,15,16,16,17,17,19,19,20,20,21,21,22,22,23,23,24,24,25,25,26,26,27,27,29,29,30,30,31,31,32,32,33,33,34,34,36,36,37,37,38,38,39,39,40,40,41,41,43,43,44,44,45,45,46,46,47,47,48,48,49,49,50,50,51,51,52,52,55,55,56,56,57,57,58,58],"right_children":[2,4,6,8,10,12,14,16,18,20,22,24,26,28,30,32,34,36,-1,38,40,42,44,46,48,50,52,54,-1,56,58,60,62,64,66,-1,68,70,72,74,76,78,-1,80,82,84,86,88,90,92,94,96,98,-1,-1,100,102,104,106,-1,-1,-1,-1,-1,-1,-1,-1,-1,-1,-1,-1,-1,-1,-1,-1,-1,-1,-1,-1,-1,-1,-1,-1,-1,-1,-1,-1,-1,-1,-1,-1,-1,-1,-1,-1,-1,-1,-1,-1,-1,-1,-1,-1,-1,-1,-1,-1],"split_conditions":[3E0,2E0,2E0,4E0,1E0,1E0,1E0,1E0,6E0,5E-1,1E0,4E1,1E0,2.2E1,9.9E-1,4E0,1E0,1E0,-0E0,3E1,2.14E2,1E0,3E0,9E0,3.98E2,4.73E0,8E0,4.18E0,2.970994E-2,6E0,1E0,2.6E1,2.09E2,1E0,1.5E0,-0E0,2.5E1,3E0,4E0,1E0,2.85E2,1.6E1,-1.607811E-2,1E0,1E0,1.5E1,3.4E1,6E0,4E0,4.4E1,1.2E2,2E0,9.9E1,3.2446755E-3,-2.4222687E-2,1.73E2,1E1,4.84E0,1E0,7.3732333E-3,-1.3409282E-2,-1.2961199E-2,-2.2403186E-2,-2.5323305E-2,-9.844042E-3,4.837006E-3,-7.5199488E-3,-1.2298866E-2,-2.6464699E-2,-1.773976E-3,1.1233455E-2,-3.4536116E-3,-1.1420201E-2,3.4845357E-3,1.8007465E-2,1.9641982E-2,6.4428523E-3,-0E0,1.1584224E-2,-0E0,1.8889379E-2,-2.7452898E-3,3.1878147E-3,-0E0,1.2521594E-2,2.5721604E-3,3.970028E-2,-9.068378E-3,9.228862E-3,5.5797687E-3,1.5565604E-2,-3.0875306E-3,5.3834654E-3,1.6162232E-2,-3.453891E-3,2.0928234E-2,3.923845E-2,3.5480976E-3,1.8392086E-2,-0E0,2.5807176E-2,1.0853368E-2,-0E0,2.1611547E-2,3.2859605E-3,2.6067978E-2,1.4040241E-3],"split_indices":[11,11,12,1,60,53,38,38,77,74,67,7,81,19,4,15,4,9,0,16,26,54,25,15,8,30,15,29,0,38,47,24,22,51,24,0,79,83,7,73,26,19,0,52,46,21,37,11,11,23,79,15,79,0,0,26,19,34,62,0,0,0,0,0,0,0,0,0,0,0,0,0,0,0,0,0,0,0,0,0,0,0,0,0,0,0,0,0,0,0,0,0,0,0,0,0,0,0,0,0,0,0,0,0,0,0,0],"split_type":[0,0,0,0,0,0,0,0,0,0,0,0,0,0,0,0,0,0,0,0,0,0,0,0,0,0,0,0,0,0,0,0,0,0,0,0,0,0,0,0,0,0,0,0,0,0,0,0,0,0,0,0,0,0,0,0,0,0,0,0,0,0,0,0,0,0,0,0,0,0,0,0,0,0,0,0,0,0,0,0,0,0,0,0,0,0,0,0,0,0,0,0,0,0,0,0,0,0,0,0,0,0,0,0,0,0,0],"sum_hessian":[3.805E3,2.22E3,1.585E3,4.87E2,1.733E3,1.296E3,2.89E2,3.72E2,1.15E2,1.556E3,1.77E2,1.096E3,2E2,1.7E1,2.72E2,2.42E2,1.3E2,1.11E2,4E0,1.365E3,1.91E2,6.6E1,1.11E2,7.78E2,3.18E2,6E1,1.4E2,1.2E1,5E0,6.8E1,2.04E2,2.7E1,2.15E2,5E1,8E1,3E0,1.08E2,3.39E2,1.026E3,1.32E2,5.9E1,6.2E1,4E0,1.04E2,7E0,2.65E2,5.13E2,2.32E2,8.6E1,2.3E1,3.7E1,6.2E1,7.8E1,3E0,9E0,2.2E1,4.6E1,7.3E1,1.31E2,1.3E1,1.4E1,9.8E1,1.17E2,2.1E1,2.9E1,4.4E1,3.6E1,1.6E1,9.2E1,2.48E2,9.1E1,4.79E2,5.47E2,1.13E2,1.9E1,3.2E1,2.7E1,2.9E1,3.3E1,4E0,1E2,3E0,4E0,5.1E1,2.14E2,5.08E2,5E0,2.06E2,2.6E1,5E1,3.6E1,1.6E1,7E0,2.9E1,8E0,5.3E1,9E0,3.6E1,4.2E1,4E0,1.8E1,2.1E1,2.5E1,5.5E1,1.8E1,1.27E2,4E0],"tree_param":{"num_deleted":"0","num_feature":"90","num_nodes":"107","size_leaf_vector":"1"}},{"base_weights":[3.6426558E-4,-8.0361724E-2,1.8607965E-1,-2.9701385E-1,-3.011041E-2,1.21755354E-1,3.5513794E-1,-4.1573966E-1,-2.2739978E-1,-1.0614995E-1,5.353573E-2,6.1439373E-2,2.0770557E-1,2.0016871E-1,3.8142863E-1,-4.5842165E-1,-2.5506017E-1,-1.8235031E-1,-2.3095403E-2,-1.6170907E-1,9.808503E-3,1.7271645E-1,-1.0475461E-2,1.3573934E-1,-6.097314E-2,1.3190502E-1,3.737325E-1,3.8722876E-1,6.012454E-2,3.8718244E-1,-0E0,-2.8703657E-3,-4.699714E-1,-1.0671739E-1,-3.792735E-1,-2.6870767E-2,-2.3489653E-1,-8.549397E-2,-3.224573E-1,1.9928472E-1,-4.6317518E-2,1.9658229E-1,-2.6810747E-1,-4.3487053E-2,2.1907601E-1,1.4860882E-1,-1.6013412E-2,-1.6769044E-1,-6.9258125E-3,2.8643242E-1,6.209736E-2,3.1348E-1,3.0445138E-2,1.7392166E-3,4.757246E-1,-0E0,1.4139061E-2,3.3077917E-1,4.534164E-1,-2.6338428E-2,-1.7800836E-2,3.11428E-3,-9.180872E-3,-2.518431E-2,-5.6490186E-3,-1.0623473E-2,1.8668891E-3,-1.5719539E-2,-6.430918E-3,-7.282515E-3,3.6848288E-3,-1.7756691E-2,-0E0,1.2589804E-2,-1.7944021E-3,-1.0012637E-2,8.762246E-4,2.0637985E-3,1.2039838E-2,3.3797033E-3,-1.987109E-2,6.552089E-3,-3.8246207E-3,6.3497717E-3,2.1618495E-2,3.9094887E-3,1.2557918E-2,-1.221463E-2,1.19874465E-4,-2.2474767E-3,9.526107E-3,-0E0,1.8452734E-2,-3.6198006E-3,5.9355283E-3,1.15029095E-2,2.4248369E-2,2.8034965E-2,9.347312E-5,3.1871393E-3,-6.662417E-3,1.3151738E-2,2.258262E-2,1.2939259E-2,2.7045626E-2],"categories":[],"categories_nodes":[],"categories_segments":[],"categories_sizes":[],"default_left":[0,0,0,0,0,0,0,0,0,0,0,0,0,0,0,0,0,0,0,0,0,0,0,0,0,0,0,0,0,0,0,0,0,0,0,0,0,0,0,0,0,0,0,0,0,0,0,0,0,0,0,0,0,0,0,0,0,0,0,0,0,0,0,0,0,0,0,0,0,0,0,0,0,0,0,0,0,0,0,0,0,0,0,0,0,0,0,0,0,0,0,0,0,0,0,0,0,0,0,0,0,0,0,0,0],"id":17,"left_children":[1,3,5,7,9,11,13,15,17,19,21,23,25,27,29,31,33,35,-1,37,39,41,43,45,47,49,51,53,55,57,-1,-1,59,61,63,65,67,69,71,73,75,77,79,81,83,85,-1,87,89,91,93,95,-1,-1,97,99,-1,101,103,-1,-1,-1,-1,-1,-1,-1,-1,-1,-1,-1,-1,-1,-1,-1,-1,-1,-1,-1,-1,-1,-1,-1,-1,-1,-1,-1,-1,-1,-1,-1,-1,-1,-1,-1,-1,-1,-1,-1,-1,-1,-1,-1,-1,-1,-1],"loss_changes":[5.692212E1,2.8634687E1,1.2282616E1,3.7476387E0,1.3688896E1,4.218733E0,9.7439957E-1,8.321419E-1,3.0070057E0,7.329542E0,7.855813E0,4.5494246E0,4.052494E0,1.10761E0,7.266388E-1,4.058628E-1,5.39027E-1,2.0866747E0,0E0,9.181606E0,3.9413922E0,3.8010015E0,4.963412E0,1.804059E0,1.0018001E0,2.4101539E0,9.2797565E-1,4.030459E-1,4.476927E-1,5.1885986E-1,0E0,0E0,3.2663727E-1,3.4588885E-1,3.921616E-1,9.240943E-1,1.4636116E0,5.0383544E0,2.5017204E0,1.1450849E0,2.8283103E0,2.2256727E0,9.401927E-1,3.3407488E0,1.3318436E0,2.043941E0,0E0,8.790897E-1,9.0381354E-1,1.7201419E0,1.2986748E0,8.47023E-1,0E0,0E0,3.7790966E-1,2.288695E-1,0E0,8.154087E-1,1.4985313E0,0E0,0E0,0E0,0E0,0E0,0E0,0E0,0E0,0E0,0E0,0E0,0E0,0E0,0E0,0E0,0E0,0E0,0E0,0E0,0E0,0E0,0E0,0E0,0E0,0E0,0E0,0E0,0E0,0E0,0E0,0E0,0E0,0E0,0E0,0E0,0E0,0E0,0E0,0E0,0E0,0E0,0E0,0E0,0E0,0E0,0E0],"parents":[2147483647,0,0,1,1,2,2,3,3,4,4,5,5,6,6,7,7,8,8,9,9,10,10,11,11,12,12,13,13,14,14,15,15,16,16,17,17,19,19,20,20,21,21,22,22,23,23,24,24,25,25,26,26,27,27,28,28,29,29,32,32,33,33,34,34,35,35,36,36,37,37,38,38,39,39,40,40,41,41,42,42,43,43,44,44,45,45,47,47,48,48,49,49,50,50,51,51,54,54,55,55,57,57,58,58],"right_children":[2,4,6,8,10,12,14,16,18,20,22,24,26,28,30,32,34,36,-1,38,40,42,44,46,48,50,52,54,56,58,-1,-1,60,62,64,66,68,70,72,74,76,78,80,82,84,86,-1,88,90,92,94,96,-1,-1,98,100,-1,102,104,-1,-1,-1,-1,-1,-1,-1,-1,-1,-1,-1,-1,-1,-1,-1,-1,-1,-1,-1,-1,-1,-1,-1,-1,-1,-1,-1,-1,-1,-1,-1,-1,-1,-1,-1,-1,-1,-1,-1,-1,-1,-1,-1,-1,-1,-1],"split_conditions":[4E0,2E0,1.5E0,4.79E0,4.91E0,1E0,1E0,8.9E1,9.1E1,1E0,6E1,6.4E1,2E0,5E0,6.7E1,1E0,1.3E1,1E0,-2.3095403E-2,1E0,9.8E1,1.3E1,5E-1,1.2E1,4.72E0,8E1,7E0,2E0,1.1E1,3E0,-0E0,-2.8703657E-3,1E0,1.1E1,4.52E0,4.57E0,1.9E1,1E0,2E0,1E0,4.53E0,5.3E-1,2E0,3E1,3.9E1,1E0,-1.6013412E-2,1E0,1E0,1.6E1,4.81E0,1E0,3.0445138E-2,1.7392166E-3,2E1,6E1,1.4139061E-2,2E0,1E0,-2.6338428E-2,-1.7800836E-2,3.11428E-3,-9.180872E-3,-2.518431E-2,-5.6490186E-3,-1.0623473E-2,1.8668891E-3,-1.5719539E-2,-6.430918E-3,-7.282515E-3,3.6848288E-3,-1.7756691E-2,-0E0,1.2589804E-2,-1.7944021E-3,-1.0012637E-2,8.762246E-4,2.0637985E-3,1.2039838E-2,3.3797033E-3,-1.987109E-2,6.552089E-3,-3.8246207E-3,6.3497717E-3,2.1618495E-2,3.9094887E-3,1.2557918E-2,-1.221463E-2,1.19874465E-4,-2.2474767E-3,9.526107E-3,-0E0,1.8452734E-2,-3.6198006E-3,5.9355283E-3,1.15029095E-2,2.4248369E-2,2.8034965E-2,9.347312E-5,3.1871393E-3,-6.662417E-3,1.3151738E-2,2.258262E-2,1.2939259E-2,2.7045626E-2],"split_indices":[11,11,12,33,33,35,51,21,8,35,27,27,13,8,83,72,27,39,0,39,27,39,74,39,33,27,77,12,83,13,0,0,38,76,33,30,23,70,13,25,30,5,15,16,23,47,0,67,60,21,33,67,0,0,83,21,0,1,70,0,0,0,0,0,0,0,0,0,0,0,0,0,0,0,0,0,0,0,0,0,0,0,0,0,0,0,0,0,0,0,0,0,0,0,0,0,0,0,0,0,0,0,0,0,0],"split_type":[0,0,0,0,0,0,0,0,0,0,0,0,0,0,0,0,0,0,0,0,0,0,0,0,0,0,0,0,0,0,0,0,0,0,0,0,0,0,0,0,0,0,0,0,0,0,0,0,0,0,0,0,0,0,0,0,0,0,0,0,0,0,0,0,0,0,0,0,0,0,0,0,0,0,0,0,0,0,0,0,0,0,0,0,0,0,0,0,0,0,0,0,0,0,0,0,0,0,0,0,0,0,0,0,0],"sum_hessian":[3.792E3,2.642E3,1.15E3,4.95E2,2.147E3,8.36E2,3.14E2,1.79E2,3.16E2,1.127E3,1.02E3,4.95E2,3.41E2,4.9E1,2.65E2,1.38E2,4.1E1,2.68E2,4.8E1,7.64E2,3.63E2,3.58E2,6.62E2,3.1E2,1.85E2,2.37E2,1.04E2,1.9E1,3E1,2.62E2,3E0,5E0,1.33E2,2.1E1,2E1,7E1,1.98E2,5.21E2,2.43E2,8.4E1,2.79E2,3.41E2,1.7E1,5.81E2,8.1E1,3.03E2,7E0,5.9E1,1.26E2,7.1E1,1.66E2,8.6E1,1.8E1,5E0,1.4E1,2.4E1,6E0,1.48E2,1.14E2,8.4E1,4.9E1,5E0,1.6E1,1.2E1,8E0,1.9E1,5.1E1,1.1E2,8.8E1,3.8E2,1.41E2,2.2E2,2.3E1,7E1,1.4E1,8.3E1,1.96E2,7.8E1,2.63E2,4E0,1.3E1,9E1,4.91E2,5.9E1,2.2E1,1.83E2,1.2E2,4.2E1,1.7E1,1.08E2,1.8E1,1.6E1,5.5E1,4.7E1,1.19E2,6.1E1,2.5E1,1.1E1,3E0,1.6E1,8E0,9.9E1,4.9E1,3.8E1,7.6E1],"tree_param":{"num_deleted":"0","num_feature":"90","num_nodes":"105","size_leaf_vector":"1"}},{"base_weights":[-2.206879E-3,-5.8658805E-2,1.9925115E-1,-2.2158763E-1,-3.6656365E-3,3.863023E-1,1.3878675E-1,-8.966506E-2,-2.9623127E-1,3.8928643E-2,-2.4632798E-1,3.3909637E-1,5.613691E-1,3.4423254E-2,2.5522915E-1,-2.6147622E-1,2.716001E-2,-3.1004164E-1,5.5538714E-2,1.4971869E-1,-1.3636297E-2,-4.1279408E-1,-1.5837274E-1,-4.560698E-2,3.6946872E-1,1.987854E-3,6.0711056E-1,1.2607695E-2,4.0296873E-1,1.7712936E-1,4.3478E-1,-4.7401714E-1,-1.5217507E-1,-2.6100182E-3,4.402787E-1,1.7748598E-2,-3.2644916E-1,1.9696857E-1,-3.7302025E-2,1.2618512E-2,2.2986619E-1,7.969893E-2,-6.8722196E-2,-5.5930287E-1,-3.1865674E-1,-2.3159091E-1,-1.506333E-2,9.527696E-3,-2.471715E-2,2.9806933E-1,2.4097608E-2,3.5394195E-2,3.4359744E-1,3.0910093E-1,-1.2955813E-2,2.3515416E-2,6.161909E-3,-1.0222007E-1,2.0392099E-1,1.947666E-1,5.001552E-1,-2.5207257E-2,-0E0,-1.949697E-2,-1.6141305E-4,-1.1381333E-2,1.5811442E-3,3.600461E-2,4.019939E-3,-1.0068828E-2,4.9926443E-3,-1.3227043E-2,-2.2129245E-2,2.2212118E-4,1.3505049E-2,6.106805E-4,-5.8705336E-3,4.469731E-3,-1.0617727E-2,8.098045E-3,1.4329079E-2,